{"learner":{"attributes":{"scikit_learn":"{\"_estimator_type\": \"regressor\"}"},"feature_names":["second","minute","hour","day","lag1","lag2","lag3"],"feature_types":["int","int","int","int","float","float","float"],"gradient_booster":{"model":{"gbtree_model_param":{"num_parallel_tree":"1","num_trees":"750"},"iteration_indptr":[0,1,2,3,4,5,6,7,8,9,10,11,12,13,14,15,16,17,18,19,20,21,22,23,24,25,26,27,28,29,30,31,32,33,34,35,36,37,38,39,40,41,42,43,44,45,46,47,48,49,50,51,52,53,54,55,56,57,58,59,60,61,62,63,64,65,66,67,68,69,70,71,72,73,74,75,76,77,78,79,80,81,82,83,84,85,86,87,88,89,90,91,92,93,94,95,96,97,98,99,100,101,102,103,104,105,106,107,108,109,110,111,112,113,114,115,116,117,118,119,120,121,122,123,124,125,126,127,128,129,130,131,132,133,134,135,136,137,138,139,140,141,142,143,144,145,146,147,148,149,150,151,152,153,154,155,156,157,158,159,160,161,162,163,164,165,166,167,168,169,170,171,172,173,174,175,176,177,178,179,180,181,182,183,184,185,186,187,188,189,190,191,192,193,194,195,196,197,198,199,200,201,202,203,204,205,206,207,208,209,210,211,212,213,214,215,216,217,218,219,220,221,222,223,224,225,226,227,228,229,230,231,232,233,234,235,236,237,238,239,240,241,242,243,244,245,246,247,248,249,250,251,252,253,254,255,256,257,258,259,260,261,262,263,264,265,266,267,268,269,270,271,272,273,274,275,276,277,278,279,280,281,282,283,284,285,286,287,288,289,290,291,292,293,294,295,296,297,298,299,300,301,302,303,304,305,306,307,308,309,310,311,312,313,314,315,316,317,318,319,320,321,322,323,324,325,326,327,328,329,330,331,332,333,334,335,336,337,338,339,340,341,342,343,344,345,346,347,348,349,350,351,352,353,354,355,356,357,358,359,360,361,362,363,364,365,366,367,368,369,370,371,372,373,374,375,376,377,378,379,380,381,382,383,384,385,386,387,388,389,390,391,392,393,394,395,396,397,398,399,400,401,402,403,404,405,406,407,408,409,410,411,412,413,414,415,416,417,418,419,420,421,422,423,424,425,426,427,428,429,430,431,432,433,434,435,436,437,438,439,440,441,442,443,444,445,446,447,448,449,450,451,452,453,454,455,456,457,458,459,460,461,462,463,464,465,466,467,468,469,470,471,472,473,474,475,476,477,478,479,480,481,482,483,484,485,486,487,488,489,490,491,492,493,494,495,496,497,498,499,500,501,502,503,504,505,506,507,508,509,510,511,512,513,514,515,516,517,518,519,520,521,522,523,524,525,526,527,528,529,530,531,532,533,534,535,536,537,538,539,540,541,542,543,544,545,546,547,548,549,550,551,552,553,554,555,556,557,558,559,560,561,562,563,564,565,566,567,568,569,570,571,572,573,574,575,576,577,578,579,580,581,582,583,584,585,586,587,588,589,590,591,592,593,594,595,596,597,598,599,600,601,602,603,604,605,606,607,608,609,610,611,612,613,614,615,616,617,618,619,620,621,622,623,624,625,626,627,628,629,630,631,632,633,634,635,636,637,638,639,640,641,642,643,644,645,646,647,648,649,650,651,652,653,654,655,656,657,658,659,660,661,662,663,664,665,666,667,668,669,670,671,672,673,674,675,676,677,678,679,680,681,682,683,684,685,686,687,688,689,690,691,692,693,694,695,696,697,698,699,700,701,702,703,704,705,706,707,708,709,710,711,712,713,714,715,716,717,718,719,720,721,722,723,724,725,726,727,728,729,730,731,732,733,734,735,736,737,738,739,740,741,742,743,744,745,746,747,748,749,750],"tree_info":[0,0,0,0,0,0,0,0,0,0,0,0,0,0,0,0,0,0,0,0,0,0,0,0,0,0,0,0,0,0,0,0,0,0,0,0,0,0,0,0,0,0,0,0,0,0,0,0,0,0,0,0,0,0,0,0,0,0,0,0,0,0,0,0,0,0,0,0,0,0,0,0,0,0,0,0,0,0,0,0,0,0,0,0,0,0,0,0,0,0,0,0,0,0,0,0,0,0,0,0,0,0,0,0,0,0,0,0,0,0,0,0,0,0,0,0,0,0,0,0,0,0,0,0,0,0,0,0,0,0,0,0,0,0,0,0,0,0,0,0,0,0,0,0,0,0,0,0,0,0,0,0,0,0,0,0,0,0,0,0,0,0,0,0,0,0,0,0,0,0,0,0,0,0,0,0,0,0,0,0,0,0,0,0,0,0,0,0,0,0,0,0,0,0,0,0,0,0,0,0,0,0,0,0,0,0,0,0,0,0,0,0,0,0,0,0,0,0,0,0,0,0,0,0,0,0,0,0,0,0,0,0,0,0,0,0,0,0,0,0,0,0,0,0,0,0,0,0,0,0,0,0,0,0,0,0,0,0,0,0,0,0,0,0,0,0,0,0,0,0,0,0,0,0,0,0,0,0,0,0,0,0,0,0,0,0,0,0,0,0,0,0,0,0,0,0,0,0,0,0,0,0,0,0,0,0,0,0,0,0,0,0,0,0,0,0,0,0,0,0,0,0,0,0,0,0,0,0,0,0,0,0,0,0,0,0,0,0,0,0,0,0,0,0,0,0,0,0,0,0,0,0,0,0,0,0,0,0,0,0,0,0,0,0,0,0,0,0,0,0,0,0,0,0,0,0,0,0,0,0,0,0,0,0,0,0,0,0,0,0,0,0,0,0,0,0,0,0,0,0,0,0,0,0,0,0,0,0,0,0,0,0,0,0,0,0,0,0,0,0,0,0,0,0,0,0,0,0,0,0,0,0,0,0,0,0,0,0,0,0,0,0,0,0,0,0,0,0,0,0,0,0,0,0,0,0,0,0,0,0,0,0,0,0,0,0,0,0,0,0,0,0,0,0,0,0,0,0,0,0,0,0,0,0,0,0,0,0,0,0,0,0,0,0,0,0,0,0,0,0,0,0,0,0,0,0,0,0,0,0,0,0,0,0,0,0,0,0,0,0,0,0,0,0,0,0,0,0,0,0,0,0,0,0,0,0,0,0,0,0,0,0,0,0,0,0,0,0,0,0,0,0,0,0,0,0,0,0,0,0,0,0,0,0,0,0,0,0,0,0,0,0,0,0,0,0,0,0,0,0,0,0,0,0,0,0,0,0,0,0,0,0,0,0,0,0,0,0,0,0,0,0,0,0,0,0,0,0,0,0,0,0,0,0,0,0,0,0,0,0,0,0,0,0,0,0,0,0,0,0,0,0,0,0,0,0,0,0,0,0,0,0,0,0,0,0,0,0,0,0,0,0,0,0,0,0,0,0,0,0,0,0,0,0,0,0,0,0,0,0,0,0,0,0,0,0,0,0,0,0,0,0,0,0,0,0,0,0,0,0,0,0,0,0,0,0,0,0,0,0,0,0,0,0,0,0,0,0,0,0,0,0,0,0,0,0,0,0,0,0,0,0,0,0,0,0,0,0,0,0,0,0,0,0,0,0,0,0,0,0,0,0,0,0,0,0,0,0,0,0],"trees":[{"base_weights":[3.7000266E2],"categories":[],"categories_nodes":[],"categories_segments":[],"categories_sizes":[],"default_left":[0],"id":0,"left_children":[-1],"loss_changes":[0E0],"parents":[2147483647],"right_children":[-1],"split_conditions":[3.7000266E2],"split_indices":[0],"split_type":[0],"sum_hessian":[9.619E3],"tree_param":{"num_deleted":"0","num_feature":"7","num_nodes":"1","size_leaf_vector":"1"}},{"base_weights":[3.8474027E-2,1.481512E0,-2.5380323E0,-2.2774631E-1,1.9506425E0,-2.7477686E0,-1.4675274E0,5.771165E-1,-6.0546887E-1,2.3349159E0,2.4296762E-1,-2.847413E0,-1.5024108E0,-9.4130546E-1,-2.013078E0],"categories":[],"categories_nodes":[],"categories_segments":[],"categories_sizes":[],"default_left":[0,0,1,0,0,1,0,0,0,0,0,0,0,0,0],"id":1,"left_children":[1,3,5,7,9,11,13,-1,-1,-1,-1,-1,-1,-1,-1],"loss_changes":[3.5770887E4,4.945548E3,7.714707E2,4.0438516E2,3.1748516E3,3.5397656E2,1.6116699E2,0E0,0E0,0E0,0E0,0E0,0E0,0E0,0E0],"parents":[2147483647,0,0,1,1,2,2,3,3,4,4,5,5,6,6],"right_children":[2,4,6,8,10,12,14,-1,-1,-1,-1,-1,-1,-1,-1],"split_conditions":[1.3E1,3.72E2,3.6855E2,2.4E1,1.2E1,3.6965E2,1.9E1,5.771165E-1,-6.0546887E-1,2.3349159E0,2.4296762E-1,-2.847413E0,-1.5024108E0,-9.4130546E-1,-2.013078E0],"split_indices":[2,4,4,1,2,5,1,0,0,0,0,0,0,0,0],"split_type":[0,0,0,0,0,0,0,0,0,0,0,0,0,0,0],"sum_hessian":[9.619E3,6.166E3,3.453E3,1.328E3,4.838E3,2.886E3,5.67E2,4.24E2,9.04E2,3.949E3,8.89E2,2.671E3,2.15E2,2.9E2,2.77E2],"tree_param":{"num_deleted":"0","num_feature":"7","num_nodes":"15","size_leaf_vector":"1"}},{"base_weights":[-5.0109735E-4,-6.405151E-1,1.4209487E-1,-1.370713E0,4.756957E-1,5.850458E-1,2.1560028E-2,-7.6364654E-1,-2.0998769E0,3.430758E0,2.4588358E-1,-9.503369E-2,7.3025024E-1,2.6436013E-1,-3.9249414E-1],"categories":[],"categories_nodes":[],"categories_segments":[],"categories_sizes":[],"default_left":[0,0,0,0,0,0,0,0,0,0,0,0,0,0,0],"id":2,"left_children":[1,3,5,7,9,11,13,-1,-1,-1,-1,-1,-1,-1,-1],"loss_changes":[8.7804504E2,1.4294431E3,4.2006796E2,4.6760632E2,4.7045822E2,1.662666E2,6.219971E2,0E0,0E0,0E0,0E0,0E0,0E0,0E0,0E0],"parents":[2147483647,0,0,1,1,2,2,3,3,4,4,5,5,6,6],"right_children":[2,4,6,8,10,12,14,-1,-1,-1,-1,-1,-1,-1,-1],"split_conditions":[1E1,4E1,1.1E1,3.72E2,3.7195E2,1.1E1,3.2E1,-7.6364654E-1,-2.0998769E0,3.430758E0,2.4588358E-1,-9.503369E-2,7.3025024E-1,2.6436013E-1,-3.9249414E-1],"split_indices":[2,1,2,4,4,1,1,0,0,0,0,0,0,0,0],"split_type":[0,0,0,0,0,0,0,0,0,0,0,0,0,0,0],"sum_hessian":[9.619E3,1.752E3,7.867E3,1.059E3,6.93E2,1.682E3,6.185E3,5.79E2,4.8E2,4.9E1,6.44E2,2.96E2,1.386E3,3.899E3,2.286E3],"tree_param":{"num_deleted":"0","num_feature":"7","num_nodes":"15","size_leaf_vector":"1"}},{"base_weights":[1.2942054E-4,-1.4108139E0,7.3521635E-3,-1.808277E0,-1.7104867E-1,2.358903E-1,-3.0330548E-2,-4.8970795E-1,-2.6480103E-2,-4.1133347E-1,3.748668E-1,-1.03072114E-1,8.134901E-2],"categories":[],"categories_nodes":[],"categories_segments":[],"categories_sizes":[],"default_left":[0,0,0,0,0,0,1,0,0,0,0,0,0],"id":3,"left_children":[1,3,5,-1,7,9,11,-1,-1,-1,-1,-1,-1],"loss_changes":[9.804665E1,2.3835976E1,8.24406E1,0E0,5.85918E-1,1.2203498E2,6.676933E1,0E0,0E0,0E0,0E0,0E0,0E0],"parents":[2147483647,0,0,1,1,2,2,4,4,5,5,6,6],"right_children":[2,4,6,-1,8,10,12,-1,-1,-1,-1,-1,-1],"split_conditions":[3.668E2,1.7E1,1.1E1,-1.808277E0,2.1E1,3.7075E2,3.6805E2,-4.8970795E-1,-2.6480103E-2,-4.1133347E-1,3.748668E-1,-1.03072114E-1,8.134901E-2],"split_indices":[4,1,1,0,1,4,4,0,0,0,0,0,0],"split_type":[0,0,0,0,0,0,0,0,0,0,0,0,0],"sum_hessian":[9.619E3,4.8E1,9.571E3,3.6E1,1.2E1,1.354E3,8.217E3,3E0,9E0,2.39E2,1.115E3,4.976E3,3.241E3],"tree_param":{"num_deleted":"0","num_feature":"7","num_nodes":"13","size_leaf_vector":"1"}},{"base_weights":[-2.596183E-4,-1.6485877E-1,3.2598674E-2,-2.6061058E-1,2.347418E-1,5.5916306E-2,-1.3058749E-1,-4.3883604E-1,-1.5009244E-1,-1.1034436E-1,5.308955E-1,8.8657305E-2,-9.219634E-2,-1.8871851E-1,1.8283207E0],"categories":[],"categories_nodes":[],"categories_segments":[],"categories_sizes":[],"default_left":[0,0,0,0,0,0,1,0,0,0,0,0,0,0,0],"id":4,"left_children":[1,3,5,7,9,11,13,-1,-1,-1,-1,-1,-1,-1,-1],"loss_changes":[5.2034637E1,6.1319405E1,3.052432E1,2.5382843E1,3.174013E1,3.4040955E1,1.1456E2,0E0,0E0,0E0,0E0,0E0,0E0,0E0,0E0],"parents":[2147483647,0,0,1,1,2,2,3,3,4,4,5,5,6,6],"right_children":[2,4,6,8,10,12,14,-1,-1,-1,-1,-1,-1,-1,-1],"split_conditions":[3.7095E2,1.5E1,5E1,3.6895E2,2.8E1,1.4E1,3.735E2,-4.3883604E-1,-1.5009244E-1,-1.1034436E-1,5.308955E-1,8.8657305E-2,-9.219634E-2,-1.8871851E-1,1.8283207E0],"split_indices":[5,2,1,5,1,2,6,0,0,0,0,0,0,0,0],"split_type":[0,0,0,0,0,0,0,0,0,0,0,0,0,0,0],"sum_hessian":[9.619E3,1.6E3,8.019E3,1.291E3,3.09E2,7.017E3,1.002E3,4.93E2,7.98E2,1.43E2,1.66E2,5.747E3,1.27E3,9.74E2,2.8E1],"tree_param":{"num_deleted":"0","num_feature":"7","num_nodes":"15","size_leaf_vector":"1"}},{"base_weights":[1.5477043E-4,-6.5200076E-2,6.060601E-2,5.595281E-2,-1.1903805E-1,-8.883422E-3,1.3071348E-1,6.232948E-1,-1.3605757E-1,-3.9167213E-1,1.0489712E-2,1.0681764E-1,-1.4812288E-1,3.8421504E-2,3.308852E-1],"categories":[],"categories_nodes":[],"categories_segments":[],"categories_sizes":[],"default_left":[0,0,0,0,0,0,0,0,0,0,0,0,0,0,0],"id":5,"left_children":[1,3,5,7,9,11,13,-1,-1,-1,-1,-1,-1,-1,-1],"loss_changes":[3.801047E1,3.0160763E1,2.4350056E1,1.5510007E2,1.130432E2,4.046842E1,4.59512E1,0E0,0E0,0E0,0E0,0E0,0E0,0E0,0E0],"parents":[2147483647,0,0,1,1,2,2,3,3,4,4,5,5,6,6],"right_children":[2,4,6,8,10,12,14,-1,-1,-1,-1,-1,-1,-1,-1],"split_conditions":[1.2E1,2.2E1,2.5E1,1E1,3.5E1,1.4E1,1.4E1,6.232948E-1,-1.3605757E-1,-3.9167213E-1,1.0489712E-2,1.0681764E-1,-1.4812288E-1,3.8421504E-2,3.308852E-1],"split_indices":[2,1,1,2,1,2,2,0,0,0,0,0,0,0,0],"split_type":[0,0,0,0,0,0,0,0,0,0,0,0,0,0,0],"sum_hessian":[9.619E3,4.622E3,4.997E3,1.422E3,3.2E3,2.51E3,2.487E3,3.59E2,1.063E3,1.03E3,2.17E3,1.371E3,1.139E3,1.703E3,7.84E2],"tree_param":{"num_deleted":"0","num_feature":"7","num_nodes":"15","size_leaf_vector":"1"}},{"base_weights":[4.430759E-5,2.0857088E-1,-1.3973124E-2,3.0892912E-1,6.044937E-2,9.1230236E-2,-3.9525144E-2,9.571695E-1,2.7609137E-1,1.548831E-1,-4.3299787E-2,-3.07684E-1,1.277306E-1,-2.4671254E-1,-2.4084566E-2],"categories":[],"categories_nodes":[],"categories_segments":[],"categories_sizes":[],"default_left":[0,0,0,0,0,0,0,0,0,0,0,0,0,0,0],"id":6,"left_children":[1,3,5,7,9,11,13,-1,-1,-1,-1,-1,-1,-1,-1],"loss_changes":[2.812224E1,8.989645E0,2.4237354E1,7.420246E0,2.4168715E0,2.5694921E1,2.320028E1,0E0,0E0,0E0,0E0,0E0,0E0,0E0,0E0],"parents":[2147483647,0,0,1,1,2,2,3,3,4,4,5,5,6,6],"right_children":[2,4,6,8,10,12,14,-1,-1,-1,-1,-1,-1,-1,-1],"split_conditions":[3.693E2,1.5E1,1.4E1,3.6655E2,3.6745E2,3.7155E2,1.7E1,9.571695E-1,2.7609137E-1,1.548831E-1,-4.3299787E-2,-3.07684E-1,1.277306E-1,-2.4671254E-1,-2.4084566E-2],"split_indices":[6,2,1,6,6,6,1,0,0,0,0,0,0,0,0],"split_type":[0,0,0,0,0,0,0,0,0,0,0,0,0,0,0],"sum_hessian":[9.619E3,6.05E2,9.014E3,3.6E2,2.45E2,1.761E3,7.253E3,1.6E1,3.44E2,1.28E2,1.17E2,1.47E2,1.614E3,5.02E2,6.751E3],"tree_param":{"num_deleted":"0","num_feature":"7","num_nodes":"15","size_leaf_vector":"1"}},{"base_weights":[9.057884E-5,-6.8849266E-2,2.6957486E-2,-4.903945E-2,-4.0266752E-1,4.373512E-2,-5.440279E-2,-3.3248377E-1,-3.4771115E-2,-4.210863E-1,2.1937867E-1,3.334148E-2,2.9146335E-1,-1.347278E-1,-9.24751E-3],"categories":[],"categories_nodes":[],"categories_segments":[],"categories_sizes":[],"default_left":[0,1,1,0,0,1,0,0,0,0,0,0,0,0,0],"id":7,"left_children":[1,3,5,7,9,11,13,-1,-1,-1,-1,-1,-1,-1,-1],"loss_changes":[1.7820024E1,1.7821796E1,9.452502E0,1.029326E1,1.8224373E0,1.4769621E1,4.2932386E0,0E0,0E0,0E0,0E0,0E0,0E0,0E0,0E0],"parents":[2147483647,0,0,1,1,2,2,3,3,4,4,5,5,6,6],"right_children":[2,4,6,8,10,12,14,-1,-1,-1,-1,-1,-1,-1,-1],"split_conditions":[3.73E2,3.7245E2,3.718E2,3.678E2,5.5E1,3.713E2,2.2E1,-3.3248377E-1,-3.4771115E-2,-4.210863E-1,2.1937867E-1,3.334148E-2,2.9146335E-1,-1.347278E-1,-9.24751E-3],"split_indices":[5,6,4,4,1,4,1,0,0,0,0,0,0,0,0],"split_type":[0,0,0,0,0,0,0,0,0,0,0,0,0,0,0],"sum_hessian":[9.619E3,2.697E3,6.922E3,2.547E3,1.5E2,5.739E3,1.183E3,1.21E2,2.426E3,1.46E2,4E0,5.509E3,2.3E2,4.25E2,7.58E2],"tree_param":{"num_deleted":"0","num_feature":"7","num_nodes":"15","size_leaf_vector":"1"}},{"base_weights":[-5.1404037E-5,4.5960748E-1,-3.2748806E-3,7.6527625E-1,3.718488E-1,-1.2138337E-2,1.0033657E-1,5.1763636E-1,2.633889E-1,-4.5909408E-1,-1.02504175E-2,2.628318E-1,6.663701E-2],"categories":[],"categories_nodes":[],"categories_segments":[],"categories_sizes":[],"default_left":[0,0,1,0,0,0,0,0,0,0,0,0,0],"id":8,"left_children":[1,3,5,-1,7,9,11,-1,-1,-1,-1,-1,-1],"loss_changes":[1.4255454E1,1.5127144E0,8.7751875E0,0E0,7.1751356E-1,7.4225664E0,4.1059265E0,0E0,0E0,0E0,0E0,0E0,0E0],"parents":[2147483647,0,0,1,1,2,2,4,4,5,5,6,6],"right_children":[2,4,6,-1,8,10,12,-1,-1,-1,-1,-1,-1],"split_conditions":[3.671E2,3.688E2,3.73E2,7.6527625E-1,3.696E2,3.6725E2,7E0,5.1763636E-1,2.633889E-1,-4.5909408E-1,-1.02504175E-2,2.628318E-1,6.663701E-2],"split_indices":[4,5,5,0,6,4,1,0,0,0,0,0,0],"split_type":[0,0,0,0,0,0,0,0,0,0,0,0,0],"sum_hessian":[9.619E3,6.6E1,9.553E3,1.3E1,5.3E1,8.801E3,7.52E2,2.1E1,3.2E1,3.6E1,8.765E3,1.28E2,6.24E2],"tree_param":{"num_deleted":"0","num_feature":"7","num_nodes":"13","size_leaf_vector":"1"}},{"base_weights":[1.4869547E-4,6.810577E-2,-1.1173382E-2,1.2941721E-1,-3.3162835E-1,-1.840189E-1,-1.5018078E-3,6.1664082E-2,3.9791438E-1,-5.662847E-1,4.650965E-2,1.6057634E-1,-2.6168892E-1,8.0560625E-2,-1.0011602E-2],"categories":[],"categories_nodes":[],"categories_segments":[],"categories_sizes":[],"default_left":[0,0,0,0,0,0,0,0,0,0,0,0,0,0,0],"id":9,"left_children":[1,3,5,7,9,11,13,-1,-1,-1,-1,-1,-1,-1,-1],"loss_changes":[7.4025364E0,3.371729E1,1.3786137E1,2.1659763E1,1.6264381E1,1.1738204E1,5.4554973E0,0E0,0E0,0E0,0E0,0E0,0E0,0E0,0E0],"parents":[2147483647,0,0,1,1,2,2,3,3,4,4,5,5,6,6],"right_children":[2,4,6,8,10,12,14,-1,-1,-1,-1,-1,-1,-1,-1],"split_conditions":[3.6875E2,4.7E1,3.696E2,3.7E1,5.1E1,3.699E2,3.7115E2,6.1664082E-2,3.9791438E-1,-5.662847E-1,4.650965E-2,1.6057634E-1,-2.6168892E-1,8.0560625E-2,-1.0011602E-2],"split_indices":[4,1,4,1,1,5,4,0,0,0,0,0,0,0,0],"split_type":[0,0,0,0,0,0,0,0,0,0,0,0,0,0,0],"sum_hessian":[9.619E3,1.373E3,8.246E3,1.191E3,1.82E2,4.36E2,7.81E3,9.52E2,2.39E2,1.12E2,7E1,8E1,3.56E2,7.33E2,7.077E3],"tree_param":{"num_deleted":"0","num_feature":"7","num_nodes":"15","size_leaf_vector":"1"}},{"base_weights":[-1.2600397E-5,2.0112266E-1,-2.6387728E-3,2.9001072E-1,1.4105076E-2,-1.4631758E-2,3.377964E-2,2.195368E-1,4.095459E-1,-8.8189326E-2,3.8761732E-1,-3.5156354E-2,5.4944012E-2,1.3246298E-1,-4.694579E-2],"categories":[],"categories_nodes":[],"categories_segments":[],"categories_sizes":[],"default_left":[0,0,0,0,1,1,0,0,0,0,0,0,0,0,0],"id":10,"left_children":[1,3,5,7,9,11,13,-1,-1,-1,-1,-1,-1,-1,-1],"loss_changes":[5.0819674E0,2.0572395E0,4.148456E0,6.1771584E-1,1.6007204E0,1.0205097E1,1.8750814E1,0E0,0E0,0E0,0E0,0E0,0E0,0E0,0E0],"parents":[2147483647,0,0,1,1,2,2,3,3,4,4,5,5,6,6],"right_children":[2,4,6,8,10,12,14,-1,-1,-1,-1,-1,-1,-1,-1],"split_conditions":[1E0,1.3E1,4.4E1,1.2E1,3.671E2,3.6995E2,1.1E1,2.195368E-1,4.095459E-1,-8.8189326E-2,3.8761732E-1,-3.5156354E-2,5.4944012E-2,1.3246298E-1,-4.694579E-2],"split_indices":[1,2,1,2,4,6,2,0,0,0,0,0,0,0,0],"split_type":[0,0,0,0,0,0,0,0,0,0,0,0,0,0,0],"sum_hessian":[9.619E3,1.23E2,9.496E3,8.3E1,4E1,7.144E3,2.352E3,5.4E1,2.9E1,3.2E1,8E0,5.517E3,1.627E3,1.058E3,1.294E3],"tree_param":{"num_deleted":"0","num_feature":"7","num_nodes":"15","size_leaf_vector":"1"}},{"base_weights":[1.0665925E-4,1.2129181E-2,-8.758529E-2,2.4271579E-1,9.648899E-3,-4.5087345E-2,-1.9037504E-1,4.6392223E-1,-4.539032E-2,-3.3605266E-2,2.1101302E-2,-2.0481913E-1,-2.877583E-2,-3.1579152E-1,7.3590085E-2],"categories":[],"categories_nodes":[],"categories_segments":[],"categories_sizes":[],"default_left":[1,0,0,1,0,0,0,0,0,0,0,0,0,0,0],"id":11,"left_children":[1,3,5,7,9,11,13,-1,-1,-1,-1,-1,-1,-1,-1],"loss_changes":[1.014322E1,4.836673E0,5.058707E0,5.756841E0,4.1478972E0,2.1358006E0,1.1246029E1,0E0,0E0,0E0,0E0,0E0,0E0,0E0,0E0],"parents":[2147483647,0,0,1,1,2,2,3,3,4,4,5,5,6,6],"right_children":[2,4,6,8,10,12,14,-1,-1,-1,-1,-1,-1,-1,-1],"split_conditions":[3.7275E2,3.6685E2,4.9E1,3.681E2,1E1,3.72E2,5.4E1,4.6392223E-1,-4.539032E-2,-3.3605266E-2,2.1101302E-2,-2.0481913E-1,-2.877583E-2,-3.1579152E-1,7.3590085E-2],"split_indices":[6,5,1,6,2,4,1,0,0,0,0,0,0,0,0],"split_type":[0,0,0,0,0,0,0,0,0,0,0,0,0,0,0],"sum_hessian":[9.619E3,8.46E3,1.159E3,8.9E1,8.371E3,8.21E2,3.38E2,5E1,3.9E1,1.752E3,6.619E3,7.5E1,7.46E2,2.29E2,1.09E2],"tree_param":{"num_deleted":"0","num_feature":"7","num_nodes":"15","size_leaf_vector":"1"}},{"base_weights":[1.6147035E-6,-4.927856E-2,8.982016E-3,-5.6492573E-1,-3.5327338E-2,-3.3794895E-2,2.2815235E-2,-1.3911133E-1,-6.096156E-1,2.9603425E-1,-4.9646508E-2,-4.670824E-2,8.592759E-2,1.5884198E-1,1.7932022E-2],"categories":[],"categories_nodes":[],"categories_segments":[],"categories_sizes":[],"default_left":[0,0,0,0,0,0,0,0,0,0,0,0,0,0,0],"id":12,"left_children":[1,3,5,7,9,11,13,-1,-1,-1,-1,-1,-1,-1,-1],"loss_changes":[4.2578287E0,1.0648611E1,4.8163705E0,6.573496E-1,6.8709655E0,3.079043E0,4.0822744E0,0E0,0E0,0E0,0E0,0E0,0E0,0E0,0E0],"parents":[2147483647,0,0,1,1,2,2,3,3,4,4,5,5,6,6],"right_children":[2,4,6,8,10,12,14,-1,-1,-1,-1,-1,-1,-1,-1],"split_conditions":[1.2E1,3.678E2,1.6E1,3.7025E2,3.678E2,5.2E1,1.4E1,-1.3911133E-1,-6.096156E-1,2.9603425E-1,-4.9646508E-2,-4.670824E-2,8.592759E-2,1.5884198E-1,1.7932022E-2],"split_indices":[1,5,0,6,4,1,1,0,0,0,0,0,0,0,0],"split_type":[0,0,0,0,0,0,0,0,0,0,0,0,0,0,0],"sum_hessian":[9.619E3,1.482E3,8.137E3,3.8E1,1.444E3,1.988E3,6.149E3,4E0,3.4E1,5.9E1,1.385E3,1.795E3,1.93E2,2.12E2,5.937E3],"tree_param":{"num_deleted":"0","num_feature":"7","num_nodes":"15","size_leaf_vector":"1"}},{"base_weights":[-3.4067387E-5,8.66938E-3,-4.5528572E-2,-1.486545E-3,7.8455694E-2,7.0333526E-2,-6.6575706E-2,9.141348E-3,-1.4226556E-1,3.067234E-2,7.1115917E-1,1.5992911E-1,3.2806758E-2,-1.7603727E-1,-5.0510332E-2],"categories":[],"categories_nodes":[],"categories_segments":[],"categories_sizes":[],"default_left":[1,1,0,0,0,0,0,0,0,0,0,0,0,0,0],"id":13,"left_children":[1,3,5,7,9,11,13,-1,-1,-1,-1,-1,-1,-1,-1],"loss_changes":[3.8095205E0,5.723938E0,3.7722661E0,1.0550896E1,3.0996933E1,7.949647E-1,2.2912793E0,0E0,0E0,0E0,0E0,0E0,0E0,0E0,0E0],"parents":[2147483647,0,0,1,1,2,2,3,3,4,4,5,5,6,6],"right_children":[2,4,6,8,10,12,14,-1,-1,-1,-1,-1,-1,-1,-1],"split_conditions":[3.723E2,3.7025E2,3.7275E2,5.4E1,4.9E1,3.7315E2,6E0,9.141348E-3,-1.4226556E-1,3.067234E-2,7.1115917E-1,1.5992911E-1,3.2806758E-2,-1.7603727E-1,-5.0510332E-2],"split_indices":[4,4,6,1,1,5,1,0,0,0,0,0,0,0,0],"split_type":[0,0,0,0,0,0,0,0,0,0,0,0,0,0,0],"sum_hessian":[9.619E3,8.075E3,1.544E3,7.05E3,1.025E3,2.37E2,1.307E3,6.556E3,4.94E2,9.54E2,7.1E1,6.9E1,1.68E2,1.66E2,1.141E3],"tree_param":{"num_deleted":"0","num_feature":"7","num_nodes":"15","size_leaf_vector":"1"}},{"base_weights":[5.018587E-5,6.7769125E-2,-7.542858E-3,1.9083189E-2,3.402143E-1,-2.1535294E-1,-2.835178E-4,2.1220286E-1,-6.0749627E-3,4.9281523E-1,1.9116853E-1,-1.700268E-1,-5.433184E-1,-2.751459E-2,1.940057E-2],"categories":[],"categories_nodes":[],"categories_segments":[],"categories_sizes":[],"default_left":[0,0,0,0,0,0,0,0,0,0,0,0,0,0,0],"id":14,"left_children":[1,3,5,7,9,11,13,-1,-1,-1,-1,-1,-1,-1,-1],"loss_changes":[4.9470468E0,1.2859828E1,1.3050527E1,4.004721E0,3.2492332E0,4.2483206E0,4.4816513E0,0E0,0E0,0E0,0E0,0E0,0E0,0E0,0E0],"parents":[2147483647,0,0,1,1,2,2,3,3,4,4,5,5,6,6],"right_children":[2,4,6,8,10,12,14,-1,-1,-1,-1,-1,-1,-1,-1],"split_conditions":[3.6965E2,3.691E2,3.7025E2,1E1,3.7E1,3E1,3.735E2,2.1220286E-1,-6.0749627E-3,4.9281523E-1,1.9116853E-1,-1.700268E-1,-5.433184E-1,-2.751459E-2,1.940057E-2],"split_indices":[5,5,5,2,1,1,4,0,0,0,0,0,0,0,0],"split_type":[0,0,0,0,0,0,0,0,0,0,0,0,0,0,0],"sum_hessian":[9.619E3,9.69E2,8.65E3,8.23E2,1.46E2,2.91E2,8.359E3,9.4E1,7.29E2,7.1E1,7.5E1,2.57E2,3.4E1,3.507E3,4.852E3],"tree_param":{"num_deleted":"0","num_feature":"7","num_nodes":"15","size_leaf_vector":"1"}},{"base_weights":[1.7197068E-5,-5.346589E-2,6.52021E-3,-2.0786564E-1,-3.497067E-3,-1.2058637E-2,4.62161E-2,1.3765971E-1,-3.1257817E-1,5.2553095E-2,-1.0118347E-1,1.239867E-1,-3.4857273E-2,9.703111E-2,-1.63411E-1],"categories":[],"categories_nodes":[],"categories_segments":[],"categories_sizes":[],"default_left":[0,0,0,0,0,0,1,0,0,0,0,0,0,0,0],"id":15,"left_children":[1,3,5,7,9,11,13,-1,-1,-1,-1,-1,-1,-1,-1],"loss_changes":[3.346196E0,8.0462E0,6.326865E0,9.269143E0,4.3253593E0,1.8130354E1,2.9149632E1,0E0,0E0,0E0,0E0,0E0,0E0,0E0,0E0],"parents":[2147483647,0,0,1,1,2,2,3,3,4,4,5,5,6,6],"right_children":[2,4,6,8,10,12,14,-1,-1,-1,-1,-1,-1,-1,-1],"split_conditions":[3.7065E2,1.6E1,1.3E1,6E0,3.5E1,3.712E2,3.6855E2,1.3765971E-1,-3.1257817E-1,5.2553095E-2,-1.0118347E-1,1.239867E-1,-3.4857273E-2,9.703111E-2,-1.63411E-1],"split_indices":[6,1,2,1,1,4,4,0,0,0,0,0,0,0,0],"split_type":[0,0,0,0,0,0,0,0,0,0,0,0,0,0,0],"sum_hessian":[9.619E3,1.042E3,8.577E3,2.54E2,7.88E2,5.843E3,2.734E3,5.9E1,1.95E2,5.01E2,2.87E2,8.38E2,5.005E3,2.201E3,5.33E2],"tree_param":{"num_deleted":"0","num_feature":"7","num_nodes":"15","size_leaf_vector":"1"}},{"base_weights":[-2.6717156E-5,4.1452948E-2,-2.151263E-2,8.123057E-2,-6.658749E-2,-5.1076844E-2,2.0570353E-2,1.3419358E-1,-2.0418113E-2,2.0285337E-1,-1.05142206E-1,-2.4926478E-1,-2.333795E-2,-2.0987348E-1,3.154003E-2],"categories":[],"categories_nodes":[],"categories_segments":[],"categories_sizes":[],"default_left":[0,0,1,1,0,0,0,0,0,0,0,0,0,0,0],"id":16,"left_children":[1,3,5,7,9,11,13,-1,-1,-1,-1,-1,-1,-1,-1],"loss_changes":[8.57451E0,1.4114403E1,7.8864756E0,1.2923432E1,9.204511E0,2.0461424E1,6.61959E0,0E0,0E0,0E0,0E0,0E0,0E0,0E0,0E0],"parents":[2147483647,0,0,1,1,2,2,3,3,4,4,5,5,6,6],"right_children":[2,4,6,8,10,12,14,-1,-1,-1,-1,-1,-1,-1,-1],"split_conditions":[2.1E1,1.4E1,3.6835E2,3.698E2,3.674E2,1E1,2.2E1,1.3419358E-1,-2.0418113E-2,2.0285337E-1,-1.05142206E-1,-2.4926478E-1,-2.333795E-2,-2.0987348E-1,3.154003E-2],"split_indices":[1,2,4,5,6,2,1,0,0,0,0,0,0,0,0],"split_type":[0,0,0,0,0,0,0,0,0,0,0,0,0,0,0],"sum_hessian":[9.619E3,3.282E3,6.337E3,2.399E3,8.83E2,3.722E3,2.615E3,1.577E3,8.22E2,1.1E2,7.73E2,4.56E2,3.266E3,1.18E2,2.497E3],"tree_param":{"num_deleted":"0","num_feature":"7","num_nodes":"15","size_leaf_vector":"1"}},{"base_weights":[-2.5606849E-5,-1.9475278E-2,3.5969257E-2,-1.2703171E-1,3.47345E-4,1.9906604E-1,-1.321257E-2,1.0179572E-1,-3.7165546E-1,1.8494753E-2,-5.0288342E-2,4.2412773E-1,5.0722244E-3,5.4211788E-2,-3.8552262E-2],"categories":[],"categories_nodes":[],"categories_segments":[],"categories_sizes":[],"default_left":[0,0,0,0,1,1,0,0,0,0,0,0,0,0,0],"id":17,"left_children":[1,3,5,7,9,11,13,-1,-1,-1,-1,-1,-1,-1,-1],"loss_changes":[6.735549E0,1.3316832E1,2.7074848E1,5.4447113E1,4.8481617E0,3.4140427E1,4.433971E0,0E0,0E0,0E0,0E0,0E0,0E0,0E0,0E0],"parents":[2147483647,0,0,1,1,2,2,3,3,4,4,5,5,6,6],"right_children":[2,4,6,8,10,12,14,-1,-1,-1,-1,-1,-1,-1,-1],"split_conditions":[3.8E1,1E1,1E1,2.5E1,3.695E2,3.69E2,1.1E1,1.0179572E-1,-3.7165546E-1,1.8494753E-2,-5.0288342E-2,4.2412773E-1,5.0722244E-3,5.4211788E-2,-3.8552262E-2],"split_indices":[1,2,2,1,4,4,2,0,0,0,0,0,0,0,0],"split_type":[0,0,0,0,0,0,0,0,0,0,0,0,0,0,0],"sum_hessian":[9.619E3,6.245E3,3.374E3,9.71E2,5.274E3,7.81E2,2.593E3,5.02E2,4.69E2,3.883E3,1.391E3,3.61E2,4.2E2,7.08E2,1.885E3],"tree_param":{"num_deleted":"0","num_feature":"7","num_nodes":"15","size_leaf_vector":"1"}},{"base_weights":[1.41389655E-5,2.3975769E-2,-1.4769585E-2,1.5885796E-1,-1.2946196E-2,-1.2973082E-1,7.4831964E-3,3.0011833E-1,9.6186675E-2,-4.1214693E-2,5.0816108E-2,-2.7547136E-1,-2.7381413E-2,-1.5259808E-2,5.0562527E-2],"categories":[],"categories_nodes":[],"categories_segments":[],"categories_sizes":[],"default_left":[0,0,0,0,1,0,0,0,0,0,0,0,0,0,0],"id":18,"left_children":[1,3,5,7,9,11,13,-1,-1,-1,-1,-1,-1,-1,-1],"loss_changes":[3.408163E0,1.828406E1,1.5222304E1,6.9561253E0,5.1985993E0,1.4386841E1,4.8858223E0,0E0,0E0,0E0,0E0,0E0,0E0,0E0,0E0],"parents":[2147483647,0,0,1,1,2,2,3,3,4,4,5,5,6,6],"right_children":[2,4,6,8,10,12,14,-1,-1,-1,-1,-1,-1,-1,-1],"split_conditions":[3.73E2,1E1,1E1,3.703E2,3.677E2,3.7E1,1.3E1,3.0011833E-1,9.6186675E-2,-4.1214693E-2,5.0816108E-2,-2.7547136E-1,-2.7381413E-2,-1.5259808E-2,5.0562527E-2],"split_indices":[4,2,2,4,5,1,2,0,0,0,0,0,0,0,0],"split_type":[0,0,0,0,0,0,0,0,0,0,0,0,0,0,0],"sum_hessian":[9.619E3,3.67E3,5.949E3,7.88E2,2.882E3,9.64E2,4.985E3,2.41E2,5.47E2,1.997E3,8.85E2,3.97E2,5.67E2,3.263E3,1.722E3],"tree_param":{"num_deleted":"0","num_feature":"7","num_nodes":"15","size_leaf_vector":"1"}},{"base_weights":[1.6511849E-5,-6.2332306E-2,8.884358E-3,-1.7150357E-2,-9.755277E-2,2.2398585E-1,6.612547E-3,6.0792543E-2,-4.530244E-2,4.3983657E-2,-1.271079E-1,2.7454668E-1,-1.548989E-1,1.4867342E-2,-3.585251E-2],"categories":[],"categories_nodes":[],"categories_segments":[],"categories_sizes":[],"default_left":[0,0,0,0,0,0,0,0,0,0,0,0,0,0,0],"id":19,"left_children":[1,3,5,7,9,11,13,-1,-1,-1,-1,-1,-1,-1,-1],"loss_changes":[5.319449E0,1.9047394E0,4.1145854E0,1.1569321E0,2.820837E0,1.7283196E0,2.922637E0,0E0,0E0,0E0,0E0,0E0,0E0,0E0,0E0],"parents":[2147483647,0,0,1,1,2,2,3,3,4,4,5,5,6,6],"right_children":[2,4,6,8,10,12,14,-1,-1,-1,-1,-1,-1,-1,-1],"split_conditions":[3.7005E2,3.731E2,3.6725E2,1.2E1,3.7025E2,1.5E1,1.4E1,6.0792543E-2,-4.530244E-2,4.3983657E-2,-1.271079E-1,2.7454668E-1,-1.548989E-1,1.4867342E-2,-3.585251E-2],"split_indices":[5,4,4,1,6,2,2,0,0,0,0,0,0,0,0],"split_type":[0,0,0,0,0,0,0,0,0,0,0,0,0,0,0],"sum_hessian":[9.619E3,1.197E3,8.422E3,5.25E2,6.72E2,8.7E1,8.335E3,1.39E2,3.86E2,1.16E2,5.56E2,7.7E1,1E1,6.979E3,1.356E3],"tree_param":{"num_deleted":"0","num_feature":"7","num_nodes":"15","size_leaf_vector":"1"}},{"base_weights":[7.3597485E-6,-1.2363375E-2,2.2094885E-2,1.8603915E-2,-2.9712271E-2,2.7404677E-2,-3.3274093E-1,3.8959008E-2,-7.499425E-2,-1.0709074E-2,-8.830094E-2,2.5405465E-3,7.208448E-2,-1.4593302E-1,-5.723544E-1],"categories":[],"categories_nodes":[],"categories_segments":[],"categories_sizes":[],"default_left":[0,0,1,0,0,0,0,0,0,0,0,0,0,0,0],"id":20,"left_children":[1,3,5,7,9,11,13,-1,-1,-1,-1,-1,-1,-1,-1],"loss_changes":[2.6288316E0,3.3137631E0,6.5168157E0,4.2229385E0,4.400214E0,3.7814033E0,2.1993208E0,0E0,0E0,0E0,0E0,0E0,0E0,0E0,0E0],"parents":[2147483647,0,0,1,1,2,2,3,3,4,4,5,5,6,6],"right_children":[2,4,6,8,10,12,14,-1,-1,-1,-1,-1,-1,-1,-1],"split_conditions":[1.3E1,3.738E2,3.6995E2,4.8E1,1.2E1,2.9E1,3.7085E2,3.8959008E-2,-7.499425E-2,-1.0709074E-2,-8.830094E-2,2.5405465E-3,7.208448E-2,-1.4593302E-1,-5.723544E-1],"split_indices":[2,5,4,0,2,1,5,0,0,0,0,0,0,0,0],"split_type":[0,0,0,0,0,0,0,0,0,0,0,0,0,0,0],"sum_hessian":[9.619E3,6.166E3,3.453E3,2.214E3,3.952E3,3.403E3,5E1,1.819E3,3.95E2,2.985E3,9.67E2,2.187E3,1.216E3,2.9E1,2.1E1],"tree_param":{"num_deleted":"0","num_feature":"7","num_nodes":"15","size_leaf_vector":"1"}},{"base_weights":[-8.229595E-5,1.3778773E-2,-2.92397E-2,1.0594665E-2,2.0637743E-1,-1.2583299E-1,1.4789677E-3,2.1986147E-2,-2.6786188E-2,3.7100423E-2,5.966711E-1,-1.7276667E-1,-2.0043047E-2,-2.0936044E-1,1.3501924E-2],"categories":[],"categories_nodes":[],"categories_segments":[],"categories_sizes":[],"default_left":[0,0,0,0,0,0,0,0,0,0,0,0,0,0,0],"id":21,"left_children":[1,3,5,7,9,11,13,-1,-1,-1,-1,-1,-1,-1,-1],"loss_changes":[3.8883526E0,3.9968486E0,9.198559E0,2.7326713E0,6.981044E0,3.7104406E0,5.9674773E0,0E0,0E0,0E0,0E0,0E0,0E0,0E0,0E0],"parents":[2147483647,0,0,1,1,2,2,3,3,4,4,5,5,6,6],"right_children":[2,4,6,8,10,12,14,-1,-1,-1,-1,-1,-1,-1,-1],"split_conditions":[4E1,3.9E1,4.4E1,1.4E1,4.7E1,1.3E1,3.677E2,2.1986147E-2,-2.6786188E-2,3.7100423E-2,5.966711E-1,-1.7276667E-1,-2.0043047E-2,-2.0936044E-1,1.3501924E-2],"split_indices":[1,1,1,2,0,2,4,0,0,0,0,0,0,0,0],"split_type":[0,0,0,0,0,0,0,0,0,0,0,0,0,0,0],"sum_hessian":[9.619E3,6.52E3,3.099E3,6.415E3,1.05E2,7.47E2,2.352E3,4.917E3,1.498E3,7.4E1,3.1E1,5.17E2,2.3E2,1.26E2,2.226E3],"tree_param":{"num_deleted":"0","num_feature":"7","num_nodes":"15","size_leaf_vector":"1"}},{"base_weights":[3.5786776E-5,-3.468844E-2,6.622522E-3,-1.23496264E-1,-2.1050962E-2,-1.022677E-2,2.5288073E-2,1.6290553E-1,-1.7971945E-1,7.328916E-2,-5.544034E-2,5.0575337E-3,-6.077695E-2,1.8100657E-1,1.90356E-2],"categories":[],"categories_nodes":[],"categories_segments":[],"categories_sizes":[],"default_left":[0,0,0,0,0,0,0,0,0,0,0,0,0,0,0],"id":22,"left_children":[1,3,5,7,9,11,13,-1,-1,-1,-1,-1,-1,-1,-1],"loss_changes":[2.200509E0,1.8552504E0,2.5436308E0,3.314171E0,4.322224E0,3.284733E0,3.7323556E0,0E0,0E0,0E0,0E0,0E0,0E0,0E0,0E0],"parents":[2147483647,0,0,1,1,2,2,3,3,4,4,5,5,6,6],"right_children":[2,4,6,8,10,12,14,-1,-1,-1,-1,-1,-1,-1,-1],"split_conditions":[3.708E2,7E0,1.2E1,3.7075E2,1.8E1,4.7E1,3.7135E2,1.6290553E-1,-1.7971945E-1,7.328916E-2,-5.544034E-2,5.0575337E-3,-6.077695E-2,1.8100657E-1,1.90356E-2],"split_indices":[5,1,2,4,1,1,5,0,0,0,0,0,0,0,0],"split_type":[0,0,0,0,0,0,0,0,0,0,0,0,0,0,0],"sum_hessian":[9.619E3,1.533E3,8.086E3,2.03E2,1.33E3,4.25E3,3.836E3,3.3E1,1.7E2,3.55E2,9.75E2,3.264E3,9.86E2,1.47E2,3.689E3],"tree_param":{"num_deleted":"0","num_feature":"7","num_nodes":"15","size_leaf_vector":"1"}},{"base_weights":[1.1474229E-5,-1.0427696E-2,2.6294515E-2,7.6347604E-2,-1.6449146E-2,-1.5411963E-2,5.4065887E-2,3.461628E-1,5.5409066E-2,3.7793268E-2,-2.4062067E-2,-1.201044E-1,2.339201E-2,1.3471757E-1,4.7520953E-3],"categories":[],"categories_nodes":[],"categories_segments":[],"categories_sizes":[],"default_left":[0,0,0,0,0,0,0,0,0,0,0,0,0,0,0],"id":23,"left_children":[1,3,5,7,9,11,13,-1,-1,-1,-1,-1,-1,-1,-1],"loss_changes":[2.6397438E0,3.599281E0,3.1686363E0,2.5061624E0,2.6602645E0,4.4471655E0,6.529989E0,0E0,0E0,0E0,0E0,0E0,0E0,0E0,0E0],"parents":[2147483647,0,0,1,1,2,2,3,3,4,4,5,5,6,6],"right_children":[2,4,6,8,10,12,14,-1,-1,-1,-1,-1,-1,-1,-1],"split_conditions":[4.2E1,3.6895E2,3.7315E2,1.2E1,3.6855E2,4.8E1,4.7E1,3.461628E-1,5.5409066E-2,3.7793268E-2,-2.4062067E-2,-1.201044E-1,2.339201E-2,1.3471757E-1,4.7520953E-3],"split_indices":[1,5,5,0,4,1,1,0,0,0,0,0,0,0,0],"split_type":[0,0,0,0,0,0,0,0,0,0,0,0,0,0,0],"sum_hessian":[9.619E3,6.885E3,2.734E3,4.46E2,6.439E3,1.093E3,1.641E3,3.1E1,4.15E2,7.92E2,5.647E3,2.95E2,7.98E2,6.22E2,1.019E3],"tree_param":{"num_deleted":"0","num_feature":"7","num_nodes":"15","size_leaf_vector":"1"}},{"base_weights":[3.8911498E-5,2.0771552E-2,-7.279183E-3,5.992338E-2,-3.7212877E-3,-3.1327263E-2,2.7606793E-4,3.2007438E-1,3.607219E-2,-1.6547868E-1,9.402893E-3,-3.750831E-2,3.6807954E-1,1.6866893E-1,-4.82E-3],"categories":[],"categories_nodes":[],"categories_segments":[],"categories_sizes":[],"default_left":[0,0,0,0,0,0,0,0,0,0,0,0,0,0,0],"id":24,"left_children":[1,3,5,7,9,11,13,-1,-1,-1,-1,-1,-1,-1,-1],"loss_changes":[1.4597304E0,2.4071612E0,1.2920011E0,5.982398E0,3.2814877E0,4.2106833E0,4.645075E0,0E0,0E0,0E0,0E0,0E0,0E0,0E0,0E0],"parents":[2147483647,0,0,1,1,2,2,3,3,4,4,5,5,6,6],"right_children":[2,4,6,8,10,12,14,-1,-1,-1,-1,-1,-1,-1,-1],"split_conditions":[1.6E1,2.1E1,3.708E2,1E1,2.3E1,5.9E1,3.711E2,3.2007438E-1,3.607219E-2,-1.6547868E-1,9.402893E-3,-3.750831E-2,3.6807954E-1,1.6866893E-1,-4.82E-3],"split_indices":[0,1,4,2,1,1,4,0,0,0,0,0,0,0,0],"split_type":[0,0,0,0,0,0,0,0,0,0,0,0,0,0,0],"sum_hessian":[9.619E3,2.509E3,7.11E3,9.65E2,1.544E3,1.699E3,5.411E3,8E1,8.85E2,1.15E2,1.429E3,1.674E3,2.5E1,1.58E2,5.253E3],"tree_param":{"num_deleted":"0","num_feature":"7","num_nodes":"15","size_leaf_vector":"1"}},{"base_weights":[7.322633E-5,9.2646235E-4,-9.918399E-2,-2.4802363E-3,1.7705465E-2,1.9052124E-1,-1.0880814E-1,-7.341404E-4,-1.6958544E-1,-7.481109E-3,7.772449E-2,-1.66434E-1,-7.090393E-2],"categories":[],"categories_nodes":[],"categories_segments":[],"categories_sizes":[],"default_left":[1,1,0,1,0,0,0,0,0,0,0,0,0],"id":25,"left_children":[1,3,5,7,9,-1,11,-1,-1,-1,-1,-1,-1],"loss_changes":[8.148082E-1,5.4530275E-1,2.4935985E-1,2.3137045E0,2.4343762E0,0E0,1.6294014E-1,0E0,0E0,0E0,0E0,0E0,0E0],"parents":[2147483647,0,0,1,1,2,2,3,3,4,4,6,6],"right_children":[2,4,6,8,10,-1,12,-1,-1,-1,-1,-1,-1],"split_conditions":[3.7385E2,3.718E2,1E1,3.7375E2,1.1E1,1.9052124E-1,5E1,-7.341404E-4,-1.6958544E-1,-7.481109E-3,7.772449E-2,-1.66434E-1,-7.090393E-2],"split_indices":[4,4,1,6,2,0,1,0,0,0,0,0,0],"split_type":[0,0,0,0,0,0,0,0,0,0,0,0,0],"sum_hessian":[9.619E3,9.538E3,8.1E1,7.929E3,1.609E3,2E0,7.9E1,7.848E3,8.1E1,1.134E3,4.75E2,3E1,4.9E1],"tree_param":{"num_deleted":"0","num_feature":"7","num_nodes":"13","size_leaf_vector":"1"}},{"base_weights":[-1.739058E-5,6.1976124E-4,-1.0154724E-1,4.2747106E-7,8.838027E-2,-1.7414118E-1,-2.31486E-2,1.846662E-3,-3.8642585E-2,1.5803894E-1,-1.1002604E-1,-1.4862648E-1,-2.5568137E-1,-3.5664875E-2,6.712341E-2],"categories":[],"categories_nodes":[],"categories_segments":[],"categories_sizes":[],"default_left":[1,1,0,1,1,0,0,0,0,0,0,0,0,0,0],"id":26,"left_children":[1,3,5,7,9,11,13,-1,-1,-1,-1,-1,-1,-1,-1],"loss_changes":[6.2238E-1,5.196694E-1,3.3744484E-1,6.774832E-1,9.433766E-1,2.6493609E-2,3.629003E-2,0E0,0E0,0E0,0E0,0E0,0E0,0E0,0E0],"parents":[2147483647,0,0,1,1,2,2,3,3,4,4,5,5,6,6],"right_children":[2,4,6,8,10,12,14,-1,-1,-1,-1,-1,-1,-1,-1],"split_conditions":[3.7385E2,3.7385E2,1.6E1,3.7345E2,3.723E2,1.5E1,3.5E1,1.846662E-3,-3.8642585E-2,1.5803894E-1,-1.1002604E-1,-1.4862648E-1,-2.5568137E-1,-3.5664875E-2,6.712341E-2],"split_indices":[5,6,1,6,4,1,1,0,0,0,0,0,0,0,0],"split_type":[0,0,0,0,0,0,0,0,0,0,0,0,0,0,0],"sum_hessian":[9.619E3,9.56E3,5.9E1,9.494E3,6.6E1,3E1,2.9E1,9.062E3,4.32E2,4.9E1,1.7E1,2.5E1,5E0,2.6E1,3E0],"tree_param":{"num_deleted":"0","num_feature":"7","num_nodes":"15","size_leaf_vector":"1"}},{"base_weights":[-5.2038497E-5,-3.6238092E-3,2.2810083E-2,-1.3380953E-3,-8.7783955E-2,-4.5202922E-2,6.677443E-2,3.207692E-3,-3.544202E-2,-2.0588323E-1,-4.8125852E-2,9.448651E-2,-7.7744305E-2,1.3660906E-1,-2.6055548E-2],"categories":[],"categories_nodes":[],"categories_segments":[],"categories_sizes":[],"default_left":[1,1,0,1,0,0,1,0,0,0,0,0,0,0,0],"id":27,"left_children":[1,3,5,7,9,11,13,-1,-1,-1,-1,-1,-1,-1,-1],"loss_changes":[7.8563505E-1,1.6005602E0,3.8902102E0,1.2561603E0,1.0204821E0,2.3301916E0,5.1249304E0,0E0,0E0,0E0,0E0,0E0,0E0,0E0,0E0],"parents":[2147483647,0,0,1,1,2,2,3,3,4,4,5,5,6,6],"right_children":[2,4,6,8,10,12,14,-1,-1,-1,-1,-1,-1,-1,-1],"split_conditions":[3.725E2,3.719E2,2.4E1,3.718E2,3.7125E2,1.8E1,3.7155E2,3.207692E-3,-3.544202E-2,-2.0588323E-1,-4.8125852E-2,9.448651E-2,-7.7744305E-2,1.3660906E-1,-2.6055548E-2],"split_indices":[6,6,1,5,5,0,4,0,0,0,0,0,0,0,0],"split_type":[0,0,0,0,0,0,0,0,0,0,0,0,0,0,0],"sum_hessian":[9.619E3,8.32E3,1.299E3,8.101E3,2.19E2,5.1E2,7.89E2,7.149E3,9.52E2,5.4E1,1.65E2,9.6E1,4.14E2,4.5E2,3.39E2],"tree_param":{"num_deleted":"0","num_feature":"7","num_nodes":"15","size_leaf_vector":"1"}},{"base_weights":[-1.3723393E-5,-3.7605574E-3,3.328806E-2,7.949895E-3,-1.3580705E-2,1.9195307E-2,1.3622995E-1,3.9959397E-2,-6.495542E-2,-3.548903E-2,5.534114E-2,-3.2793367E-1,3.0020017E-2,3.6916982E-2,2.7329862E-1],"categories":[],"categories_nodes":[],"categories_segments":[],"categories_sizes":[],"default_left":[1,0,0,1,1,0,0,0,0,0,0,0,0,0,0],"id":28,"left_children":[1,3,5,7,9,11,13,-1,-1,-1,-1,-1,-1,-1,-1],"loss_changes":[1.2004727E0,9.946139E-1,1.4089499E0,9.208896E0,7.104826E0,3.230082E0,1.5825961E0,0E0,0E0,0E0,0E0,0E0,0E0,0E0,0E0],"parents":[2147483647,0,0,1,1,2,2,3,3,4,4,5,5,6,6],"right_children":[2,4,6,8,10,12,14,-1,-1,-1,-1,-1,-1,-1,-1],"split_conditions":[3.7305E2,2.5E1,1.1E1,3.691E2,3.6875E2,2E0,3.735E2,3.9959397E-2,-6.495542E-2,-3.548903E-2,5.534114E-2,-3.2793367E-1,3.0020017E-2,3.6916982E-2,2.7329862E-1],"split_indices":[4,1,2,4,4,1,6,0,0,0,0,0,0,0,0],"split_type":[0,0,0,0,0,0,0,0,0,0,0,0,0,0,0],"sum_hessian":[9.619E3,8.647E3,9.72E2,3.944E3,4.703E3,8.56E2,1.16E2,2.741E3,1.203E3,3.569E3,1.134E3,2.5E1,8.31E2,6.8E1,4.8E1],"tree_param":{"num_deleted":"0","num_feature":"7","num_nodes":"15","size_leaf_vector":"1"}},{"base_weights":[4.187443E-6,6.777055E-3,-2.7090807E-2,-5.795326E-3,5.7415266E-2,-7.530875E-2,7.943563E-2,2.5382385E-2,-1.9131117E-2,1.5287659E-1,-1.4711221E-2,-1.2236697E-1,1.1698514E-2,1.22923836E-1,-8.188748E-2],"categories":[],"categories_nodes":[],"categories_segments":[],"categories_sizes":[],"default_left":[0,0,0,0,1,1,0,0,0,0,0,0,0,0,0],"id":29,"left_children":[1,3,5,7,9,11,13,-1,-1,-1,-1,-1,-1,-1,-1],"loss_changes":[1.7655576E0,4.9005733E0,9.888579E0,2.5645971E0,1.0543627E1,5.42652E0,4.2194576E0,0E0,0E0,0E0,0E0,0E0,0E0,0E0,0E0],"parents":[2147483647,0,0,1,1,2,2,3,3,4,4,5,5,6,6],"right_children":[2,4,6,8,10,12,14,-1,-1,-1,-1,-1,-1,-1,-1],"split_conditions":[1.4E1,1.3E1,2.8E1,3.7345E2,3.675E2,3.6745E2,5.5E1,2.5382385E-2,-1.9131117E-2,1.5287659E-1,-1.4711221E-2,-1.2236697E-1,1.1698514E-2,1.22923836E-1,-8.188748E-2],"split_indices":[2,2,1,5,4,4,1,0,0,0,0,0,0,0,0],"split_type":[0,0,0,0,0,0,0,0,0,0,0,0,0,0,0],"sum_hessian":[9.619E3,7.696E3,1.923E3,6.166E3,1.53E3,1.324E3,5.99E2,1.847E3,4.319E3,6.58E2,8.72E2,8.59E2,4.65E2,4.72E2,1.27E2],"tree_param":{"num_deleted":"0","num_feature":"7","num_nodes":"15","size_leaf_vector":"1"}},{"base_weights":[9.615258E-6,1.3511693E-2,-1.4472689E-2,6.419907E-2,5.451887E-3,-6.0186278E-2,-7.6223887E-4,9.64603E-2,-2.5809778E-2,-2.382307E-3,4.6550706E-2,-2.1600062E-1,-9.712766E-3,3.8380366E-2,-1.6144298E-2],"categories":[],"categories_nodes":[],"categories_segments":[],"categories_sizes":[],"default_left":[0,0,0,0,1,0,0,0,0,0,0,0,0,0,0],"id":30,"left_children":[1,3,5,7,9,11,13,-1,-1,-1,-1,-1,-1,-1,-1],"loss_changes":[1.8813018E0,2.0337229E0,2.9093456E0,1.9857826E0,1.3836423E0,8.420778E0,2.151299E0,0E0,0E0,0E0,0E0,0E0,0E0,0E0,0E0],"parents":[2147483647,0,0,1,1,2,2,3,3,4,4,5,5,6,6],"right_children":[2,4,6,8,10,12,14,-1,-1,-1,-1,-1,-1,-1,-1],"split_conditions":[2.9E1,1E1,1E1,2.5E1,3.719E2,3.7E1,1.1E1,9.64603E-2,-2.5809778E-2,-2.382307E-3,4.6550706E-2,-2.1600062E-1,-9.712766E-3,3.8380366E-2,-1.6144298E-2],"split_indices":[1,2,2,1,4,1,2,0,0,0,0,0,0,0,0],"split_type":[0,0,0,0,0,0,0,0,0,0,0,0,0,0,0],"sum_hessian":[9.619E3,4.978E3,4.641E3,6.82E2,4.296E3,1.07E3,3.571E3,5.02E2,1.8E2,3.609E3,6.87E2,2.61E2,8.09E2,1.007E3,2.564E3],"tree_param":{"num_deleted":"0","num_feature":"7","num_nodes":"15","size_leaf_vector":"1"}},{"base_weights":[-1.1147481E-5,3.9718945E-2,-9.994049E-3,1.7698497E-1,1.7120546E-2,-5.5596635E-2,-1.8915992E-3,2.237014E-1,4.346127E-2,9.00131E-2,-7.1712146E-3,-3.3749796E-2,-2.0709626E-1,-1.2220232E-2,5.135959E-2],"categories":[],"categories_nodes":[],"categories_segments":[],"categories_sizes":[],"default_left":[0,0,0,0,0,1,0,0,0,0,0,0,0,0,0],"id":31,"left_children":[1,3,5,7,9,11,13,-1,-1,-1,-1,-1,-1,-1,-1],"loss_changes":[3.8158963E0,5.990018E0,2.8409235E0,1.6931849E0,2.9399881E0,3.8323643E0,3.5922055E0,0E0,0E0,0E0,0E0,0E0,0E0,0E0,0E0],"parents":[2147483647,0,0,1,1,2,2,3,3,4,4,5,5,6,6],"right_children":[2,4,6,8,10,12,14,-1,-1,-1,-1,-1,-1,-1,-1],"split_conditions":[3.698E2,1.3E1,3.709E2,3.9E1,3.7085E2,3.703E2,1.3E1,2.237014E-1,4.346127E-2,9.00131E-2,-7.1712146E-3,-3.3749796E-2,-2.0709626E-1,-1.2220232E-2,5.135959E-2],"split_indices":[4,2,5,1,5,6,2,0,0,0,0,0,0,0,0],"split_type":[0,0,0,0,0,0,0,0,0,0,0,0,0,0,0],"sum_hessian":[9.619E3,1.931E3,7.688E3,2.72E2,1.659E3,1.159E3,6.529E3,2.01E2,7.1E1,4.14E2,1.245E3,1.014E3,1.45E2,5.469E3,1.06E3],"tree_param":{"num_deleted":"0","num_feature":"7","num_nodes":"15","size_leaf_vector":"1"}},{"base_weights":[7.6167053E-6,7.773735E-2,-1.2902069E-3,-1.3436453E-1,9.768003E-2,6.124667E-2,-2.9589834E-3,7.057408E-2,-2.9689026E-1,8.030473E-2,2.8356424E-1,1.7824173E-1,1.2761579E-2,-3.5624236E-2,1.0425025E-3],"categories":[],"categories_nodes":[],"categories_segments":[],"categories_sizes":[],"default_left":[0,0,0,0,0,0,0,0,0,0,0,0,0,0,0],"id":32,"left_children":[1,3,5,7,9,11,13,-1,-1,-1,-1,-1,-1,-1,-1],"loss_changes":[9.7056097E-1,6.8144596E-1,9.877405E-1,4.8726192E-1,4.4554865E-1,1.3931642E0,1.2049178E0,0E0,0E0,0E0,0E0,0E0,0E0,0E0,0E0],"parents":[2147483647,0,0,1,1,2,2,3,3,4,4,5,5,6,6],"right_children":[2,4,6,8,10,12,14,-1,-1,-1,-1,-1,-1,-1,-1],"split_conditions":[3.6725E2,1.8E1,2E0,3.667E2,4.2E1,3.7325E2,1E1,7.057408E-2,-2.9689026E-1,8.030473E-2,2.8356424E-1,1.7824173E-1,1.2761579E-2,-3.5624236E-2,1.0425025E-3],"split_indices":[5,1,1,4,1,4,1,0,0,0,0,0,0,0,0],"split_type":[0,0,0,0,0,0,0,0,0,0,0,0,0,0,0],"sum_hessian":[9.619E3,1.57E2,9.462E3,1.3E1,1.44E2,2.45E2,9.217E3,6E0,7E0,1.33E2,1.1E1,7.1E1,1.74E2,1.005E3,8.212E3],"tree_param":{"num_deleted":"0","num_feature":"7","num_nodes":"15","size_leaf_vector":"1"}},{"base_weights":[3.3851673E-5,1.5221251E-3,-4.9616132E-2,-3.0151964E-3,2.2411399E-2,3.45047E-1,-5.5136118E-2,-6.4887637E-3,3.5373274E-2,-5.6608963E-1,2.5234047E-2,-4.2839225E-2,-2.5305176E-1],"categories":[],"categories_nodes":[],"categories_segments":[],"categories_sizes":[],"default_left":[1,1,0,0,0,0,0,0,0,0,0,0,0],"id":33,"left_children":[1,3,5,7,9,-1,11,-1,-1,-1,-1,-1,-1],"loss_changes":[7.109238E-1,8.854202E-1,6.2901443E-1,1.023652E0,2.783391E0,0E0,6.6330755E-1,0E0,0E0,0E0,0E0,0E0,0E0],"parents":[2147483647,0,0,1,1,2,2,3,3,4,4,6,6],"right_children":[2,4,6,8,10,-1,12,-1,-1,-1,-1,-1,-1],"split_conditions":[3.737E2,3.713E2,3.7025E2,5.4E1,3.6965E2,3.45047E-1,5.3E1,-6.4887637E-3,3.5373274E-2,-5.6608963E-1,2.5234047E-2,-4.2839225E-2,-2.5305176E-1],"split_indices":[4,6,5,1,5,0,1,0,0,0,0,0,0],"split_type":[0,0,0,0,0,0,0,0,0,0,0,0,0],"sum_hessian":[9.619E3,9.34E3,2.79E2,7.674E3,1.666E3,3E0,2.76E2,7.038E3,6.36E2,7E0,1.659E3,2.61E2,1.5E1],"tree_param":{"num_deleted":"0","num_feature":"7","num_nodes":"13","size_leaf_vector":"1"}},{"base_weights":[-3.9967876E-5,8.059946E-3,-1.2832609E-2,1.4824547E-2,-1.223933E-2,-2.2682808E-2,4.048545E-2,-3.4821033E-3,5.132858E-2,1.2346438E-2,-7.777093E-2,-5.533552E-2,-8.99375E-3,9.619965E-3,3.687018E-1],"categories":[],"categories_nodes":[],"categories_segments":[],"categories_sizes":[],"default_left":[0,0,0,0,0,0,0,0,0,0,0,0,0,0,0],"id":34,"left_children":[1,3,5,7,9,11,13,-1,-1,-1,-1,-1,-1,-1,-1],"loss_changes":[9.96921E-1,8.09113E-1,1.9598901E0,2.9532487E0,2.3741767E0,1.4070578E0,5.8924365E0,0E0,0E0,0E0,0E0,0E0,0E0,0E0,0E0],"parents":[2147483647,0,0,1,1,2,2,3,3,4,4,5,5,6,6],"right_children":[2,4,6,8,10,12,14,-1,-1,-1,-1,-1,-1,-1,-1],"split_conditions":[3.5E1,1.4E1,5E1,2.4E1,2.4E1,3.7305E2,5.6E1,-3.4821033E-3,5.132858E-2,1.2346438E-2,-7.777093E-2,-5.533552E-2,-8.99375E-3,9.619965E-3,3.687018E-1],"split_indices":[1,2,0,1,1,4,1,0,0,0,0,0,0,0,0],"split_type":[0,0,0,0,0,0,0,0,0,0,0,0,0,0,0],"sum_hessian":[9.619E3,5.89E3,3.729E3,4.418E3,1.472E3,3.148E3,5.81E2,2.943E3,1.475E3,1.071E3,4.01E2,9.29E2,2.219E3,5.32E2,4.9E1],"tree_param":{"num_deleted":"0","num_feature":"7","num_nodes":"15","size_leaf_vector":"1"}},{"base_weights":[2.928038E-5,3.15649E-2,-4.460299E-3,3.5121817E-2,-5.023613E-1,-2.7035712E-3,-1.3967076E-1,2.2296261E-2,2.901167E-1,-9.830284E-2,-6.362278E-4,-1.6393599E-1,3.0016074E-1],"categories":[],"categories_nodes":[],"categories_segments":[],"categories_sizes":[],"default_left":[0,1,0,1,0,0,1,0,0,0,0,0,0],"id":35,"left_children":[1,3,5,7,-1,9,11,-1,-1,-1,-1,-1,-1],"loss_changes":[1.3621563E0,2.294702E0,2.0000825E0,3.891909E0,0E0,1.6432852E0,1.2018492E0,0E0,0E0,0E0,0E0,0E0,0E0],"parents":[2147483647,0,0,1,1,2,2,3,3,5,5,6,6],"right_children":[2,4,6,8,-1,10,12,-1,-1,-1,-1,-1,-1],"split_conditions":[3.6855E2,3.6965E2,5.9E1,3.6935E2,-5.023613E-1,3.6875E2,3.727E2,2.2296261E-2,2.901167E-1,-9.830284E-2,-6.362278E-4,-1.6393599E-1,3.0016074E-1],"split_indices":[4,5,1,5,0,4,6,0,0,0,0,0,0],"split_type":[0,0,0,0,0,0,0,0,0,0,0,0,0],"sum_hessian":[9.619E3,1.198E3,8.421E3,1.191E3,7E0,8.314E3,1.07E2,1.135E3,5.6E1,1.75E2,8.139E3,1.02E2,5E0],"tree_param":{"num_deleted":"0","num_feature":"7","num_nodes":"13","size_leaf_vector":"1"}},{"base_weights":[-1.3520365E-5,1.4455638E-2,-3.409834E-3,-6.896973E-2,3.5875026E-2,-1.0495368E-1,-1.1176217E-3,6.424899E-2,-1.8771085E-1,6.890819E-2,-3.0197144E-2,-2.564653E-1,-3.344442E-2,-1.7478071E-1,-4.7715765E-4],"categories":[],"categories_nodes":[],"categories_segments":[],"categories_sizes":[],"default_left":[0,0,0,0,0,0,0,0,0,0,0,0,0,0,0],"id":36,"left_children":[1,3,5,7,9,11,13,-1,-1,-1,-1,-1,-1,-1,-1],"loss_changes":[4.7279343E-1,3.2707515E0,1.813549E0,5.928194E0,3.1799068E0,1.8549536E0,8.475621E-1,0E0,0E0,0E0,0E0,0E0,0E0,0E0,0E0],"parents":[2147483647,0,0,1,1,2,2,3,3,4,4,5,5,6,6],"right_children":[2,4,6,8,10,12,14,-1,-1,-1,-1,-1,-1,-1,-1],"split_conditions":[1.4E1,1.1E1,1.5E1,3.708E2,1.4E1,3.712E2,3.67E2,6.424899E-2,-1.8771085E-1,6.890819E-2,-3.0197144E-2,-2.564653E-1,-3.344442E-2,-1.7478071E-1,-4.7715765E-4],"split_indices":[1,2,1,5,2,6,4,0,0,0,0,0,0,0,0],"split_type":[0,0,0,0,0,0,0,0,0,0,0,0,0,0,0],"sum_hessian":[9.619E3,1.828E3,7.791E3,3.73E2,1.455E3,1.71E2,7.62E3,1.76E2,1.97E2,9.7E2,4.85E2,5.4E1,1.17E2,2.7E1,7.593E3],"tree_param":{"num_deleted":"0","num_feature":"7","num_nodes":"15","size_leaf_vector":"1"}},{"base_weights":[-4.8333244E-5,5.773221E-2,-2.1779698E-3,-5.541746E-2,8.2492165E-2,-3.6292102E-2,2.4618858E-3,-3.8367254E-1,1.5086834E-2,1.846389E-1,2.5037397E-2,-2.2869855E-2,-2.2683214E-1,8.09534E-2,-8.0056896E-4],"categories":[],"categories_nodes":[],"categories_segments":[],"categories_sizes":[],"default_left":[0,0,0,0,0,0,0,0,0,0,0,0,0,0,0],"id":37,"left_children":[1,3,5,7,9,11,13,-1,-1,-1,-1,-1,-1,-1,-1],"loss_changes":[1.1838816E0,9.6271205E-1,1.4688126E0,1.4406787E0,1.6445147E0,2.8361676E0,2.0919414E0,0E0,0E0,0E0,0E0,0E0,0E0,0E0,0E0],"parents":[2147483647,0,0,1,1,2,2,3,3,4,4,5,5,6,6],"right_children":[2,4,6,8,10,12,14,-1,-1,-1,-1,-1,-1,-1,-1],"split_conditions":[3.676E2,1.4E1,9E0,4.7E1,1.5E1,1.5E1,1.2E1,-3.8367254E-1,1.5086834E-2,1.846389E-1,2.5037397E-2,-2.2869855E-2,-2.2683214E-1,8.09534E-2,-8.0056896E-4],"split_indices":[4,2,1,1,2,2,1,0,0,0,0,0,0,0,0],"split_type":[0,0,0,0,0,0,0,0,0,0,0,0,0,0,0],"sum_hessian":[9.619E3,3.41E2,9.278E3,6.1E1,2.8E2,1.11E3,8.168E3,1E1,5.1E1,1E2,1.8E2,1.038E3,7.2E1,3.25E2,7.843E3],"tree_param":{"num_deleted":"0","num_feature":"7","num_nodes":"15","size_leaf_vector":"1"}},{"base_weights":[-4.1173353E-5,9.817142E-2,-1.0831304E-3,1.3348027E-1,-8.814885E-3,4.330333E-3,-1.3308442E-2,6.395389E-2,2.0132366E-1,-2.85614E-1,5.4494683E-2,-1.9689153E-1,5.2792667E-3,-1.11196965E-1,-1.0051168E-2],"categories":[],"categories_nodes":[],"categories_segments":[],"categories_sizes":[],"default_left":[0,0,1,0,0,0,0,0,0,0,0,0,0,0,0],"id":38,"left_children":[1,3,5,7,9,11,13,-1,-1,-1,-1,-1,-1,-1,-1],"loss_changes":[9.8455274E-1,3.8271046E-1,6.3010335E-1,3.4560955E-1,4.711893E-1,1.261094E0,9.305615E-1,0E0,0E0,0E0,0E0,0E0,0E0,0E0,0E0],"parents":[2147483647,0,0,1,1,2,2,3,3,4,4,5,5,6,6],"right_children":[2,4,6,8,10,12,14,-1,-1,-1,-1,-1,-1,-1,-1],"split_conditions":[3.668E2,1.6E1,3.6825E2,1.4E1,1.7E1,3.671E2,3.687E2,6.395389E-2,2.0132366E-1,-2.85614E-1,5.4494683E-2,-1.9689153E-1,5.2792667E-3,-1.11196965E-1,-1.0051168E-2],"split_indices":[6,1,6,1,1,4,6,0,0,0,0,0,0,0,0],"split_type":[0,0,0,0,0,0,0,0,0,0,0,0,0,0,0],"sum_hessian":[9.619E3,1E2,9.519E3,7.5E1,2.5E1,6.598E3,2.921E3,3.8E1,3.7E1,4E0,2.1E1,3E1,6.568E3,9.3E1,2.828E3],"tree_param":{"num_deleted":"0","num_feature":"7","num_nodes":"15","size_leaf_vector":"1"}},{"base_weights":[-3.2313103E-5,-1.7098507E-2,3.0603493E-3,-9.262244E-3,-9.4870105E-2,4.994176E-2,-2.2230571E-4,6.500244E-2,-1.6077405E-2,1.4402732E-2,-1.378265E-1,6.413415E-2,-1.1327699E-1,-7.644503E-2,2.5155204E-3],"categories":[],"categories_nodes":[],"categories_segments":[],"categories_sizes":[],"default_left":[0,1,0,0,0,0,0,0,0,0,0,0,0,0,0],"id":39,"left_children":[1,3,5,7,9,11,13,-1,-1,-1,-1,-1,-1,-1,-1],"loss_changes":[5.0779563E-1,8.986528E-1,1.2534899E0,6.8026584E-1,6.356709E-1,1.2419406E0,1.5889078E0,0E0,0E0,0E0,0E0,0E0,0E0,0E0,0E0],"parents":[2147483647,0,0,1,1,2,2,3,3,4,4,5,5,6,6],"right_children":[2,4,6,8,10,12,14,-1,-1,-1,-1,-1,-1,-1,-1],"split_conditions":[3.707E2,3.7105E2,3.7175E2,3.6775E2,3.6975E2,5.6E1,3.7235E2,6.500244E-2,-1.6077405E-2,1.4402732E-2,-1.378265E-1,6.413415E-2,-1.1327699E-1,-7.644503E-2,2.5155204E-3],"split_indices":[5,6,5,4,5,1,5,0,0,0,0,0,0,0,0],"split_type":[0,0,0,0,0,0,0,0,0,0,0,0,0,0,0],"sum_hessian":[9.619E3,1.475E3,8.144E3,1.341E3,1.34E2,5.32E2,7.612E3,1.12E2,1.229E3,3.8E1,9.6E1,4.9E2,4.2E1,2.63E2,7.349E3],"tree_param":{"num_deleted":"0","num_feature":"7","num_nodes":"15","size_leaf_vector":"1"}},{"base_weights":[-1.0601845E-5,-1.6596496E-2,3.684757E-3,-4.87196E-2,2.0861289E-2,8.467794E-3,-2.100864E-2,-1.4036299E-3,-1.7188025E-1,-9.068485E-2,6.030523E-2,5.5003637E-3,8.7323815E-2,-1.5172992E-2,-4.7998238E-1],"categories":[],"categories_nodes":[],"categories_segments":[],"categories_sizes":[],"default_left":[0,0,0,0,0,0,1,0,0,0,0,0,0,0,0],"id":40,"left_children":[1,3,5,7,9,11,13,-1,-1,-1,-1,-1,-1,-1,-1],"loss_changes":[5.89679E-1,2.1103315E0,9.29463E-1,5.500886E0,3.569323E0,1.5420463E0,3.413046E0,0E0,0E0,0E0,0E0,0E0,0E0,0E0,0E0],"parents":[2147483647,0,0,1,1,2,2,3,3,4,4,5,5,6,6],"right_children":[2,4,6,8,10,12,14,-1,-1,-1,-1,-1,-1,-1,-1],"split_conditions":[1E1,3.7E1,4.8E1,2.9E1,1.6E1,4.6E1,3.7375E2,-1.4036299E-3,-1.7188025E-1,-9.068485E-2,6.030523E-2,5.5003637E-3,8.7323815E-2,-1.5172992E-2,-4.7998238E-1],"split_indices":[2,1,1,1,0,1,6,0,0,0,0,0,0,0,0],"split_type":[0,0,0,0,0,0,0,0,0,0,0,0,0,0,0],"sum_hessian":[9.619E3,1.752E3,7.867E3,9.43E2,8.09E2,6.591E3,1.276E3,6.82E2,2.61E2,2.11E2,5.98E2,6.353E3,2.38E2,1.261E3,1.5E1],"tree_param":{"num_deleted":"0","num_feature":"7","num_nodes":"15","size_leaf_vector":"1"}},{"base_weights":[-5.835456E-5,-2.2039315E-2,2.5798792E-3,1.1044556E-1,-3.6230784E-2,6.73164E-2,-1.4124713E-3,-1.7222765E-1,1.3689788E-1,-3.475015E-1,-3.1449478E-2,9.325054E-2,-2.0298558E-1,1.6211241E-3,-2.8317261E-2],"categories":[],"categories_nodes":[],"categories_segments":[],"categories_sizes":[],"default_left":[0,0,0,0,0,0,0,0,0,0,0,0,0,0,0],"id":41,"left_children":[1,3,5,7,9,11,13,-1,-1,-1,-1,-1,-1,-1,-1],"loss_changes":[5.5792946E-1,1.942441E0,2.2201881E0,7.713138E-1,1.3761488E0,3.516944E0,6.6050076E-1,0E0,0E0,0E0,0E0,0E0,0E0,0E0,0E0],"parents":[2147483647,0,0,1,1,2,2,3,3,4,4,5,5,6,6],"right_children":[2,4,6,8,10,12,14,-1,-1,-1,-1,-1,-1,-1,-1],"split_conditions":[3.6825E2,9E0,3.6905E2,1E0,1.2E1,3.9E1,5.4E1,-1.7222765E-1,1.3689788E-1,-3.475015E-1,-3.1449478E-2,9.325054E-2,-2.0298558E-1,1.6211241E-3,-2.8317261E-2],"split_indices":[4,1,4,1,1,1,0,0,0,0,0,0,0,0,0],"split_type":[0,0,0,0,0,0,0,0,0,0,0,0,0,0,0],"sum_hessian":[9.619E3,1.03E3,8.589E3,9.9E1,9.31E2,4.98E2,8.091E3,8E0,9.1E1,1.3E1,9.18E2,4.55E2,4.3E1,7.272E3,8.19E2],"tree_param":{"num_deleted":"0","num_feature":"7","num_nodes":"15","size_leaf_vector":"1"}},{"base_weights":[-5.345652E-5,-1.7190798E-3,2.8980182E-2,2.3175213E-3,-1.5565317E-2,1.8322285E-1,-9.373558E-3,-4.423865E-4,2.6124215E-2,-7.222533E-2,4.6406058E-3,3.222478E-1,-2.0563944E-1,-1.0414764E-3,-1.1644083E0],"categories":[],"categories_nodes":[],"categories_segments":[],"categories_sizes":[],"default_left":[0,1,0,1,0,1,1,0,0,0,0,0,0,0,0],"id":42,"left_children":[1,3,5,7,9,11,13,-1,-1,-1,-1,-1,-1,-1,-1],"loss_changes":[4.652644E-1,5.08595E-1,3.0897563E0,4.6296388E-1,2.351894E0,5.6886683E0,4.0311785E0,0E0,0E0,0E0,0E0,0E0,0E0,0E0,0E0],"parents":[2147483647,0,0,1,1,2,2,3,3,4,4,5,5,6,6],"right_children":[2,4,6,8,10,12,14,-1,-1,-1,-1,-1,-1,-1,-1],"split_conditions":[5.6E1,3.709E2,3.7175E2,3.7225E2,3.718E2,3.7185E2,3.735E2,-4.423865E-4,2.6124215E-2,-7.222533E-2,4.6406058E-3,3.222478E-1,-2.0563944E-1,-1.0414764E-3,-1.1644083E0],"split_indices":[1,4,4,5,4,6,6,0,0,0,0,0,0,0,0],"split_type":[0,0,0,0,0,0,0,0,0,0,0,0,0,0,0],"sum_hessian":[9.619E3,9.098E3,5.21E2,7.045E3,2.053E3,1.03E2,4.18E2,6.314E3,7.31E2,5.39E2,1.514E3,7.6E1,2.7E1,4.16E2,2E0],"tree_param":{"num_deleted":"0","num_feature":"7","num_nodes":"15","size_leaf_vector":"1"}},{"base_weights":[-1.2248271E-4,2.4217276E-3,-3.3053234E-2,7.993844E-3,-1.7755026E-2,-4.4494823E-2,8.565584E-2,6.575037E-3,1.3219094E-1,-3.74471E-2,4.5204148E-2,-5.610944E-2,3.1668164E-2,1.4320104E-1,1.2720381E-2],"categories":[],"categories_nodes":[],"categories_segments":[],"categories_sizes":[],"default_left":[1,0,0,1,1,0,0,0,0,0,0,0,0,0,0],"id":43,"left_children":[1,3,5,7,9,11,13,-1,-1,-1,-1,-1,-1,-1,-1],"loss_changes":[8.060702E-1,1.0042294E0,9.409833E-1,1.2324368E0,2.3982196E0,5.590774E-1,2.542006E-1,0E0,0E0,0E0,0E0,0E0,0E0,0E0,0E0],"parents":[2147483647,0,0,1,1,2,2,3,3,4,4,5,5,6,6],"right_children":[2,4,6,8,10,12,14,-1,-1,-1,-1,-1,-1,-1,-1],"split_conditions":[3.7315E2,4.6E1,4.8E1,3.7295E2,3.7085E2,4.5E1,1.3E1,6.575037E-3,1.3219094E-1,-3.74471E-2,4.5204148E-2,-5.610944E-2,3.1668164E-2,1.4320104E-1,1.2720381E-2],"split_indices":[5,1,0,5,6,1,1,0,0,0,0,0,0,0,0],"split_type":[0,0,0,0,0,0,0,0,0,0,0,0,0,0,0],"sum_hessian":[9.619E3,8.93E3,6.89E2,6.998E3,1.932E3,6.29E2,6E1,6.92E3,7.8E1,1.472E3,4.6E2,5.46E2,8.3E1,3.3E1,2.7E1],"tree_param":{"num_deleted":"0","num_feature":"7","num_nodes":"15","size_leaf_vector":"1"}},{"base_weights":[3.940955E-5,-9.625556E-3,4.2468286E-3,9.5119927E-4,-3.0639306E-2,-2.1825337E-3,2.4619829E-2,-2.8404346E-2,2.2933973E-2,-2.3227036E-1,-1.8127242E-2,-3.616543E-2,2.5673527E-3,-7.58886E-3,5.0612442E-2],"categories":[],"categories_nodes":[],"categories_segments":[],"categories_sizes":[],"default_left":[0,1,1,0,0,0,0,0,0,0,0,0,0,0,0],"id":44,"left_children":[1,3,5,7,9,11,13,-1,-1,-1,-1,-1,-1,-1,-1],"loss_changes":[3.9123395E-1,6.485759E-1,8.780489E-1,1.2538558E0,2.460585E0,8.226631E-1,1.3465824E0,0E0,0E0,0E0,0E0,0E0,0E0,0E0,0E0],"parents":[2147483647,0,0,1,1,2,2,3,3,4,4,5,5,6,6],"right_children":[2,4,6,8,10,12,14,-1,-1,-1,-1,-1,-1,-1,-1],"split_conditions":[3.7365E2,3.6855E2,3.7105E2,2.3E1,3.6885E2,1.1E1,2.4E1,-2.8404346E-2,2.2933973E-2,-2.3227036E-1,-1.8127242E-2,-3.616543E-2,2.5673527E-3,-7.58886E-3,5.0612442E-2],"split_indices":[6,4,4,1,4,1,1,0,0,0,0,0,0,0,0],"split_type":[0,0,0,0,0,0,0,0,0,0,0,0,0,0,0],"sum_hessian":[9.619E3,2.917E3,6.702E3,1.941E3,9.76E2,5.095E3,1.607E3,8.31E2,1.11E3,5.6E1,9.2E2,6.24E2,4.471E3,7.18E2,8.89E2],"tree_param":{"num_deleted":"0","num_feature":"7","num_nodes":"15","size_leaf_vector":"1"}},{"base_weights":[-2.298018E-5,1.1541851E-2,-1.4570614E-2,1.0659848E-2,1.0892805E-1,-6.0325433E-3,-4.489439E-2,4.76041E-2,8.494057E-3,1.2130142E-1,3.18985E-2,-1.1366444E-2,2.8951353E-1,2.0735931E-1,-4.92279E-2],"categories":[],"categories_nodes":[],"categories_segments":[],"categories_sizes":[],"default_left":[0,1,1,0,0,1,0,0,0,0,0,0,0,0,0],"id":45,"left_children":[1,3,5,7,9,11,13,-1,-1,-1,-1,-1,-1,-1,-1],"loss_changes":[1.6186458E0,4.592353E-1,1.1029298E0,4.247074E-1,4.188019E-2,5.246442E0,1.0333911E0,0E0,0E0,0E0,0E0,0E0,0E0,0E0,0E0],"parents":[2147483647,0,0,1,1,2,2,3,3,4,4,5,5,6,6],"right_children":[2,4,6,8,10,12,14,-1,-1,-1,-1,-1,-1,-1,-1],"split_conditions":[3.1E1,3.739E2,3.722E2,3.685E2,4.2E1,3.7095E2,3.5E1,4.76041E-2,8.494057E-3,1.2130142E-1,3.18985E-2,-1.1366444E-2,2.8951353E-1,2.0735931E-1,-4.92279E-2],"split_indices":[1,5,4,5,0,4,1,0,0,0,0,0,0,0,0],"split_type":[0,0,0,0,0,0,0,0,0,0,0,0,0,0,0],"sum_hessian":[9.619E3,5.359E3,4.26E3,5.312E3,4.7E1,3.325E3,9.35E2,2.93E2,5.019E3,4E1,7E0,3.267E3,5.8E1,1.5E1,9.2E2],"tree_param":{"num_deleted":"0","num_feature":"7","num_nodes":"15","size_leaf_vector":"1"}},{"base_weights":[6.72275E-5,1.18793305E-2,-4.4676648E-3,8.502515E-3,1.00382276E-1,-4.091136E-2,-2.0228573E-3,-3.836635E-3,3.6289953E-2,-1.5837288E-1,1.4905336E-1,-7.3240556E-2,1.7212303E-2,5.5099357E-2,-4.1499585E-3],"categories":[],"categories_nodes":[],"categories_segments":[],"categories_sizes":[],"default_left":[0,0,0,1,0,0,0,0,0,0,0,0,0,0,0],"id":46,"left_children":[1,3,5,7,9,11,13,-1,-1,-1,-1,-1,-1,-1,-1],"loss_changes":[5.153639E-1,7.967988E-1,6.193253E-1,8.8200945E-1,1.2578075E0,8.224236E-1,7.919534E-1,0E0,0E0,0E0,0E0,0E0,0E0,0E0,0E0],"parents":[2147483647,0,0,1,1,2,2,3,3,4,4,5,5,6,6],"right_children":[2,4,6,8,10,12,14,-1,-1,-1,-1,-1,-1,-1,-1],"split_conditions":[1.7E1,5.5E1,3.693E2,3.694E2,3.7095E2,4.5E1,3.7035E2,-3.836635E-3,3.6289953E-2,-1.5837288E-1,1.4905336E-1,-7.3240556E-2,1.7212303E-2,5.5099357E-2,-4.1499585E-3],"split_indices":[0,1,6,4,4,0,6,0,0,0,0,0,0,0,0],"split_type":[0,0,0,0,0,0,0,0,0,0,0,0,0,0,0],"sum_hessian":[9.619E3,2.668E3,6.951E3,2.571E3,9.7E1,4.36E2,6.515E3,1.781E3,7.9E2,1.5E1,8.2E1,2.8E2,1.56E2,2.33E2,6.282E3],"tree_param":{"num_deleted":"0","num_feature":"7","num_nodes":"15","size_leaf_vector":"1"}},{"base_weights":[4.6093596E-6,-7.57042E-3,4.773644E-3,-4.1209115E-3,-1.2856463E-1,5.721097E-2,2.5705635E-3,-3.8033733E-4,-8.875808E-2,4.2817518E-1,-1.799551E-1,9.99833E-2,2.8595818E-2,1.209639E-3,1.0135443E-1],"categories":[],"categories_nodes":[],"categories_segments":[],"categories_sizes":[],"default_left":[0,0,0,1,0,0,0,0,0,0,0,0,0,0,0],"id":47,"left_children":[1,3,5,7,9,11,13,-1,-1,-1,-1,-1,-1,-1,-1],"loss_changes":[3.475642E-1,1.5508367E0,6.8190455E-1,1.144445E0,3.0239968E0,2.8843778E-1,7.6173395E-1,0E0,0E0,0E0,0E0,0E0,0E0,0E0,0E0],"parents":[2147483647,0,0,1,1,2,2,3,3,4,4,5,5,6,6],"right_children":[2,4,6,8,10,12,14,-1,-1,-1,-1,-1,-1,-1,-1],"split_conditions":[3.7305E2,5.7E1,3.7335E2,3.7245E2,7E0,4.6E1,5.9E1,-3.8033733E-4,-8.875808E-2,4.2817518E-1,-1.799551E-1,9.99833E-2,2.8595818E-2,1.209639E-3,1.0135443E-1],"split_indices":[4,1,4,5,0,1,1,0,0,0,0,0,0,0,0],"split_type":[0,0,0,0,0,0,0,0,0,0,0,0,0,0,0],"sum_hessian":[9.619E3,3.716E3,5.903E3,3.614E3,1.02E2,2.37E2,5.666E3,3.462E3,1.52E2,8E0,9.4E1,9.4E1,1.43E2,5.59E3,7.6E1],"tree_param":{"num_deleted":"0","num_feature":"7","num_nodes":"15","size_leaf_vector":"1"}},{"base_weights":[2.9058318E-5,4.0138233E-4,-7.5814754E-2,2.6617013E-2,-6.3760864E-4,-2.4191191E-2,-1.8433228E-1,-1.2232208E-1,3.5149284E-2,4.7789343E-2,-1.1851864E-3,-4.292399E-2,1.223526E-1,-1.0900116E-1,-3.6424255E-1],"categories":[],"categories_nodes":[],"categories_segments":[],"categories_sizes":[],"default_left":[1,0,0,0,0,0,0,0,0,0,0,0,0,0,0],"id":48,"left_children":[1,3,5,7,9,11,13,-1,-1,-1,-1,-1,-1,-1,-1],"loss_changes":[2.7168453E-1,2.6079172E-1,2.5883767E-1,4.681373E-1,2.4428302E-1,9.584265E-2,1.6358978E-1,0E0,0E0,0E0,0E0,0E0,0E0,0E0,0E0],"parents":[2147483647,0,0,1,1,2,2,3,3,4,4,5,5,6,6],"right_children":[2,4,6,8,10,12,14,-1,-1,-1,-1,-1,-1,-1,-1],"split_conditions":[3.739E2,3.687E2,5.2E1,3.675E2,3.6725E2,4.7E1,3.7245E2,-1.2232208E-1,3.5149284E-2,4.7789343E-2,-1.1851864E-3,-4.292399E-2,1.223526E-1,-1.0900116E-1,-3.6424255E-1],"split_indices":[6,6,0,4,4,1,4,0,0,0,0,0,0,0,0],"split_type":[0,0,0,0,0,0,0,0,0,0,0,0,0,0,0],"sum_hessian":[9.619E3,9.573E3,4.6E1,3.64E2,9.209E3,3.2E1,1.4E1,1.9E1,3.45E2,1.02E2,9.107E3,2.9E1,3E0,1.1E1,3E0],"tree_param":{"num_deleted":"0","num_feature":"7","num_nodes":"15","size_leaf_vector":"1"}},{"base_weights":[-4.0643576E-5,-1.6731892E-2,1.9626995E-3,2.3989134E-2,-3.468037E-2,8.2272455E-2,1.4734068E-3,-2.806498E-1,4.5520987E-2,-2.821821E-1,-2.1927819E-2,1.12417854E-1,-2.2357789E-1,-3.323375E-2,2.641056E-3],"categories":[],"categories_nodes":[],"categories_segments":[],"categories_sizes":[],"default_left":[0,0,0,0,0,0,0,0,0,0,0,0,0,0,0],"id":49,"left_children":[1,3,5,7,9,11,13,-1,-1,-1,-1,-1,-1,-1,-1],"loss_changes":[3.2170925E-1,7.543698E-1,3.3742264E-1,2.0855591E0,2.2537076E0,5.045731E-1,3.4613743E-1,0E0,0E0,0E0,0E0,0E0,0E0,0E0,0E0],"parents":[2147483647,0,0,1,1,2,2,3,3,4,4,5,5,6,6],"right_children":[2,4,6,8,10,12,14,-1,-1,-1,-1,-1,-1,-1,-1],"split_conditions":[3.6825E2,2.1E1,3.6835E2,3.6915E2,2.2E1,5.6E1,2E0,-2.806498E-1,4.5520987E-2,-2.821821E-1,-2.1927819E-2,1.12417854E-1,-2.2357789E-1,-3.323375E-2,2.641056E-3],"split_indices":[4,1,4,6,1,1,0,0,0,0,0,0,0,0,0],"split_type":[0,0,0,0,0,0,0,0,0,0,0,0,0,0,0],"sum_hessian":[9.619E3,1.03E3,8.589E3,3.15E2,7.15E2,5.1E1,8.538E3,2E1,2.95E2,3.4E1,6.81E2,4.7E1,4E0,2.77E2,8.261E3],"tree_param":{"num_deleted":"0","num_feature":"7","num_nodes":"15","size_leaf_vector":"1"}},{"base_weights":[-8.2140505E-5,-7.823614E-2,4.6594406E-4,-2.9280681E-2,-2.00372E-1,3.749184E-2,-6.35426E-4,2.4183119E-2,-1.7919452E-1,-2.5286865E-1,-1.2783813E-1,-1.6075887E-2,9.355944E-2,-3.6743827E-2,-9.029424E-5],"categories":[],"categories_nodes":[],"categories_segments":[],"categories_sizes":[],"default_left":[0,0,0,0,0,0,0,0,0,0,0,0,0,0,0],"id":50,"left_children":[1,3,5,7,9,11,13,-1,-1,-1,-1,-1,-1,-1,-1],"loss_changes":[4.1210917E-1,3.9474046E-1,3.896284E-1,3.970667E-1,4.0021658E-2,8.304462E-1,1.8264301E-1,0E0,0E0,0E0,0E0,0E0,0E0,0E0,0E0],"parents":[2147483647,0,0,1,1,2,2,3,3,4,4,5,5,6,6],"right_children":[2,4,6,8,10,12,14,-1,-1,-1,-1,-1,-1,-1,-1],"split_conditions":[3.671E2,3.668E2,3.676E2,4.9E1,1.5E1,3.1E1,3.677E2,2.4183119E-2,-1.7919452E-1,-2.5286865E-1,-1.2783813E-1,-1.6075887E-2,9.355944E-2,-3.6743827E-2,-9.029424E-5],"split_indices":[4,4,4,0,2,0,4,0,0,0,0,0,0,0,0],"split_type":[0,0,0,0,0,0,0,0,0,0,0,0,0,0,0],"sum_hessian":[9.619E3,6.6E1,9.553E3,4.8E1,1.8E1,2.75E2,9.278E3,3.6E1,1.2E1,9E0,9E0,1.41E2,1.34E2,1.37E2,9.141E3],"tree_param":{"num_deleted":"0","num_feature":"7","num_nodes":"15","size_leaf_vector":"1"}},{"base_weights":[-5.0223938E-5,1.0413149E-3,-1.8370228E-2,-1.6279783E-3,1.9615501E-2,5.281419E-2,-3.269265E-2,1.0994145E-3,-8.552698E-2,8.227135E-3,6.725395E-2,1.6532898E-1,-7.112954E-2,-7.312765E-2,9.719918E-3],"categories":[],"categories_nodes":[],"categories_segments":[],"categories_sizes":[],"default_left":[1,1,0,1,1,0,1,0,0,0,0,0,0,0,0],"id":51,"left_children":[1,3,5,7,9,11,13,-1,-1,-1,-1,-1,-1,-1,-1],"loss_changes":[1.9239023E-1,4.5021787E-1,5.532941E-1,1.8169686E0,6.184666E-1,1.2808005E0,7.741542E-1,0E0,0E0,0E0,0E0,0E0,0E0,0E0,0E0],"parents":[2147483647,0,0,1,1,2,2,3,3,4,4,5,5,6,6],"right_children":[2,4,6,8,10,12,14,-1,-1,-1,-1,-1,-1,-1,-1],"split_conditions":[3.7355E2,3.7185E2,3.7205E2,3.715E2,3.732E2,3.2E1,3.722E2,1.0994145E-3,-8.552698E-2,8.227135E-3,6.725395E-2,1.6532898E-1,-7.112954E-2,-7.312765E-2,9.719918E-3],"split_indices":[4,4,5,4,6,0,6,0,0,0,0,0,0,0,0],"split_type":[0,0,0,0,0,0,0,0,0,0,0,0,0,0,0],"sum_hessian":[9.619E3,9.079E3,5.4E2,7.939E3,1.14E3,9E1,4.5E2,7.69E3,2.49E2,9.21E2,2.19E2,4.7E1,4.3E1,2.3E2,2.2E2],"tree_param":{"num_deleted":"0","num_feature":"7","num_nodes":"15","size_leaf_vector":"1"}},{"base_weights":[1.392642E-6,1.609406E-3,-1.7211394E-2,-2.2847999E-2,2.719066E-3,1.6777396E-1,-2.8393224E-2,3.7052408E-1,-2.9047959E-2,7.476267E-2,1.1358407E-3,1.2737411E-1,3.241984E-1,-2.4594839E-1,-1.7167933E-2],"categories":[],"categories_nodes":[],"categories_segments":[],"categories_sizes":[],"default_left":[1,0,0,0,0,0,0,0,0,0,0,0,0,0,0],"id":52,"left_children":[1,3,5,7,9,11,13,-1,-1,-1,-1,-1,-1,-1,-1],"loss_changes":[2.6629382E-1,2.388618E-1,1.7050499E0,9.4241923E-1,9.600828E-1,2.5572312E-1,1.8908625E0,0E0,0E0,0E0,0E0,0E0,0E0,0E0,0E0],"parents":[2147483647,0,0,1,1,2,2,3,3,4,4,5,5,6,6],"right_children":[2,4,6,8,10,12,14,-1,-1,-1,-1,-1,-1,-1,-1],"split_conditions":[3.7305E2,3.6785E2,3.7285E2,8E0,3.685E2,3.7365E2,3.718E2,3.7052408E-1,-2.9047959E-2,7.476267E-2,1.1358407E-3,1.2737411E-1,3.241984E-1,-2.4594839E-1,-1.7167933E-2],"split_indices":[6,5,5,1,5,6,4,0,0,0,0,0,0,0,0],"split_type":[0,0,0,0,0,0,0,0,0,0,0,0,0,0,0],"sum_hessian":[9.619E3,8.798E3,8.21E2,3.81E2,8.417E3,4.6E1,7.75E2,5E0,3.76E2,1.8E2,8.237E3,3.8E1,8E0,3.7E1,7.38E2],"tree_param":{"num_deleted":"0","num_feature":"7","num_nodes":"15","size_leaf_vector":"1"}},{"base_weights":[6.978437E-5,-9.0016844E-4,5.367203E-2,3.4504462E-2,-1.68114E-3,1.1609222E-1,-3.7960475E-3,1.5115066E-2,1.6666588E-1,-3.913795E-2,-5.501969E-4,1.7117631E-1,-9.134145E-3,2.8445434E-2,-6.6076465E-2],"categories":[],"categories_nodes":[],"categories_segments":[],"categories_sizes":[],"default_left":[1,0,1,0,0,0,0,0,0,0,0,0,0,0,0],"id":53,"left_children":[1,3,5,7,9,11,13,-1,-1,-1,-1,-1,-1,-1,-1],"loss_changes":[5.00208E-1,2.6135057E-1,6.138464E-1,5.202369E-1,3.9169544E-1,5.6719804E-1,1.8260075E-1,0E0,0E0,0E0,0E0,0E0,0E0,0E0,0E0],"parents":[2147483647,0,0,1,1,2,2,3,3,4,4,5,5,6,6],"right_children":[2,4,6,8,10,12,14,-1,-1,-1,-1,-1,-1,-1,-1],"split_conditions":[3.7375E2,3.6745E2,3.7185E2,3.6735E2,3.681E2,4.1E1,3.739E2,1.5115066E-2,1.6666588E-1,-3.913795E-2,-5.501969E-4,1.7117631E-1,-9.134145E-3,2.8445434E-2,-6.6076465E-2],"split_indices":[6,5,4,5,5,0,6,0,0,0,0,0,0,0,0],"split_type":[0,0,0,0,0,0,0,0,0,0,0,0,0,0,0],"sum_hessian":[9.619E3,9.449E3,1.7E2,2.03E2,9.246E3,8.1E1,8.9E1,1.78E2,2.5E1,2.7E2,8.976E3,5.6E1,2.5E1,5.9E1,3E1],"tree_param":{"num_deleted":"0","num_feature":"7","num_nodes":"15","size_leaf_vector":"1"}},{"base_weights":[2.6660055E-5,-2.5250132E-3,9.054997E-3,-1.0454262E-3,-3.7791573E-2,2.915537E-3,6.1796714E-2,-3.136695E-3,3.4798495E-2,-1.946539E-2,-4.7905222E-1,1.9311821E-2,-4.7581423E-2,2.8682414E-2,5.4936653E-1],"categories":[],"categories_nodes":[],"categories_segments":[],"categories_sizes":[],"default_left":[1,0,0,0,1,0,0,0,0,0,0,0,0,0,0],"id":54,"left_children":[1,3,5,7,9,11,13,-1,-1,-1,-1,-1,-1,-1,-1],"loss_changes":[2.2164233E-1,3.9136225E-1,6.862879E-1,5.3981584E-1,2.432835E0,1.5740476E0,3.5524058E0,0E0,0E0,0E0,0E0,0E0,0E0,0E0,0E0],"parents":[2147483647,0,0,1,1,2,2,3,3,4,4,5,5,6,6],"right_children":[2,4,6,8,10,12,14,-1,-1,-1,-1,-1,-1,-1,-1],"split_conditions":[3.712E2,5.6E1,5.6E1,5.2E1,3.685E2,4.6E1,4.7E1,-3.136695E-3,3.4798495E-2,-1.946539E-2,-4.7905222E-1,1.9311821E-2,-4.7581423E-2,2.8682414E-2,5.4936653E-1],"split_indices":[4,1,1,1,4,1,0,0,0,0,0,0,0,0,0],"split_type":[0,0,0,0,0,0,0,0,0,0,0,0,0,0,0],"sum_hessian":[9.619E3,7.5E3,2.119E3,7.199E3,3.01E2,1.899E3,2.2E2,6.803E3,3.96E2,2.9E2,1.1E1,1.434E3,4.65E2,2.07E2,1.3E1],"tree_param":{"num_deleted":"0","num_feature":"7","num_nodes":"15","size_leaf_vector":"1"}},{"base_weights":[1.2619431E-5,-5.8750255E-4,6.982422E-2,2.9093238E-2,-1.4585183E-3,1.15862526E-1,4.6909875E-3,1.362688E-1,8.929576E-3,5.2268815E-4,-1.313977E-2,-3.237915E-2,1.3007493E-1,4.705168E-2,-4.292926E-2],"categories":[],"categories_nodes":[],"categories_segments":[],"categories_sizes":[],"default_left":[1,0,1,0,0,0,0,0,0,0,0,0,0,0,0],"id":55,"left_children":[1,3,5,7,9,11,13,-1,-1,-1,-1,-1,-1,-1,-1],"loss_changes":[4.0307552E-1,2.466484E-1,2.4534369E-1,5.865893E-1,2.1449593E-1,1.05341494E-1,7.262283E-2,0E0,0E0,0E0,0E0,0E0,0E0,0E0,0E0],"parents":[2147483647,0,0,1,1,2,2,3,3,4,4,5,5,6,6],"right_children":[2,4,6,8,10,12,14,-1,-1,-1,-1,-1,-1,-1,-1],"split_conditions":[3.7385E2,3.6825E2,3.711E2,3.678E2,5E1,3.7285E2,3.6E1,1.362688E-1,8.929576E-3,5.2268815E-4,-1.313977E-2,-3.237915E-2,1.3007493E-1,4.705168E-2,-4.292926E-2],"split_indices":[4,6,5,4,1,6,0,0,0,0,0,0,0,0,0],"split_type":[0,0,0,0,0,0,0,0,0,0,0,0,0,0,0],"sum_hessian":[9.619E3,9.538E3,8.1E1,2.71E2,9.267E3,4.7E1,3.4E1,4.2E1,2.29E2,7.924E3,1.343E3,4E0,4.3E1,1.8E1,1.6E1],"tree_param":{"num_deleted":"0","num_feature":"7","num_nodes":"15","size_leaf_vector":"1"}},{"base_weights":[2.9216933E-5,-8.5665326E-4,2.5048902E-2,2.2483775E-3,-9.031604E-3,2.3745982E-1,1.6954625E-2,-1.7910091E-2,5.2298536E-3,1.9632412E-2,-1.6407974E-2,2.7284902E-2,-1.0011174E-1],"categories":[],"categories_nodes":[],"categories_segments":[],"categories_sizes":[],"default_left":[0,1,0,0,0,0,0,0,0,0,0,0,0],"id":56,"left_children":[1,3,5,7,9,-1,11,-1,-1,-1,-1,-1,-1],"loss_changes":[2.13241E-1,2.3588355E-1,5.6162786E-1,4.048806E-1,5.4117644E-1,0E0,3.872978E-1,0E0,0E0,0E0,0E0,0E0,0E0],"parents":[2147483647,0,0,1,1,2,2,3,3,4,4,6,6],"right_children":[2,4,6,8,10,-1,12,-1,-1,-1,-1,-1,-1],"split_conditions":[5.7E1,3.691E2,3.722E2,3.7E2,3.729E2,2.3745982E-1,5E1,-1.7910091E-2,5.2298536E-3,1.9632412E-2,-1.6407974E-2,2.7284902E-2,-1.0011174E-1],"split_indices":[1,6,6,5,5,0,0,0,0,0,0,0,0],"split_type":[0,0,0,0,0,0,0,0,0,0,0,0,0],"sum_hessian":[9.619E3,9.291E3,3.28E2,6.734E3,2.557E3,1.1E1,3.17E2,8.67E2,5.867E3,5.23E2,2.034E3,2.92E2,2.5E1],"tree_param":{"num_deleted":"0","num_feature":"7","num_nodes":"13","size_leaf_vector":"1"}},{"base_weights":[2.615883E-5,1.9354377E-2,-1.7339438E-3,-5.2097933E-3,1.06260486E-1,-1.692211E-1,-1.219398E-3,1.2426684E-2,-2.0464191E-1,1.759187E-1,-7.929401E-2,-1.3009813E-1,-2.2272034E-1,-3.0999001E-2,3.7299666E-5],"categories":[],"categories_nodes":[],"categories_segments":[],"categories_sizes":[],"default_left":[0,0,0,0,0,1,0,0,0,0,0,0,0,0,0],"id":57,"left_children":[1,3,5,7,9,11,13,-1,-1,-1,-1,-1,-1,-1,-1],"loss_changes":[3.2730258E-1,1.714779E0,7.5972736E-1,2.2078774E0,2.301744E0,2.753681E-2,3.290326E-1,0E0,0E0,0E0,0E0,0E0,0E0,0E0,0E0],"parents":[2147483647,0,0,1,1,2,2,3,3,4,4,5,5,6,6],"right_children":[2,4,6,8,10,12,14,-1,-1,-1,-1,-1,-1,-1,-1],"split_conditions":[3.6895E2,5.2E1,3.6915E2,5E1,1.5E1,3.7305E2,3.7E2,1.2426684E-2,-2.0464191E-1,1.759187E-1,-7.929401E-2,-1.3009813E-1,-2.2272034E-1,-3.0999001E-2,3.7299666E-5],"split_indices":[5,1,5,1,2,4,5,0,0,0,0,0,0,0,0],"split_type":[0,0,0,0,0,0,0,0,0,0,0,0,0,0,0],"sum_hessian":[9.619E3,8.02E2,8.817E3,6.26E2,1.76E2,2.6E1,8.791E3,5.76E2,5E1,1.28E2,4.8E1,1.7E1,9E0,3.55E2,8.436E3],"tree_param":{"num_deleted":"0","num_feature":"7","num_nodes":"15","size_leaf_vector":"1"}},{"base_weights":[-4.3476444E-5,1.5654783E-3,-1.4937411E-2,-1.346204E-3,1.6509363E-2,2.4328888E-3,-1.6556478E-1,-9.2111025E-3,1.1019362E-2,3.8422767E-2,-3.9833665E-2,5.348578E-2,-1.4400687E-2,-1.100039E-1,-2.223316E-1],"categories":[],"categories_nodes":[],"categories_segments":[],"categories_sizes":[],"default_left":[0,0,1,0,0,0,0,0,0,0,0,0,0,0,0],"id":58,"left_children":[1,3,5,7,9,11,13,-1,-1,-1,-1,-1,-1,-1,-1],"loss_changes":[2.3055385E-1,3.7783557E-1,2.4546258E0,7.069429E-1,1.7498198E0,7.243873E-1,2.8148222E-1,0E0,0E0,0E0,0E0,0E0,0E0,0E0,0E0],"parents":[2147483647,0,0,1,1,2,2,3,3,4,4,5,5,6,6],"right_children":[2,4,6,8,10,12,14,-1,-1,-1,-1,-1,-1,-1,-1],"split_conditions":[5.3E1,4.4E1,3.727E2,1.3E1,1.3E1,5.5E1,3.734E2,-9.2111025E-3,1.1019362E-2,3.8422767E-2,-3.9833665E-2,5.348578E-2,-1.4400687E-2,-1.100039E-1,-2.223316E-1],"split_indices":[1,1,5,2,2,1,6,0,0,0,0,0,0,0,0],"split_type":[0,0,0,0,0,0,0,0,0,0,0,0,0,0,0],"sum_hessian":[9.619E3,8.682E3,9.37E2,7.267E3,1.415E3,8.41E2,9.6E1,4.442E3,2.825E3,1.019E3,3.96E2,2.08E2,6.33E2,5E1,4.6E1],"tree_param":{"num_deleted":"0","num_feature":"7","num_nodes":"15","size_leaf_vector":"1"}},{"base_weights":[-2.7519749E-5,-2.357003E-3,2.0676898E-2,-9.183379E-3,2.2658517E-3,-1.0683534E-1,2.6258169E-2,-7.607886E-3,-1.220665E-1,1.8205894E-2,-2.6517932E-3,-4.9265135E-2,-1.8521297E-1,3.48456E-2,-2.1822862E-2],"categories":[],"categories_nodes":[],"categories_segments":[],"categories_sizes":[],"default_left":[1,0,0,1,0,0,0,0,0,0,0,0,0,0,0],"id":59,"left_children":[1,3,5,7,9,11,13,-1,-1,-1,-1,-1,-1,-1,-1],"loss_changes":[4.6402705E-1,2.729287E-1,6.952702E-1,6.201116E-1,4.0429246E-1,1.7587635E-1,3.859892E-1,0E0,0E0,0E0,0E0,0E0,0E0,0E0,0E0],"parents":[2147483647,0,0,1,1,2,2,3,3,4,4,5,5,6,6],"right_children":[2,4,6,8,10,12,14,-1,-1,-1,-1,-1,-1,-1,-1],"split_conditions":[3.727E2,2.4E1,3.693E2,3.725E2,1.8E1,2.8E1,4.7E1,-7.607886E-3,-1.220665E-1,1.8205894E-2,-2.6517932E-3,-4.9265135E-2,-1.8521297E-1,3.48456E-2,-2.1822862E-2],"split_indices":[5,0,6,5,1,1,1,0,0,0,0,0,0,0,0],"split_type":[0,0,0,0,0,0,0,0,0,0,0,0,0,0,0],"sum_hessian":[9.619E3,8.647E3,9.72E2,3.491E3,5.156E3,4E1,9.32E2,3.444E3,4.7E1,1.215E3,3.941E3,2.4E1,1.6E1,7.91E2,1.41E2],"tree_param":{"num_deleted":"0","num_feature":"7","num_nodes":"15","size_leaf_vector":"1"}},{"base_weights":[-3.8936876E-5,-8.958274E-3,6.3490714E-3,-4.1293982E-2,2.4624744E-3,3.560477E-2,-6.2429467E-3,-1.7698441E-1,-1.1617911E-2,-5.743279E-2,8.210096E-3,2.0997882E-2,2.647684E-1,-2.499507E-1,-4.61454E-3],"categories":[],"categories_nodes":[],"categories_segments":[],"categories_sizes":[],"default_left":[0,0,0,0,0,0,0,0,0,0,0,0,0,0,0],"id":60,"left_children":[1,3,5,7,9,11,13,-1,-1,-1,-1,-1,-1,-1,-1],"loss_changes":[5.4817367E-1,1.4828329E0,2.0654068E0,4.2179875E0,1.0222213E0,5.64145E0,1.5545197E0,0E0,0E0,0E0,0E0,0E0,0E0,0E0,0E0],"parents":[2147483647,0,0,1,1,2,2,3,3,4,4,5,5,6,6],"right_children":[2,4,6,8,10,12,14,-1,-1,-1,-1,-1,-1,-1,-1],"split_conditions":[2.4E1,3.714E2,3.714E2,1.3E1,3.7015E2,3.7105E2,3.7165E2,-1.7698441E-1,-1.1617911E-2,-5.743279E-2,8.210096E-3,2.0997882E-2,2.647684E-1,-2.499507E-1,-4.61454E-3],"split_indices":[1,4,4,2,6,4,4,0,0,0,0,0,0,0,0],"split_type":[0,0,0,0,0,0,0,0,0,0,0,0,0,0,0],"sum_hessian":[9.619E3,4.014E3,5.605E3,1.047E3,2.967E3,1.686E3,3.919E3,1.87E2,8.6E2,2.59E2,2.708E3,1.586E3,1E2,2.5E1,3.894E3],"tree_param":{"num_deleted":"0","num_feature":"7","num_nodes":"15","size_leaf_vector":"1"}},{"base_weights":[-2.296432E-5,2.5399474E-2,-2.0393028E-3,4.265064E-1,1.3101592E-2,-2.0462036E-2,7.549523E-4,3.7641253E-2,5.7954305E-1,-4.1176364E-2,3.173405E-2,-1.2738998E-2,-1.080454E-1,-1.4420398E-1,1.2998835E-3],"categories":[],"categories_nodes":[],"categories_segments":[],"categories_sizes":[],"default_left":[0,0,0,0,0,0,0,0,0,0,0,0,0,0,0],"id":61,"left_children":[1,3,5,7,9,11,13,-1,-1,-1,-1,-1,-1,-1,-1],"loss_changes":[4.9317527E-1,3.4818773E0,4.5888868E-1,1.2279088E0,6.9609153E-1,7.9272854E-1,6.116694E-1,0E0,0E0,0E0,0E0,0E0,0E0,0E0,0E0],"parents":[2147483647,0,0,1,1,2,2,3,3,4,4,5,5,6,6],"right_children":[2,4,6,8,10,12,14,-1,-1,-1,-1,-1,-1,-1,-1],"split_conditions":[3.695E2,3E0,1E1,3.693E2,1.8E1,1.5E1,3.696E2,3.7641253E-2,5.7954305E-1,-4.1176364E-2,3.173405E-2,-1.2738998E-2,-1.080454E-1,-1.4420398E-1,1.2998835E-3],"split_indices":[6,1,1,6,1,2,6,0,0,0,0,0,0,0,0],"split_type":[0,0,0,0,0,0,0,0,0,0,0,0,0,0,0],"sum_hessian":[9.619E3,7.06E2,8.913E3,2E1,6.86E2,1.173E3,7.74E3,6E0,1.4E1,1.75E2,5.11E2,1.079E3,9.4E1,2.8E1,7.712E3],"tree_param":{"num_deleted":"0","num_feature":"7","num_nodes":"15","size_leaf_vector":"1"}},{"base_weights":[2.3871598E-5,6.5496564E-2,-7.681948E-4,7.421483E-2,-7.9616E-2,6.0192086E-3,-5.9947693E-3,6.5093406E-2,2.1995036E-1,-1.8512726E-1,4.5799255E-2,-1.3874297E-3,4.6781193E-2,-4.890246E-2,1.023056E-3],"categories":[],"categories_nodes":[],"categories_segments":[],"categories_sizes":[],"default_left":[0,1,0,0,0,0,0,0,0,0,0,0,0,0,0],"id":62,"left_children":[1,3,5,7,9,11,13,-1,-1,-1,-1,-1,-1,-1,-1],"loss_changes":[4.9893117E-1,1.5139869E-1,3.3726022E-1,1.3057804E-1,1.0110775E-1,1.2487617E0,1.6173584E0,0E0,0E0,0E0,0E0,0E0,0E0,0E0,0E0],"parents":[2147483647,0,0,1,1,2,2,3,3,4,4,5,5,6,6],"right_children":[2,4,6,8,10,12,14,-1,-1,-1,-1,-1,-1,-1,-1],"split_conditions":[3.6715E2,3.6775E2,2.5E1,5.1E1,3.68E2,1.5E1,2.9E1,6.5093406E-2,2.1995036E-1,-1.8512726E-1,4.5799255E-2,-1.3874297E-3,4.6781193E-2,-4.890246E-2,1.023056E-3],"split_indices":[6,4,1,1,4,2,1,0,0,0,0,0,0,0,0],"split_type":[0,0,0,0,0,0,0,0,0,0,0,0,0,0,0],"sum_hessian":[9.619E3,1.14E2,9.505E3,1.08E2,6E0,4.135E3,5.37E3,1.03E2,5E0,3E0,3E0,3.5E3,6.35E2,7.54E2,4.616E3],"tree_param":{"num_deleted":"0","num_feature":"7","num_nodes":"15","size_leaf_vector":"1"}},{"base_weights":[1.5702911E-6,-1.3452366E-2,2.2430771E-3,-2.4574663E-2,5.9068024E-2,2.0126157E-2,-1.648553E-3,-1.6827133E-2,-2.1722345E-1,5.064212E-3,4.3452653E-1,1.178591E-2,2.1648152E-1,5.724772E-2,-3.23744E-3],"categories":[],"categories_nodes":[],"categories_segments":[],"categories_sizes":[],"default_left":[0,0,0,0,0,0,0,0,0,0,0,0,0,0,0],"id":63,"left_children":[1,3,5,7,9,11,13,-1,-1,-1,-1,-1,-1,-1,-1],"loss_changes":[2.9014137E-1,1.1097109E0,5.7397765E-1,1.7754676E0,3.7083426E0,2.4113479E0,6.34093E-1,0E0,0E0,0E0,0E0,0E0,0E0,0E0,0E0],"parents":[2147483647,0,0,1,1,2,2,3,3,4,4,5,5,6,6],"right_children":[2,4,6,8,10,12,14,-1,-1,-1,-1,-1,-1,-1,-1],"split_conditions":[3.6875E2,4.7E1,3.7165E2,4.5E1,1.5E1,4.5E1,3.676E2,-1.6827133E-2,-2.1722345E-1,5.064212E-3,4.3452653E-1,1.178591E-2,2.1648152E-1,5.724772E-2,-3.23744E-3],"split_indices":[4,1,4,1,2,1,5,0,0,0,0,0,0,0,0],"split_type":[0,0,0,0,0,0,0,0,0,0,0,0,0,0,0],"sum_hessian":[9.619E3,1.373E3,8.246E3,1.191E3,1.82E2,1.473E3,6.773E3,1.146E3,4.5E1,1.6E2,2.2E1,1.414E3,5.9E1,1.77E2,6.596E3],"tree_param":{"num_deleted":"0","num_feature":"7","num_nodes":"15","size_leaf_vector":"1"}},{"base_weights":[4.8241247E-5,5.5166595E-2,-5.482327E-4,-2.976888E-1,6.510124E-2,2.6034266E-3,-1.3491046E-2,1.8950878E-1,3.945384E-2,2.9797811E-2,-2.2422388E-4,-2.6225548E-2,1.9827437E-2],"categories":[],"categories_nodes":[],"categories_segments":[],"categories_sizes":[],"default_left":[0,0,0,0,0,0,0,0,0,0,0,0,0],"id":64,"left_children":[1,3,5,-1,7,9,11,-1,-1,-1,-1,-1,-1],"loss_changes":[3.1630373E-1,3.8044587E-1,3.8828707E-1,0E0,3.1478688E-1,5.886472E-1,7.9140466E-1,0E0,0E0,0E0,0E0,0E0,0E0],"parents":[2147483647,0,0,1,1,2,2,4,4,5,5,6,6],"right_children":[2,4,6,-1,8,10,12,-1,-1,-1,-1,-1,-1],"split_conditions":[3.6725E2,3.665E2,1.4E1,-2.976888E-1,8E0,3.71E2,2.9E1,1.8950878E-1,3.945384E-2,2.9797811E-2,-2.2422388E-4,-2.6225548E-2,1.9827437E-2],"split_indices":[4,5,2,0,0,6,1,0,0,0,0,0,0],"split_type":[0,0,0,0,0,0,0,0,0,0,0,0,0],"sum_hessian":[9.619E3,1.02E2,9.517E3,2E0,1E2,7.654E3,1.863E3,1.6E1,8.4E1,7.2E2,6.934E3,1.348E3,5.15E2],"tree_param":{"num_deleted":"0","num_feature":"7","num_nodes":"13","size_leaf_vector":"1"}},{"base_weights":[-1.3498159E-5,4.532762E-3,-1.0549842E-2,-2.2728369E-3,1.5008123E-2,-8.352753E-2,-6.1166263E-3,2.0325195E-2,-8.467335E-3,2.2269918E-2,-1.21343814E-1,2.9028188E-2,-1.25627E-1,2.6963386E-3,-2.9531142E-2],"categories":[],"categories_nodes":[],"categories_segments":[],"categories_sizes":[],"default_left":[0,0,0,0,1,0,0,0,0,0,0,0,0,0,0],"id":65,"left_children":[1,3,5,7,9,11,13,-1,-1,-1,-1,-1,-1,-1,-1],"loss_changes":[4.6085504E-1,4.7918165E-1,9.37714E-1,5.7060474E-1,2.623655E0,7.9024374E-1,5.6445044E-1,0E0,0E0,0E0,0E0,0E0,0E0,0E0,0E0],"parents":[2147483647,0,0,1,1,2,2,3,3,4,4,5,5,6,6],"right_children":[2,4,6,8,10,12,14,-1,-1,-1,-1,-1,-1,-1,-1],"split_conditions":[4.1E1,1.3E1,4.2E1,1.3E1,3.7025E2,1.2E1,1.3E1,2.0325195E-2,-8.467335E-3,2.2269918E-2,-1.21343814E-1,2.9028188E-2,-1.25627E-1,2.6963386E-3,-2.9531142E-2],"split_indices":[1,2,1,1,5,2,2,0,0,0,0,0,0,0,0],"split_type":[0,0,0,0,0,0,0,0,0,0,0,0,0,0,0],"sum_hessian":[9.619E3,6.72E3,2.899E3,4.074E3,2.646E3,1.65E2,2.734E3,8.76E2,3.198E3,2.513E3,1.33E2,4.5E1,1.2E2,1.987E3,7.47E2],"tree_param":{"num_deleted":"0","num_feature":"7","num_nodes":"15","size_leaf_vector":"1"}},{"base_weights":[-2.5448235E-5,-9.962024E-3,2.6384532E-3,-2.919062E-3,-3.7183333E-2,-6.319327E-2,3.5707606E-3,1.02209905E-2,-3.137918E-2,3.6958057E-2,-5.9104044E-2,-1.3525322E-1,-9.8724365E-3,7.789265E-2,2.6858523E-3],"categories":[],"categories_nodes":[],"categories_segments":[],"categories_sizes":[],"default_left":[0,1,0,0,0,0,0,0,0,0,0,0,0,0,0],"id":66,"left_children":[1,3,5,7,9,11,13,-1,-1,-1,-1,-1,-1,-1,-1],"loss_changes":[2.5466824E-1,3.8984716E-1,4.6588078E-1,6.05026E-1,6.815314E-1,4.0594822E-1,4.918674E-1,0E0,0E0,0E0,0E0,0E0,0E0,0E0,0E0],"parents":[2147483647,0,0,1,1,2,2,3,3,4,4,5,5,6,6],"right_children":[2,4,6,8,10,12,14,-1,-1,-1,-1,-1,-1,-1,-1],"split_conditions":[3.7275E2,3.695E2,1E0,1.4E1,3.719E2,2.6E1,2E0,1.02209905E-2,-3.137918E-2,3.6958057E-2,-5.9104044E-2,-1.3525322E-1,-9.8724365E-3,7.789265E-2,2.6858523E-3],"split_indices":[6,4,1,2,5,0,1,0,0,0,0,0,0,0,0],"split_type":[0,0,0,0,0,0,0,0,0,0,0,0,0,0,0],"sum_hessian":[9.619E3,2.033E3,7.586E3,1.616E3,4.17E2,1.05E2,7.481E3,1.106E3,5.1E2,9.5E1,3.22E2,4.4E1,6.1E1,8.7E1,7.394E3],"tree_param":{"num_deleted":"0","num_feature":"7","num_nodes":"15","size_leaf_vector":"1"}},{"base_weights":[-1.12141E-5,2.1977797E-3,-8.970227E-3,-1.6637294E-2,4.984618E-3,3.4487534E-2,-1.774391E-2,-5.589355E-1,-1.388439E-2,2.037222E-2,-3.120767E-3,1.4303652E-2,2.3652913E-1,-1.5875576E-1,-1.2663259E-2],"categories":[],"categories_nodes":[],"categories_segments":[],"categories_sizes":[],"default_left":[0,0,0,0,0,0,0,0,0,0,0,0,0,0,0],"id":67,"left_children":[1,3,5,7,9,11,13,-1,-1,-1,-1,-1,-1,-1,-1],"loss_changes":[1.904034E-1,4.052031E-1,7.261965E-1,1.4776706E0,8.386973E-1,1.3015716E0,1.1328181E0,0E0,0E0,0E0,0E0,0E0,0E0,0E0,0E0],"parents":[2147483647,0,0,1,1,2,2,3,3,4,4,5,5,6,6],"right_children":[2,4,6,8,10,12,14,-1,-1,-1,-1,-1,-1,-1,-1],"split_conditions":[4.8E1,1.1E1,3.712E2,3.677E2,2.5E1,3.7095E2,3.717E2,-5.589355E-1,-1.388439E-2,2.037222E-2,-3.120767E-3,1.4303652E-2,2.3652913E-1,-1.5875576E-1,-1.2663259E-2],"split_indices":[0,1,5,5,1,5,5,0,0,0,0,0,0,0,0],"split_type":[0,0,0,0,0,0,0,0,0,0,0,0,0,0,0],"sum_hessian":[9.619E3,7.717E3,1.902E3,9.94E2,6.723E3,3.19E2,1.583E3,4E0,9.9E2,2.319E3,4.404E3,2.91E2,2.8E1,5.4E1,1.529E3],"tree_param":{"num_deleted":"0","num_feature":"7","num_nodes":"15","size_leaf_vector":"1"}},{"base_weights":[-5.6381385E-5,-6.237485E-3,3.4589856E-3,-3.2350305E-2,1.1751276E-2,1.1571587E-2,-5.396076E-3,6.781843E-3,-6.064168E-2,-1.8281637E-2,3.454073E-2,1.9366358E-1,6.060577E-3,-1.1227571E-1,6.8907504E-4],"categories":[],"categories_nodes":[],"categories_segments":[],"categories_sizes":[],"default_left":[0,0,0,0,0,0,0,0,0,0,0,0,0,0,0],"id":68,"left_children":[1,3,5,7,9,11,13,-1,-1,-1,-1,-1,-1,-1,-1],"loss_changes":[2.090531E-1,1.6388239E0,4.406424E-1,1.5758176E0,1.4146714E0,3.211064E0,1.9076383E0,0E0,0E0,0E0,0E0,0E0,0E0,0E0,0E0],"parents":[2147483647,0,0,1,1,2,2,3,3,4,4,5,5,6,6],"right_children":[2,4,6,8,10,12,14,-1,-1,-1,-1,-1,-1,-1,-1],"split_conditions":[2.2E1,1.2E1,1.2E1,1.3E1,3.72E2,2.3E1,2.3E1,6.781843E-3,-6.064168E-2,-1.8281637E-2,3.454073E-2,1.9366358E-1,6.060577E-3,-1.1227571E-1,6.8907504E-4],"split_indices":[1,2,2,1,4,1,1,0,0,0,0,0,0,0,0],"split_type":[0,0,0,0,0,0,0,0,0,0,0,0,0,0,0],"sum_hessian":[9.619E3,3.487E3,6.132E3,1.422E3,2.065E3,3.2E3,2.932E3,5.97E2,8.25E2,8.91E2,1.174E3,9.3E1,3.107E3,1.57E2,2.775E3],"tree_param":{"num_deleted":"0","num_feature":"7","num_nodes":"15","size_leaf_vector":"1"}},{"base_weights":[-3.1215486E-6,-1.5934017E-2,2.2325288E-3,3.477227E-3,-5.4716162E-2,6.3348445E-3,-1.01732975E-2,1.4256044E-2,-1.1497914E-1,-6.377867E-2,6.6345215E-2,1.166886E-2,-1.608722E-2,-7.6084E-2,-5.419295E-3],"categories":[],"categories_nodes":[],"categories_segments":[],"categories_sizes":[],"default_left":[0,1,0,0,0,0,0,0,0,0,0,0,0,0,0],"id":69,"left_children":[1,3,5,7,9,11,13,-1,-1,-1,-1,-1,-1,-1,-1],"loss_changes":[3.4266064E-1,8.9151704E-1,4.2944545E-1,1.0103265E0,4.375937E-1,7.585691E-1,6.566609E-1,0E0,0E0,0E0,0E0,0E0,0E0,0E0,0E0],"parents":[2147483647,0,0,1,1,2,2,3,3,4,4,5,5,6,6],"right_children":[2,4,6,8,10,12,14,-1,-1,-1,-1,-1,-1,-1,-1],"split_conditions":[3.7E2,3.679E2,4.3E1,3.698E2,3.698E2,1.4E1,4.4E1,1.4256044E-2,-1.1497914E-1,-6.377867E-2,6.6345215E-2,1.166886E-2,-1.608722E-2,-7.6084E-2,-5.419295E-3],"split_indices":[5,4,1,5,5,2,1,0,0,0,0,0,0,0,0],"split_type":[0,0,0,0,0,0,0,0,0,0,0,0,0,0,0],"sum_hessian":[9.619E3,1.183E3,8.436E3,7.89E2,3.94E2,6.34E3,2.096E3,7.24E2,6.5E1,3.67E2,2.7E1,5.122E3,1.218E3,1.4E2,1.956E3],"tree_param":{"num_deleted":"0","num_feature":"7","num_nodes":"15","size_leaf_vector":"1"}},{"base_weights":[-1.0690669E-5,2.1178639E-2,-3.0273134E-3,1.3001224E-1,1.2652402E-2,-2.7224438E-2,-6.928825E-4,2.5917202E-2,2.6998076E-1,3.4933535E-3,5.6846898E-2,1.345136E-1,-3.4238018E-2,-1.12589054E-1,-4.8279217E-5],"categories":[],"categories_nodes":[],"categories_segments":[],"categories_sizes":[],"default_left":[0,0,0,0,0,0,0,0,0,0,0,0,0,0,0],"id":70,"left_children":[1,3,5,7,9,11,13,-1,-1,-1,-1,-1,-1,-1,-1],"loss_changes":[6.149766E-1,1.1109567E0,4.757106E-1,1.2605952E0,4.50321E-1,8.451682E-1,5.5408674E-1,0E0,0E0,0E0,0E0,0E0,0E0,0E0,0E0],"parents":[2147483647,0,0,1,1,2,2,3,3,4,4,5,5,6,6],"right_children":[2,4,6,8,10,12,14,-1,-1,-1,-1,-1,-1,-1,-1],"split_conditions":[3.6855E2,8E0,3.7065E2,3.678E2,4.8E1,5E0,3.6685E2,2.5917202E-2,2.6998076E-1,3.4933535E-3,5.6846898E-2,1.345136E-1,-3.4238018E-2,-1.12589054E-1,-4.8279217E-5],"split_indices":[4,1,6,4,0,1,5,0,0,0,0,0,0,0,0],"split_type":[0,0,0,0,0,0,0,0,0,0,0,0,0,0,0],"sum_hessian":[9.619E3,1.198E3,8.421E3,8.6E1,1.112E3,7.4E2,7.681E3,5E1,3.6E1,9.22E2,1.9E2,3E1,7.1E2,4.3E1,7.638E3],"tree_param":{"num_deleted":"0","num_feature":"7","num_nodes":"15","size_leaf_vector":"1"}},{"base_weights":[4.7245143E-5,-3.7726746E-3,9.334101E-3,-2.5168594E-2,-7.995205E-6,4.7457885E-2,4.764653E-3,-1.1893952E-3,-4.8313852E-2,7.7525177E-3,-1.0496958E-2,-8.3919525E-2,5.466694E-2,-1.5424195E-1,6.3649756E-3],"categories":[],"categories_nodes":[],"categories_segments":[],"categories_sizes":[],"default_left":[1,0,0,0,1,0,0,0,0,0,0,0,0,0,0],"id":71,"left_children":[1,3,5,7,9,11,13,-1,-1,-1,-1,-1,-1,-1,-1],"loss_changes":[3.4130514E-1,5.491008E-1,4.8824382E-1,5.6604743E-1,4.7203702E-1,2.887197E-1,6.3840866E-1,0E0,0E0,0E0,0E0,0E0,0E0,0E0,0E0],"parents":[2147483647,0,0,1,1,2,2,3,3,4,4,5,5,6,6],"right_children":[2,4,6,8,10,12,14,-1,-1,-1,-1,-1,-1,-1,-1],"split_conditions":[3.687E2,1.3E1,3.696E2,2.6E1,3.6765E2,1.6E1,3.6965E2,-1.1893952E-3,-4.8313852E-2,7.7525177E-3,-1.0496958E-2,-8.3919525E-2,5.466694E-2,-1.5424195E-1,6.3649756E-3],"split_indices":[5,1,5,0,4,0,5,0,0,0,0,0,0,0,0],"split_type":[0,0,0,0,0,0,0,0,0,0,0,0,0,0,0],"sum_hessian":[9.619E3,6.816E3,2.803E3,1.019E3,5.797E3,2.99E2,2.504E3,5.01E2,5.18E2,3.332E3,2.465E3,1.5E1,2.84E2,2.4E1,2.48E3],"tree_param":{"num_deleted":"0","num_feature":"7","num_nodes":"15","size_leaf_vector":"1"}},{"base_weights":[-2.6520473E-5,2.5064413E-2,-9.400946E-4,1.0850933E-2,9.8001935E-2,-2.5331156E-2,7.242875E-5,1.2739636E-1,1.5391726E-3,1.1669846E-1,4.5135498E-2,-9.318467E-2,1.4490198E-4,2.6946696E-3,-9.129989E-3],"categories":[],"categories_nodes":[],"categories_segments":[],"categories_sizes":[],"default_left":[0,1,0,0,0,0,0,0,0,0,0,0,0,0,0],"id":72,"left_children":[1,3,5,7,9,11,13,-1,-1,-1,-1,-1,-1,-1,-1],"loss_changes":[2.205373E-1,3.4933978E-1,2.2925964E-1,3.0801293E-1,4.909581E-2,6.396103E-1,2.1512794E-1,0E0,0E0,0E0,0E0,0E0,0E0,0E0,0E0],"parents":[2147483647,0,0,1,1,2,2,3,3,4,4,5,5,6,6],"right_children":[2,4,6,8,10,12,14,-1,-1,-1,-1,-1,-1,-1,-1],"split_conditions":[3.6865E2,3.6785E2,3.695E2,1.3E1,2.6E1,1.6E1,4.6E1,1.2739636E-1,1.5391726E-3,1.1669846E-1,4.5135498E-2,-9.318467E-2,1.4490198E-4,2.6946696E-3,-9.129989E-3],"split_indices":[6,4,6,1,1,1,1,0,0,0,0,0,0,0,0],"split_type":[0,0,0,0,0,0,0,0,0,0,0,0,0,0,0],"sum_hessian":[9.619E3,3.37E2,9.282E3,2.83E2,5.4E1,3.69E2,8.913E3,2E1,2.63E2,3.9E1,1.5E1,1E2,2.69E2,6.937E3,1.976E3],"tree_param":{"num_deleted":"0","num_feature":"7","num_nodes":"15","size_leaf_vector":"1"}},{"base_weights":[2.5353065E-5,-2.1496983E-3,9.15562E-3,-9.232436E-4,-4.483398E-2,-2.9948136E-2,1.7503371E-2,-1.3946646E-3,1.2145049E-1,3.9368898E-2,-8.86828E-2,-4.916109E-2,1.9453961E-2,1.7665692E-1,1.2215125E-2],"categories":[],"categories_nodes":[],"categories_segments":[],"categories_sizes":[],"default_left":[1,1,0,1,0,1,0,0,0,0,0,0,0,0,0],"id":73,"left_children":[1,3,5,7,9,11,13,-1,-1,-1,-1,-1,-1,-1,-1],"loss_changes":[1.9106133E-1,4.0672073E-1,6.047432E-1,4.3595627E-1,8.046981E-1,3.1038263E-1,1.2821895E0,0E0,0E0,0E0,0E0,0E0,0E0,0E0,0E0],"parents":[2147483647,0,0,1,1,2,2,3,3,4,4,5,5,6,6],"right_children":[2,4,6,8,10,12,14,-1,-1,-1,-1,-1,-1,-1,-1],"split_conditions":[3.712E2,3.7345E2,9E0,3.734E2,1.3E1,3.72E2,1.1E1,-1.3946646E-3,1.2145049E-1,3.9368898E-2,-8.86828E-2,-4.916109E-2,1.9453961E-2,1.7665692E-1,1.2215125E-2],"split_indices":[6,5,1,5,1,4,1,0,0,0,0,0,0,0,0],"split_type":[0,0,0,0,0,0,0,0,0,0,0,0,0,0,0],"sum_hessian":[9.619E3,7.769E3,1.85E3,7.553E3,2.16E2,3.25E2,1.525E3,7.525E3,2.8E1,7.4E1,1.42E2,2.34E2,9.1E1,4.8E1,1.477E3],"tree_param":{"num_deleted":"0","num_feature":"7","num_nodes":"15","size_leaf_vector":"1"}},{"base_weights":[3.2449512E-5,4.033789E-4,-5.2861456E-2,-3.388356E-4,2.4987793E-2,-4.224634E-2,-2.0948792E-1,1.2190504E-2,-1.9742511E-3,1.9479347E-2,2.370344E-1,-1.2928118E-1,-1.7526066E-2],"categories":[],"categories_nodes":[],"categories_segments":[],"categories_sizes":[],"default_left":[1,1,1,0,0,0,0,0,0,0,0,0,0],"id":74,"left_children":[1,3,5,7,9,11,-1,-1,-1,-1,-1,-1,-1],"loss_changes":[1.887648E-1,1.7433941E-1,1.0254462E-1,1.9007511E-1,3.2243592E-1,1.3543183E-1,0E0,0E0,0E0,0E0,0E0,0E0,0E0],"parents":[2147483647,0,0,1,1,2,2,3,3,4,4,5,5],"right_children":[2,4,6,8,10,12,-1,-1,-1,-1,-1,-1,-1],"split_conditions":[3.7385E2,3.7365E2,3.732E2,9E0,5.4E1,4E0,-2.0948792E-1,1.2190504E-2,-1.9742511E-3,1.9479347E-2,2.370344E-1,-1.2928118E-1,-1.7526066E-2],"split_indices":[6,5,5,1,1,0,0,0,0,0,0,0,0],"split_type":[0,0,0,0,0,0,0,0,0,0,0,0,0],"sum_hessian":[9.619E3,9.553E3,6.6E1,9.274E3,2.79E2,6.3E1,3E0,1.07E3,8.204E3,2.73E2,6E0,1.3E1,5E1],"tree_param":{"num_deleted":"0","num_feature":"7","num_nodes":"13","size_leaf_vector":"1"}},{"base_weights":[4.631566E-7,-6.654903E-3,2.4572753E-3,-1.3032645E-2,3.0538138E-2,2.1020701E-4,2.2671001E-2,-2.8099185E-2,1.3186951E-2,-1.2819366E-1,3.924755E-2,1.4777387E-3,-4.1402563E-2,3.2268744E-2,-7.534209E-2],"categories":[],"categories_nodes":[],"categories_segments":[],"categories_sizes":[],"default_left":[0,0,1,0,0,1,1,0,0,0,0,0,0,0,0],"id":75,"left_children":[1,3,5,7,9,11,13,-1,-1,-1,-1,-1,-1,-1,-1],"loss_changes":[1.5731281E-1,6.1571467E-1,3.1917298E-1,8.753811E-1,5.3036636E-1,3.3367652E-1,6.6374636E-1,0E0,0E0,0E0,0E0,0E0,0E0,0E0,0E0],"parents":[2147483647,0,0,1,1,2,2,3,3,4,4,5,5,6,6],"right_children":[2,4,6,8,10,12,14,-1,-1,-1,-1,-1,-1,-1,-1],"split_conditions":[1.8E1,1.5E1,3.725E2,3.8E1,4E0,3.719E2,3.7365E2,-2.8099185E-2,1.3186951E-2,-1.2819366E-1,3.924755E-2,1.4777387E-3,-4.1402563E-2,3.2268744E-2,-7.534209E-2],"split_indices":[1,2,5,0,1,5,6,0,0,0,0,0,0,0,0],"split_type":[0,0,0,0,0,0,0,0,0,0,0,0,0,0,0],"sum_hessian":[9.619E3,2.593E3,7.026E3,2.214E3,3.79E2,6.324E3,7.02E2,1.406E3,8.08E2,1.9E1,3.6E2,6.138E3,1.86E2,6.4E2,6.2E1],"tree_param":{"num_deleted":"0","num_feature":"7","num_nodes":"15","size_leaf_vector":"1"}},{"base_weights":[-8.720667E-6,1.2778736E-3,-1.51607925E-2,2.1036047E-2,-2.8485796E-4,-8.871174E-2,-8.316703E-3,4.516389E-2,-3.675413E-2,2.3871784E-3,-1.01564275E-2,-1.6977493E-1,-2.8779682E-2,-1.974068E-2,2.7578387E-2],"categories":[],"categories_nodes":[],"categories_segments":[],"categories_sizes":[],"default_left":[1,0,0,0,0,0,1,0,0,0,0,0,0,0,0],"id":76,"left_children":[1,3,5,7,9,11,13,-1,-1,-1,-1,-1,-1,-1,-1],"loss_changes":[1.8755715E-1,2.738208E-1,3.783143E-1,9.079889E-1,2.1681839E-1,3.060441E-1,2.8348905E-1,0E0,0E0,0E0,0E0,0E0,0E0,0E0,0E0],"parents":[2147483647,0,0,1,1,2,2,3,3,4,4,5,5,6,6],"right_children":[2,4,6,8,10,12,14,-1,-1,-1,-1,-1,-1,-1,-1],"split_conditions":[3.73E2,6E0,3.7315E2,4.2E1,1.4E1,2.7E1,3.733E2,4.516389E-2,-3.675413E-2,2.3871784E-3,-1.01564275E-2,-1.6977493E-1,-2.8779682E-2,-1.974068E-2,2.7578387E-2],"split_indices":[5,1,5,0,2,0,6,0,0,0,0,0,0,0,0],"split_type":[0,0,0,0,0,0,0,0,0,0,0,0,0,0,0],"sum_hessian":[9.619E3,8.867E3,7.52E2,6.49E2,8.218E3,6.3E1,6.89E2,4.58E2,1.91E2,6.468E3,1.75E3,2.6E1,3.7E1,5.23E2,1.66E2],"tree_param":{"num_deleted":"0","num_feature":"7","num_nodes":"15","size_leaf_vector":"1"}},{"base_weights":[-1.4380061E-5,1.0098187E-2,-1.4540565E-3,-3.5505198E-4,5.932966E-2,-2.6800537E-3,1.9155104E-2,-1.5418586E-2,1.946066E-2,9.764187E-2,-1.2244477E-1,2.8742548E-2,-3.4946683E-3,-2.7828425E-1,2.6180325E-2],"categories":[],"categories_nodes":[],"categories_segments":[],"categories_sizes":[],"default_left":[0,1,0,0,0,0,0,0,0,0,0,0,0,0,0],"id":77,"left_children":[1,3,5,7,9,11,13,-1,-1,-1,-1,-1,-1,-1,-1],"loss_changes":[1.4007059E-1,6.170605E-1,2.1284811E-1,2.9580975E-1,1.4744334E0,2.0359905E-1,9.956556E-1,0E0,0E0,0E0,0E0,0E0,0E0,0E0,0E0],"parents":[2147483647,0,0,1,1,2,2,3,3,4,4,5,5,6,6],"right_children":[2,4,6,8,10,12,14,-1,-1,-1,-1,-1,-1,-1,-1],"split_conditions":[3.6855E2,3.693E2,5.6E1,2.8E1,4.8E1,3.6765E2,3.7095E2,-1.5418586E-2,1.946066E-2,9.764187E-2,-1.2244477E-1,2.8742548E-2,-3.4946683E-3,-2.7828425E-1,2.6180325E-2],"split_indices":[4,6,1,1,1,5,4,0,0,0,0,0,0,0,0],"split_type":[0,0,0,0,0,0,0,0,0,0,0,0,0,0,0],"sum_hessian":[9.619E3,1.198E3,8.421E3,9.89E2,2.09E2,7.949E3,4.72E2,5.62E2,4.27E2,1.73E2,3.6E1,2E2,7.749E3,1E1,4.62E2],"tree_param":{"num_deleted":"0","num_feature":"7","num_nodes":"15","size_leaf_vector":"1"}},{"base_weights":[-1.5188998E-5,-1.4819001E-2,1.2309754E-3,-1.0790898E-2,-1.6070099E-1,-4.390864E-4,1.5973503E-2,-1.5697807E-2,4.953724E-2,-1.0154724E-1,-1.8474168E-1,1.2119529E-3,-2.4802469E-2,3.4234035E-3,1.1559484E-1],"categories":[],"categories_nodes":[],"categories_segments":[],"categories_sizes":[],"default_left":[0,1,0,0,0,0,0,0,0,0,0,0,0,0,0],"id":78,"left_children":[1,3,5,7,9,11,13,-1,-1,-1,-1,-1,-1,-1,-1],"loss_changes":[1.7748784E-1,4.372237E-1,2.1849315E-1,2.1628362E-1,9.682E-3,3.2070297E-1,1.1285869E0,0E0,0E0,0E0,0E0,0E0,0E0,0E0,0E0],"parents":[2147483647,0,0,1,1,2,2,3,3,4,4,5,5,6,6],"right_children":[2,4,6,8,10,12,14,-1,-1,-1,-1,-1,-1,-1,-1],"split_conditions":[3.6885E2,3.7305E2,1.5E1,5.5E1,3.687E2,1.4E1,2.9E1,-1.5697807E-2,4.953724E-2,-1.0154724E-1,-1.8474168E-1,1.2119529E-3,-2.4802469E-2,3.4234035E-3,1.1559484E-1],"split_indices":[5,4,2,0,5,2,1,0,0,0,0,0,0,0,0],"split_type":[0,0,0,0,0,0,0,0,0,0,0,0,0,0,0],"sum_hessian":[9.619E3,7.46E2,8.873E3,7.27E2,1.9E1,7.971E3,9.02E2,6.73E2,5.4E1,7E0,1.2E1,7.466E3,5.05E2,8.02E2,1E2],"tree_param":{"num_deleted":"0","num_feature":"7","num_nodes":"15","size_leaf_vector":"1"}},{"base_weights":[-2.30468E-5,4.0847156E-3,-4.4290195E-3,6.4673764E-3,-3.0858837E-2,1.998169E-1,-4.868914E-3,4.7596996E-3,5.5762462E-2,-4.887296E-2,2.7144983E-2,6.072998E-3,2.2066921E-1,-1.1116646E-2,8.047391E-3],"categories":[],"categories_nodes":[],"categories_segments":[],"categories_sizes":[],"default_left":[0,1,0,1,1,0,1,0,0,0,0,0,0,0,0],"id":79,"left_children":[1,3,5,7,9,11,13,-1,-1,-1,-1,-1,-1,-1,-1],"loss_changes":[1.7412747E-1,4.1474435E-1,4.1804084E-1,3.921822E-1,3.3360103E-1,3.9059967E-2,3.7396148E-1,0E0,0E0,0E0,0E0,0E0,0E0,0E0,0E0],"parents":[2147483647,0,0,1,1,2,2,3,3,4,4,5,5,6,6],"right_children":[2,4,6,8,10,12,14,-1,-1,-1,-1,-1,-1,-1,-1],"split_conditions":[2.9E1,3.7305E2,3.6635E2,3.7275E2,3.7355E2,3.6765E2,3.688E2,4.7596996E-3,5.5762462E-2,-4.887296E-2,2.7144983E-2,6.072998E-3,2.2066921E-1,-1.1116646E-2,8.047391E-3],"split_indices":[1,6,5,6,5,4,4,0,0,0,0,0,0,0,0],"split_type":[0,0,0,0,0,0,0,0,0,0,0,0,0,0,0],"sum_hessian":[9.619E3,4.978E3,4.641E3,4.661E3,3.17E2,9E0,4.632E3,4.506E3,1.55E2,2.42E2,7.5E1,1E0,8E0,3.122E3,1.51E3],"tree_param":{"num_deleted":"0","num_feature":"7","num_nodes":"15","size_leaf_vector":"1"}},{"base_weights":[2.2529714E-5,-8.7182305E-4,3.0304065E-2,1.4763976E-3,-1.06818285E-2,-2.3487854E-1,3.212247E-2,2.1027308E-3,-7.536091E-2,-3.5533816E-2,-4.826996E-3,4.5351405E-2,3.965914E-3],"categories":[],"categories_nodes":[],"categories_segments":[],"categories_sizes":[],"default_left":[1,1,0,1,0,0,0,0,0,0,0,0,0],"id":80,"left_children":[1,3,5,7,9,-1,11,-1,-1,-1,-1,-1,-1],"loss_changes":[2.6055887E-1,2.1528773E-1,1.406346E-1,3.6307484E-1,2.6246363E-1,0E0,1.0225251E-1,0E0,0E0,0E0,0E0,0E0,0E0],"parents":[2147483647,0,0,1,1,2,2,3,3,4,4,6,6],"right_children":[2,4,6,8,10,-1,12,-1,-1,-1,-1,-1,-1],"split_conditions":[3.7365E2,3.7135E2,3.716E2,3.7355E2,3.723E2,-2.3487854E-1,4.4E1,2.1027308E-3,-7.536091E-2,-3.5533816E-2,-4.826996E-3,4.5351405E-2,3.965914E-3],"split_indices":[6,4,4,6,4,0,1,0,0,0,0,0,0],"split_type":[0,0,0,0,0,0,0,0,0,0,0,0,0],"sum_hessian":[9.619E3,9.344E3,2.75E2,7.54E3,1.804E3,1E0,2.74E2,7.48E3,6E1,3.43E2,1.461E3,1.86E2,8.8E1],"tree_param":{"num_deleted":"0","num_feature":"7","num_nodes":"13","size_leaf_vector":"1"}},{"base_weights":[-3.4663783E-5,-3.5421643E-2,3.8213888E-4,-4.800143E-2,7.3410034E-2,-5.2658287E-3,2.5570362E-3,-7.891119E-2,3.1605256E-3,1.143022E-1,-1.882019E-1,7.512481E-2,-6.1549963E-3,3.931995E-4,1.884849E-2],"categories":[],"categories_nodes":[],"categories_segments":[],"categories_sizes":[],"default_left":[0,1,0,0,0,0,1,0,0,0,0,0,0,0,0],"id":81,"left_children":[1,3,5,7,9,11,13,-1,-1,-1,-1,-1,-1,-1,-1],"loss_changes":[1.4190263E-1,1.5686066E-1,1.16819635E-1,1.599712E-1,1.4988643E-1,1.894575E-1,2.4203312E-1,0E0,0E0,0E0,0E0,0E0,0E0,0E0,0E0],"parents":[2147483647,0,0,1,1,2,2,3,3,4,4,5,5,6,6],"right_children":[2,4,6,8,10,12,14,-1,-1,-1,-1,-1,-1,-1,-1],"split_conditions":[3.67E2,3.6925E2,3.7345E2,2.3E1,4.6E1,3.676E2,3.7205E2,-7.891119E-2,3.1605256E-3,1.143022E-1,-1.882019E-1,7.512481E-2,-6.1549963E-3,3.931995E-4,1.884849E-2],"split_indices":[5,6,6,1,0,5,5,0,0,0,0,0,0,0,0],"split_type":[0,0,0,0,0,0,0,0,0,0,0,0,0,0,0],"sum_hessian":[9.619E3,1.11E2,9.508E3,1E2,1.1E1,2.643E3,6.865E3,6.2E1,3.8E1,1E1,1E0,2.8E1,2.615E3,6.061E3,8.04E2],"tree_param":{"num_deleted":"0","num_feature":"7","num_nodes":"15","size_leaf_vector":"1"}},{"base_weights":[-6.982244E-6,1.1741011E-3,-8.201473E-3,4.212716E-2,-6.0052043E-5,1.8229779E-2,-4.0260926E-2,-1.5557962E-2,9.809082E-2,9.876961E-3,-1.5570372E-3,9.788324E-4,1.8902639E-1,3.4949493E-1,-4.3047648E-2],"categories":[],"categories_nodes":[],"categories_segments":[],"categories_sizes":[],"default_left":[0,0,0,0,0,0,0,0,0,0,0,0,0,0,0],"id":82,"left_children":[1,3,5,7,9,11,13,-1,-1,-1,-1,-1,-1,-1,-1],"loss_changes":[9.311561E-2,4.2501312E-1,1.0277482E0,7.956807E-1,1.2145946E-1,1.9591728E0,6.1024994E-1,0E0,0E0,0E0,0E0,0E0,0E0,0E0,0E0],"parents":[2147483647,0,0,1,1,2,2,3,3,4,4,5,5,6,6],"right_children":[2,4,6,8,10,12,14,-1,-1,-1,-1,-1,-1,-1,-1],"split_conditions":[1.5E1,3.684E2,2.4E1,2.2E1,8E0,2.3E1,3.6725E2,-1.5557962E-2,9.809082E-2,9.876961E-3,-1.5570372E-3,9.788324E-4,1.8902639E-1,3.4949493E-1,-4.3047648E-2],"split_indices":[2,5,1,1,0,1,4,0,0,0,0,0,0,0,0],"split_type":[0,0,0,0,0,0,0,0,0,0,0,0,0,0,0],"sum_hessian":[9.619E3,8.408E3,1.211E3,2.45E2,8.163E3,6.64E2,5.47E2,1.21E2,1.24E2,1.068E3,7.095E3,6.04E2,6E1,3E0,5.44E2],"tree_param":{"num_deleted":"0","num_feature":"7","num_nodes":"15","size_leaf_vector":"1"}},{"base_weights":[6.041973E-5,-3.7025309E-3,2.7554226E-3,3.8946547E-2,-9.4089005E-3,-1.4494633E-2,7.857645E-3,4.435773E-2,-2.16568E-1,-3.1931002E-3,-5.636501E-2,-2.4192484E-2,4.490441E-2,2.6856633E-2,1.982018E-3],"categories":[],"categories_nodes":[],"categories_segments":[],"categories_sizes":[],"default_left":[0,0,0,1,0,1,0,0,0,0,0,0,0,0,0],"id":83,"left_children":[1,3,5,7,9,11,13,-1,-1,-1,-1,-1,-1,-1,-1],"loss_changes":[9.756819E-2,9.775026E-1,4.935183E-1,6.649756E-1,1.0336227E0,7.384215E-1,4.82974E-1,0E0,0E0,0E0,0E0,0E0,0E0,0E0,0E0],"parents":[2147483647,0,0,1,1,2,2,3,3,4,4,5,5,6,6],"right_children":[2,4,6,8,10,12,14,-1,-1,-1,-1,-1,-1,-1,-1],"split_conditions":[2.4E1,1E1,1E1,3.72E2,2.2E1,3.731E2,3.1E1,4.435773E-2,-2.16568E-1,-3.1931002E-3,-5.636501E-2,-2.4192484E-2,4.490441E-2,2.6856633E-2,1.982018E-3],"split_indices":[1,2,2,4,1,4,1,0,0,0,0,0,0,0,0],"split_type":[0,0,0,0,0,0,0,0,0,0,0,0,0,0,0],"sum_hessian":[9.619E3,4.014E3,5.605E3,4.73E2,3.541E3,1.279E3,4.326E3,4.64E2,9E0,3.128E3,4.13E2,1.1E3,1.79E2,1.021E3,3.305E3],"tree_param":{"num_deleted":"0","num_feature":"7","num_nodes":"15","size_leaf_vector":"1"}},{"base_weights":[-1.5239755E-5,3.3847205E-4,-3.059831E-2,-6.3926815E-3,1.6427595E-3,-4.6652935E-2,5.9974223E-2,2.2534765E-2,-2.1578278E-2,-2.4535302E-3,7.7501866E-3,-9.455763E-2,-2.5936753E-2,7.571193E-2,-1.0101318E-2],"categories":[],"categories_nodes":[],"categories_segments":[],"categories_sizes":[],"default_left":[1,0,0,0,0,0,1,0,0,0,0,0,0,0,0],"id":84,"left_children":[1,3,5,7,9,11,13,-1,-1,-1,-1,-1,-1,-1,-1],"loss_changes":[1.040756E-1,8.351099E-2,1.6274984E-1,6.787354E-1,1.9936077E-1,9.0833336E-2,1.9512877E-2,0E0,0E0,0E0,0E0,0E0,0E0,0E0,0E0],"parents":[2147483647,0,0,1,1,2,2,3,3,4,4,5,5,6,6],"right_children":[2,4,6,8,10,12,14,-1,-1,-1,-1,-1,-1,-1,-1],"split_conditions":[3.738E2,1E1,5.1E1,3.721E2,3.4E1,3.7385E2,3.73E2,2.2534765E-2,-2.1578278E-2,-2.4535302E-3,7.7501866E-3,-9.455763E-2,-2.5936753E-2,7.571193E-2,-1.0101318E-2],"split_indices":[4,0,0,4,1,4,6,0,0,0,0,0,0,0,0],"split_type":[0,0,0,0,0,0,0,0,0,0,0,0,0,0,0],"sum_hessian":[9.619E3,9.51E3,1.09E2,1.543E3,7.967E3,9.3E1,1.6E1,5.31E2,1.012E3,4.769E3,3.198E3,2.7E1,6.6E1,1.3E1,3E0],"tree_param":{"num_deleted":"0","num_feature":"7","num_nodes":"15","size_leaf_vector":"1"}},{"base_weights":[-1.1052312E-5,-7.838232E-3,1.6341337E-3,-4.0698975E-2,-2.0555155E-3,-1.5344343E-3,