{"learner":{"attributes":{"scikit_learn":"{\"_estimator_type\": \"regressor\"}"},"feature_names":["second","minute","hour","day","lag1","lag2","lag3"],"feature_types":["int","int","int","int","float","float","float"],"gradient_booster":{"model":{"gbtree_model_param":{"num_parallel_tree":"1","num_trees":"750"},"iteration_indptr":[0,1,2,3,4,5,6,7,8,9,10,11,12,13,14,15,16,17,18,19,20,21,22,23,24,25,26,27,28,29,30,31,32,33,34,35,36,37,38,39,40,41,42,43,44,45,46,47,48,49,50,51,52,53,54,55,56,57,58,59,60,61,62,63,64,65,66,67,68,69,70,71,72,73,74,75,76,77,78,79,80,81,82,83,84,85,86,87,88,89,90,91,92,93,94,95,96,97,98,99,100,101,102,103,104,105,106,107,108,109,110,111,112,113,114,115,116,117,118,119,120,121,122,123,124,125,126,127,128,129,130,131,132,133,134,135,136,137,138,139,140,141,142,143,144,145,146,147,148,149,150,151,152,153,154,155,156,157,158,159,160,161,162,163,164,165,166,167,168,169,170,171,172,173,174,175,176,177,178,179,180,181,182,183,184,185,186,187,188,189,190,191,192,193,194,195,196,197,198,199,200,201,202,203,204,205,206,207,208,209,210,211,212,213,214,215,216,217,218,219,220,221,222,223,224,225,226,227,228,229,230,231,232,233,234,235,236,237,238,239,240,241,242,243,244,245,246,247,248,249,250,251,252,253,254,255,256,257,258,259,260,261,262,263,264,265,266,267,268,269,270,271,272,273,274,275,276,277,278,279,280,281,282,283,284,285,286,287,288,289,290,291,292,293,294,295,296,297,298,299,300,301,302,303,304,305,306,307,308,309,310,311,312,313,314,315,316,317,318,319,320,321,322,323,324,325,326,327,328,329,330,331,332,333,334,335,336,337,338,339,340,341,342,343,344,345,346,347,348,349,350,351,352,353,354,355,356,357,358,359,360,361,362,363,364,365,366,367,368,369,370,371,372,373,374,375,376,377,378,379,380,381,382,383,384,385,386,387,388,389,390,391,392,393,394,395,396,397,398,399,400,401,402,403,404,405,406,407,408,409,410,411,412,413,414,415,416,417,418,419,420,421,422,423,424,425,426,427,428,429,430,431,432,433,434,435,436,437,438,439,440,441,442,443,444,445,446,447,448,449,450,451,452,453,454,455,456,457,458,459,460,461,462,463,464,465,466,467,468,469,470,471,472,473,474,475,476,477,478,479,480,481,482,483,484,485,486,487,488,489,490,491,492,493,494,495,496,497,498,499,500,501,502,503,504,505,506,507,508,509,510,511,512,513,514,515,516,517,518,519,520,521,522,523,524,525,526,527,528,529,530,531,532,533,534,535,536,537,538,539,540,541,542,543,544,545,546,547,548,549,550,551,552,553,554,555,556,557,558,559,560,561,562,563,564,565,566,567,568,569,570,571,572,573,574,575,576,577,578,579,580,581,582,583,584,585,586,587,588,589,590,591,592,593,594,595,596,597,598,599,600,601,602,603,604,605,606,607,608,609,610,611,612,613,614,615,616,617,618,619,620,621,622,623,624,625,626,627,628,629,630,631,632,633,634,635,636,637,638,639,640,641,642,643,644,645,646,647,648,649,650,651,652,653,654,655,656,657,658,659,660,661,662,663,664,665,666,667,668,669,670,671,672,673,674,675,676,677,678,679,680,681,682,683,684,685,686,687,688,689,690,691,692,693,694,695,696,697,698,699,700,701,702,703,704,705,706,707,708,709,710,711,712,713,714,715,716,717,718,719,720,721,722,723,724,725,726,727,728,729,730,731,732,733,734,735,736,737,738,739,740,741,742,743,744,745,746,747,748,749,750],"tree_info":[0,0,0,0,0,0,0,0,0,0,0,0,0,0,0,0,0,0,0,0,0,0,0,0,0,0,0,0,0,0,0,0,0,0,0,0,0,0,0,0,0,0,0,0,0,0,0,0,0,0,0,0,0,0,0,0,0,0,0,0,0,0,0,0,0,0,0,0,0,0,0,0,0,0,0,0,0,0,0,0,0,0,0,0,0,0,0,0,0,0,0,0,0,0,0,0,0,0,0,0,0,0,0,0,0,0,0,0,0,0,0,0,0,0,0,0,0,0,0,0,0,0,0,0,0,0,0,0,0,0,0,0,0,0,0,0,0,0,0,0,0,0,0,0,0,0,0,0,0,0,0,0,0,0,0,0,0,0,0,0,0,0,0,0,0,0,0,0,0,0,0,0,0,0,0,0,0,0,0,0,0,0,0,0,0,0,0,0,0,0,0,0,0,0,0,0,0,0,0,0,0,0,0,0,0,0,0,0,0,0,0,0,0,0,0,0,0,0,0,0,0,0,0,0,0,0,0,0,0,0,0,0,0,0,0,0,0,0,0,0,0,0,0,0,0,0,0,0,0,0,0,0,0,0,0,0,0,0,0,0,0,0,0,0,0,0,0,0,0,0,0,0,0,0,0,0,0,0,0,0,0,0,0,0,0,0,0,0,0,0,0,0,0,0,0,0,0,0,0,0,0,0,0,0,0,0,0,0,0,0,0,0,0,0,0,0,0,0,0,0,0,0,0,0,0,0,0,0,0,0,0,0,0,0,0,0,0,0,0,0,0,0,0,0,0,0,0,0,0,0,0,0,0,0,0,0,0,0,0,0,0,0,0,0,0,0,0,0,0,0,0,0,0,0,0,0,0,0,0,0,0,0,0,0,0,0,0,0,0,0,0,0,0,0,0,0,0,0,0,0,0,0,0,0,0,0,0,0,0,0,0,0,0,0,0,0,0,0,0,0,0,0,0,0,0,0,0,0,0,0,0,0,0,0,0,0,0,0,0,0,0,0,0,0,0,0,0,0,0,0,0,0,0,0,0,0,0,0,0,0,0,0,0,0,0,0,0,0,0,0,0,0,0,0,0,0,0,0,0,0,0,0,0,0,0,0,0,0,0,0,0,0,0,0,0,0,0,0,0,0,0,0,0,0,0,0,0,0,0,0,0,0,0,0,0,0,0,0,0,0,0,0,0,0,0,0,0,0,0,0,0,0,0,0,0,0,0,0,0,0,0,0,0,0,0,0,0,0,0,0,0,0,0,0,0,0,0,0,0,0,0,0,0,0,0,0,0,0,0,0,0,0,0,0,0,0,0,0,0,0,0,0,0,0,0,0,0,0,0,0,0,0,0,0,0,0,0,0,0,0,0,0,0,0,0,0,0,0,0,0,0,0,0,0,0,0,0,0,0,0,0,0,0,0,0,0,0,0,0,0,0,0,0,0,0,0,0,0,0,0,0,0,0,0,0,0,0,0,0,0,0,0,0,0,0,0,0,0,0,0,0,0,0,0,0,0,0,0,0,0,0,0,0,0,0,0,0,0,0,0,0,0,0,0,0,0,0,0,0,0,0,0,0,0,0,0,0,0,0,0,0,0,0,0,0,0,0,0,0,0,0,0,0,0,0,0,0,0,0,0,0,0,0,0,0,0,0,0,0,0,0,0,0,0,0,0,0,0,0,0,0,0,0,0,0,0,0,0,0,0],"trees":[{"base_weights":[4.687808E3],"categories":[],"categories_nodes":[],"categories_segments":[],"categories_sizes":[],"default_left":[0],"id":0,"left_children":[-1],"loss_changes":[0E0],"parents":[2147483647],"right_children":[-1],"split_conditions":[4.687808E3],"split_indices":[0],"split_type":[0],"sum_hessian":[1.3069E4],"tree_param":{"num_deleted":"0","num_feature":"7","num_nodes":"1","size_leaf_vector":"1"}},{"base_weights":[3.5867262E-1,-4.876219E1,1.9180502E1,-6.4295654E1,-3.6501495E1,7.007801E0,4.0709827E1,-8.0594055E1,-3.753656E1,-3.8661926E1,-1.7121954E1,4.936405E-1,1.9448826E1,3.4558594E1,4.9392002E1],"categories":[],"categories_nodes":[],"categories_segments":[],"categories_sizes":[],"default_left":[0,0,0,0,0,1,0,0,0,0,0,0,0,0,0],"id":1,"left_children":[1,3,5,7,9,11,13,-1,-1,-1,-1,-1,-1,-1,-1],"loss_changes":[1.2084733E7,6.87276E5,2.4762765E6,6.93039E5,8.4163E4,4.89327E5,1.80568E5,0E0,0E0,0E0,0E0,0E0,0E0,0E0,0E0],"parents":[2147483647,0,0,1,1,2,2,3,3,4,4,5,5,6,6],"right_children":[2,4,6,8,10,12,14,-1,-1,-1,-1,-1,-1,-1,-1],"split_conditions":[1.1E1,1E1,1.4E1,4.3E1,5.3E1,4.693E3,2.5E1,-8.0594055E1,-3.753656E1,-3.8661926E1,-1.7121954E1,4.936405E-1,1.9448826E1,3.4558594E1,4.9392002E1],"split_indices":[2,2,2,1,1,4,1,0,0,0,0,0,0,0,0],"split_type":[0,0,0,0,0,0,0,0,0,0,0,0,0,0,0],"sum_hessian":[1.3069E4,3.62E3,9.449E3,1.595E3,2.025E3,6.037E3,3.412E3,9.9E2,6.05E2,1.821E3,2.04E2,3.963E3,2.074E3,2E3,1.412E3],"tree_param":{"num_deleted":"0","num_feature":"7","num_nodes":"15","size_leaf_vector":"1"}},{"base_weights":[-5.311656E-3,-2.4177423E0,2.672312E0,-5.4202137E0,9.73103E-1,6.346959E0,-8.546646E-2,-7.673685E0,-2.0122364E0,2.9587991E0,-8.458919E0,2.1606026E0,1.277837E1,-1.4263303E0,1.8755364E0],"categories":[],"categories_nodes":[],"categories_segments":[],"categories_sizes":[],"default_left":[0,0,1,0,1,0,0,0,0,0,0,0,0,0,0],"id":2,"left_children":[1,3,5,7,9,11,13,-1,-1,-1,-1,-1,-1,-1,-1],"loss_changes":[8.443319E4,7.000925E4,6.2779832E4,2.7992719E4,6.052011E4,7.148301E4,9.310886E3,0E0,0E0,0E0,0E0,0E0,0E0,0E0,0E0],"parents":[2147483647,0,0,1,1,2,2,3,3,4,4,5,5,6,6],"right_children":[2,4,6,8,10,12,14,-1,-1,-1,-1,-1,-1,-1,-1],"split_conditions":[3E1,1.3E1,4.6242E3,1.9E1,4.72515E3,1.2E1,4.709E3,-7.673685E0,-2.0122364E0,2.9587991E0,-8.458919E0,2.1606026E0,1.277837E1,-1.4263303E0,1.8755364E0],"split_indices":[1,2,4,1,6,2,4,0,0,0,0,0,0,0,0],"split_type":[0,0,0,0,0,0,0,0,0,0,0,0,0,0,0],"sum_hessian":[1.3069E4,6.875E3,6.194E3,3.646E3,3.229E3,2.655E3,3.539E3,2.194E3,1.452E3,2.668E3,5.61E2,1.609E3,1.046E3,2.102E3,1.437E3],"tree_param":{"num_deleted":"0","num_feature":"7","num_nodes":"15","size_leaf_vector":"1"}},{"base_weights":[-4.445713E-6,3.588354E0,-5.938514E-1,-3.496704E0,4.6781654E0,7.2821654E-2,-2.7443643E0,-8.030835E0,4.552447E0,7.2843165E0,2.7724137E0,-1.8345265E0,1.4550102E0,-1.3453033E0,-8.594839E0],"categories":[],"categories_nodes":[],"categories_segments":[],"categories_sizes":[],"default_left":[0,0,0,0,0,0,0,0,0,0,0,0,0,0,0],"id":3,"left_children":[1,3,5,7,9,11,13,-1,-1,-1,-1,-1,-1,-1,-1],"loss_changes":[2.7853463E4,1.434723E4,1.6079021E4,9.087545E3,7.9711875E3,2.2574795E4,2.171188E4,0E0,0E0,0E0,0E0,0E0,0E0,0E0,0E0],"parents":[2147483647,0,0,1,1,2,2,3,3,4,4,5,5,6,6],"right_children":[2,4,6,8,10,12,14,-1,-1,-1,-1,-1,-1,-1,-1],"split_conditions":[4.66795E3,4.6041E3,4.5E1,3.1E1,2.3E1,4.7239E3,1.4E1,-8.030835E0,4.552447E0,7.2843165E0,2.7724137E0,-1.8345265E0,1.4550102E0,-1.3453033E0,-8.594839E0],"split_indices":[4,4,1,1,1,4,2,0,0,0,0,0,0,0,0],"split_type":[0,0,0,0,0,0,0,0,0,0,0,0,0,0,0],"sum_hessian":[1.3069E4,1.855E3,1.1214E4,2.47E2,1.608E3,8.561E3,2.653E3,1.58E2,8.9E1,6.78E2,9.3E2,3.597E3,4.964E3,2.142E3,5.11E2],"tree_param":{"num_deleted":"0","num_feature":"7","num_nodes":"15","size_leaf_vector":"1"}},{"base_weights":[-3.415727E-4,-6.6902745E-1,1.711254E0,-3.1367564E-1,-7.3593254E0,3.3467107E0,2.9968038E-1,-2.2575142E0,2.8616223E-1,5.8866262E0,-1.1378395E1,5.880674E0,1.2792324E0,-2.6526535E0,2.68128E0],"categories":[],"categories_nodes":[],"categories_segments":[],"categories_sizes":[],"default_left":[1,0,0,0,0,0,1,0,0,0,0,0,0,0,0],"id":4,"left_children":[1,3,5,7,9,11,13,-1,-1,-1,-1,-1,-1,-1,-1],"loss_changes":[1.4960018E4,2.2342965E4,8.476057E3,1.0408254E4,2.5301037E4,8.903871E3,1.3872791E4,0E0,0E0,0E0,0E0,0E0,0E0,0E0,0E0],"parents":[2147483647,0,0,1,1,2,2,3,3,4,4,5,5,6,6],"right_children":[2,4,6,8,10,12,14,-1,-1,-1,-1,-1,-1,-1,-1],"split_conditions":[4.683E3,1.5E1,1.4E1,1.3E1,8E0,4E1,4.7101E3,-2.2575142E0,2.8616223E-1,5.8866262E0,-1.1378395E1,5.880674E0,1.2792324E0,-2.6526535E0,2.68128E0],"split_indices":[6,2,2,1,1,1,4,0,0,0,0,0,0,0,0],"split_type":[0,0,0,0,0,0,0,0,0,0,0,0,0,0,0],"sum_hessian":[1.3069E4,9.398E3,3.671E3,8.925E3,4.73E2,1.7E3,1.971E3,2.104E3,6.821E3,1.1E2,3.63E2,7.63E2,9.37E2,8.8E2,1.091E3],"tree_param":{"num_deleted":"0","num_feature":"7","num_nodes":"15","size_leaf_vector":"1"}},{"base_weights":[-2.9177327E-5,-6.6841274E-1,5.2232486E-1,8.0831516E-1,-1.8920567E0,4.067089E0,2.3277268E-1,-8.2065177E-1,1.8358762E0,-3.9701173E-1,-3.7745793E0,7.363624E0,1.311994E0,-1.938996E0,5.627388E-1],"categories":[],"categories_nodes":[],"categories_segments":[],"categories_sizes":[],"default_left":[0,0,0,0,0,1,0,0,0,0,0,0,0,0,0],"id":5,"left_children":[1,3,5,7,9,11,13,-1,-1,-1,-1,-1,-1,-1,-1],"loss_changes":[4.5635156E3,1.0362805E4,7.529707E3,4.351877E3,8.824634E3,5.021916E3,4.862573E3,0E0,0E0,0E0,0E0,0E0,0E0,0E0,0E0],"parents":[2147483647,0,0,1,1,2,2,3,3,4,4,5,5,6,6],"right_children":[2,4,6,8,10,12,14,-1,-1,-1,-1,-1,-1,-1,-1],"split_conditions":[1.2E1,4.68495E3,4.6812E3,4.6544E3,1.1E1,4.693E3,4.699E3,-8.2065177E-1,1.8358762E0,-3.9701173E-1,-3.7745793E0,7.363624E0,1.311994E0,-1.938996E0,5.627388E-1],"split_indices":[2,4,5,5,2,4,5,0,0,0,0,0,0,0,0],"split_type":[0,0,0,0,0,0,0,0,0,0,0,0,0,0,0],"sum_hessian":[1.3069E4,5.733E3,7.336E3,2.598E3,3.135E3,5.53E2,6.783E3,1.005E3,1.593E3,1.748E3,1.387E3,2.51E2,3.02E2,8.94E2,5.889E3],"tree_param":{"num_deleted":"0","num_feature":"7","num_nodes":"15","size_leaf_vector":"1"}},{"base_weights":[4.004504E-4,2.2992613E0,-1.6331947E-1,-4.245159E0,2.7638884E0,-3.99891E0,-2.5067772E-3,-8.40181E0,8.384693E-1,1.7404041E0,5.766272E0,-5.8282137E0,1.5864937E-1,4.0044752E-1,-6.6955954E-1],"categories":[],"categories_nodes":[],"categories_segments":[],"categories_sizes":[],"default_left":[0,0,0,0,0,0,1,0,0,0,0,0,0,0,0],"id":6,"left_children":[1,3,5,7,9,11,13,-1,-1,-1,-1,-1,-1,-1,-1],"loss_changes":[4.9195225E3,2.6541143E3,7.526326E3,1.2326351E3,2.4851528E3,3.7351948E3,3.1483577E3,0E0,0E0,0E0,0E0,0E0,0E0,0E0,0E0],"parents":[2147483647,0,0,1,1,2,2,3,3,4,4,5,5,6,6],"right_children":[2,4,6,8,10,12,14,-1,-1,-1,-1,-1,-1,-1,-1],"split_conditions":[4.6441E3,4.5935E3,4.6498E3,4.8E1,4.67865E3,3.9E1,4.669E3,-8.40181E0,8.384693E-1,1.7404041E0,5.766272E0,-5.8282137E0,1.5864937E-1,4.0044752E-1,-6.6955954E-1],"split_indices":[5,5,5,1,4,1,6,0,0,0,0,0,0,0,0],"split_type":[0,0,0,0,0,0,0,0,0,0,0,0,0,0,0],"sum_hessian":[1.3069E4,8.68E2,1.2201E4,5.7E1,8.11E2,4.9E2,1.1711E4,3.1E1,2.6E1,6.06E2,2.05E2,3.4E2,1.5E2,7.301E3,4.41E3],"tree_param":{"num_deleted":"0","num_feature":"7","num_nodes":"15","size_leaf_vector":"1"}},{"base_weights":[-4.615696E-4,-1.2862161E-1,1.8775823E0,-3.2985453E-2,-4.3036823E0,9.186065E0,4.7984135E-1,-1.3103526E0,1.6364947E-1,-6.4412556E0,1.3803712E-1,1.1958241E1,3.0412655E0,-3.194349E0,1.800769E0],"categories":[],"categories_nodes":[],"categories_segments":[],"categories_sizes":[],"default_left":[1,1,0,0,1,0,0,0,0,0,0,0,0,0,0],"id":7,"left_children":[1,3,5,7,9,11,13,-1,-1,-1,-1,-1,-1,-1,-1],"loss_changes":[3.1460623E3,4.885531E3,8.525422E3,3.0050212E3,2.6023828E3,2.246251E3,3.4127969E3,0E0,0E0,0E0,0E0,0E0,0E0,0E0,0E0],"parents":[2147483647,0,0,1,1,2,2,3,3,4,4,5,5,6,6],"right_children":[2,4,6,8,10,12,14,-1,-1,-1,-1,-1,-1,-1,-1],"split_conditions":[4.73365E3,4.729E3,5E0,1E1,4.7319E3,4.72895E3,1.2E1,-1.3103526E0,1.6364947E-1,-6.4412556E0,1.3803712E-1,1.1958241E1,3.0412655E0,-3.194349E0,1.800769E0],"split_indices":[5,5,1,2,4,6,1,0,0,0,0,0,0,0,0],"split_type":[0,0,0,0,0,0,0,0,0,0,0,0,0,0,0],"sum_hessian":[1.3069E4,1.2235E4,8.34E2,1.1962E4,2.73E2,1.33E2,7.01E2,1.595E3,1.0367E4,1.84E2,8.9E1,9.1E1,4.2E1,1.85E2,5.16E2],"tree_param":{"num_deleted":"0","num_feature":"7","num_nodes":"15","size_leaf_vector":"1"}},{"base_weights":[5.557141E-4,-4.058018E-1,5.1585335E-1,-4.8929048E0,5.772075E-3,6.3677144E-1,-1.8737888E1,-1.9761714E0,-6.146097E0,5.37008E-1,-1.0293335E0,3.0551813E0,1.357319E-1,-2.3599892E1,-1.2564778E1],"categories":[],"categories_nodes":[],"categories_segments":[],"categories_sizes":[],"default_left":[0,0,0,0,1,0,0,0,0,0,0,0,0,0,0],"id":8,"left_children":[1,3,5,7,9,11,13,-1,-1,-1,-1,-1,-1,-1,-1],"loss_changes":[2.7370027E3,1.3496256E4,1.3428919E4,2.232164E3,3.6820342E3,6.9403125E3,7.839658E2,0E0,0E0,0E0,0E0,0E0,0E0,0E0,0E0],"parents":[2147483647,0,0,1,1,2,2,3,3,4,4,5,5,6,6],"right_children":[2,4,6,8,10,12,14,-1,-1,-1,-1,-1,-1,-1,-1],"split_conditions":[3.2E1,1E1,1.5E1,4.6041E3,4.693E3,1E1,4.5E1,-1.9761714E0,-6.146097E0,5.37008E-1,-1.0293335E0,3.0551813E0,1.357319E-1,-2.3599892E1,-1.2564778E1],"split_indices":[1,2,2,4,4,2,1,0,0,0,0,0,0,0,0],"split_type":[0,0,0,0,0,0,0,0,0,0,0,0,0,0,0],"sum_hessian":[1.3069E4,7.307E3,5.762E3,6.13E2,6.694E3,5.727E3,3.5E1,1.85E2,4.28E2,4.424E3,2.27E3,9.82E2,4.745E3,1.8E1,1.7E1],"tree_param":{"num_deleted":"0","num_feature":"7","num_nodes":"15","size_leaf_vector":"1"}},{"base_weights":[-3.2301655E-3,-1.3389157E0,1.9228487E-1,-6.1297363E-1,-4.0630717E0,3.489553E-1,-1.0339435E0,-1.1642336E0,3.3592203E0,-1.4870226E1,-8.178963E-1,-5.0271225E-1,6.968578E-1,-2.4601004E0,1.7814049E0],"categories":[],"categories_nodes":[],"categories_segments":[],"categories_sizes":[],"default_left":[0,0,0,0,0,0,1,0,0,0,0,0,0,0,0],"id":9,"left_children":[1,3,5,7,9,11,13,-1,-1,-1,-1,-1,-1,-1,-1],"loss_changes":[3.4134438E3,3.2980898E3,2.1908416E3,2.8921401E3,1.2297797E4,2.9962124E3,5.1919287E3,0E0,0E0,0E0,0E0,0E0,0E0,0E0,0E0],"parents":[2147483647,0,0,1,1,2,2,3,3,4,4,5,5,6,6],"right_children":[2,4,6,8,10,12,14,-1,-1,-1,-1,-1,-1,-1,-1],"split_conditions":[4.6564E3,4.3E1,5.3E1,3.6E1,4.6369E3,1.6E1,4.676E3,-1.1642336E0,3.3592203E0,-1.4870226E1,-8.178963E-1,-5.0271225E-1,6.968578E-1,-2.4601004E0,1.7814049E0],"split_indices":[4,1,1,1,4,1,6,0,0,0,0,0,0,0,0],"split_type":[0,0,0,0,0,0,0,0,0,0,0,0,0,0,0],"sum_hessian":[1.3069E4,1.668E3,1.1401E4,1.318E3,3.5E2,1.011E4,1.291E3,1.158E3,1.6E2,8E1,2.7E2,2.932E3,7.178E3,8.57E2,4.34E2],"tree_param":{"num_deleted":"0","num_feature":"7","num_nodes":"15","size_leaf_vector":"1"}},{"base_weights":[-9.987163E-4,-5.3496444E-1,3.4328735E-1,5.1073294E0,-6.175213E-1,4.2759463E-1,-3.0281668E0,6.536549E0,-1.4847935E0,-3.19406E0,-4.31477E-1,7.4732375E-1,-2.7029082E-1,-4.5724115E0,2.8460248E0],"categories":[],"categories_nodes":[],"categories_segments":[],"categories_sizes":[],"default_left":[0,0,0,0,0,0,1,0,0,0,0,0,0,0,0],"id":10,"left_children":[1,3,5,7,9,11,13,-1,-1,-1,-1,-1,-1,-1,-1],"loss_changes":[2.4029326E3,2.3899648E3,2.260136E3,7.069031E2,2.4198208E3,1.7303853E3,1.7728241E3,0E0,0E0,0E0,0E0,0E0,0E0,0E0,0E0],"parents":[2147483647,0,0,1,1,2,2,3,3,4,4,5,5,6,6],"right_children":[2,4,6,8,10,12,14,-1,-1,-1,-1,-1,-1,-1,-1],"split_conditions":[4.7124E3,4.593E3,5.8E1,1.8E1,4.6247E3,1.4E1,4.703E3,6.536549E0,-1.4847935E0,-3.19406E0,-4.31477E-1,7.4732375E-1,-2.7029082E-1,-4.5724115E0,2.8460248E0],"split_indices":[6,6,1,1,6,2,4,0,0,0,0,0,0,0,0],"split_type":[0,0,0,0,0,0,0,0,0,0,0,0,0,0,0],"sum_hessian":[1.3069E4,5.123E3,7.946E3,7.3E1,5.05E3,7.753E3,1.93E2,6E1,1.3E1,3.39E2,4.711E3,5.317E3,2.436E3,1.53E2,4E1],"tree_param":{"num_deleted":"0","num_feature":"7","num_nodes":"15","size_leaf_vector":"1"}},{"base_weights":[9.414451E-6,8.1540865E-1,-1.7825939E-1,4.157264E-1,4.506727E0,-2.2010827E0,-6.598441E-2,-7.012491E-1,1.7123615E0,6.2380284E-1,1.4507645E1,-4.027018E0,-4.864201E-1,-5.761457E-1,3.5647035E-1],"categories":[],"categories_nodes":[],"categories_segments":[],"categories_sizes":[],"default_left":[0,0,0,1,0,0,0,0,0,0,0,0,0,0,0],"id":11,"left_children":[1,3,5,7,9,11,13,-1,-1,-1,-1,-1,-1,-1,-1],"loss_changes":[1.9000039E3,3.457833E3,2.4358628E3,3.0672725E3,8.883663E3,1.7638479E3,2.1905356E3,0E0,0E0,0E0,0E0,0E0,0E0,0E0,0E0],"parents":[2147483647,0,0,1,1,2,2,3,3,4,4,5,5,6,6],"right_children":[2,4,6,8,10,12,14,-1,-1,-1,-1,-1,-1,-1,-1],"split_conditions":[4.679E3,1.3E1,4.68605E3,4.6564E3,4.7099E3,2.3E1,4.71505E3,-7.012491E-1,1.7123615E0,6.2380284E-1,1.4507645E1,-4.027018E0,-4.864201E-1,-5.761457E-1,3.5647035E-1],"split_indices":[6,2,6,4,4,1,4,0,0,0,0,0,0,0,0],"split_type":[0,0,0,0,0,0,0,0,0,0,0,0,0,0,0],"sum_hessian":[1.3069E4,2.344E3,1.0725E4,2.116E3,2.28E2,5.63E2,1.0162E4,1.137E3,9.79E2,1.65E2,6.3E1,2.72E2,2.91E2,4.603E3,5.559E3],"tree_param":{"num_deleted":"0","num_feature":"7","num_nodes":"15","size_leaf_vector":"1"}},{"base_weights":[8.7401224E-4,1.9674131E0,-4.737239E-2,3.753418E0,-1.820572E-1,-4.139669E0,-2.4144463E-2,-6.919488E-1,4.902534E0,3.2978E0,-1.4278357E0,2.5654297E0,-6.767888E0,-2.1327581E0,1.0829273E-2],"categories":[],"categories_nodes":[],"categories_segments":[],"categories_sizes":[],"default_left":[0,0,0,0,0,0,0,0,0,0,0,0,0,0,0],"id":12,"left_children":[1,3,5,7,9,11,13,-1,-1,-1,-1,-1,-1,-1,-1],"loss_changes":[1.2401543E3,1.2022792E3,1.212619E3,8.7690186E2,6.2463257E2,1.2861802E3,9.356399E2,0E0,0E0,0E0,0E0,0E0,0E0,0E0,0E0],"parents":[2147483647,0,0,1,1,2,2,3,3,4,4,5,5,6,6],"right_children":[2,4,6,8,10,12,14,-1,-1,-1,-1,-1,-1,-1,-1],"split_conditions":[4.61725E3,2.5E1,4.6241E3,4.6511E3,4.64825E3,4.64725E3,1E0,-6.919488E-1,4.902534E0,3.2978E0,-1.4278357E0,2.5654297E0,-6.767888E0,-2.1327581E0,1.0829273E-2],"split_indices":[6,1,6,4,5,5,1,0,0,0,0,0,0,0,0],"split_type":[0,0,0,0,0,0,0,0,0,0,0,0,0,0,0],"sum_hessian":[1.3069E4,3.12E2,1.2757E4,1.7E2,1.42E2,7.1E1,1.2686E4,3.5E1,1.35E2,3.7E1,1.05E2,2E1,5.1E1,2.06E2,1.248E4],"tree_param":{"num_deleted":"0","num_feature":"7","num_nodes":"15","size_leaf_vector":"1"}},{"base_weights":[6.690985E-5,3.1066384E-2,-1.5517235E0,-4.1329075E-2,8.818442E-1,5.2977264E-1,-4.751344E0,1.0307473E-1,-1.2614504E0,4.318235E0,-1.0362052E-1,-9.424944E-1,3.4924316E0,-6.018263E0,2.9135416E0],"categories":[],"categories_nodes":[],"categories_segments":[],"categories_sizes":[],"default_left":[1,1,0,1,0,0,0,0,0,0,0,0,0,0,0],"id":13,"left_children":[1,3,5,7,9,11,13,-1,-1,-1,-1,-1,-1,-1,-1],"loss_changes":[6.287765E2,7.893436E2,1.7074766E3,2.081112E3,3.4038215E3,6.837363E2,9.98324E2,0E0,0E0,0E0,0E0,0E0,0E0,0E0,0E0],"parents":[2147483647,0,0,1,1,2,2,3,3,4,4,5,5,6,6],"right_children":[2,4,6,8,10,12,14,-1,-1,-1,-1,-1,-1,-1,-1],"split_conditions":[4.742E3,4.7124E3,4.1E1,4.70385E3,9E0,3.8E1,4.5E1,1.0307473E-1,-1.2614504E0,4.318235E0,-1.0362052E-1,-9.424944E-1,3.4924316E0,-6.018263E0,2.9135416E0],"split_indices":[4,6,1,6,1,1,1,0,0,0,0,0,0,0,0],"split_type":[0,0,0,0,0,0,0,0,0,0,0,0,0,0,0],"sum_hessian":[1.3069E4,1.2814E4,2.55E2,1.181E4,1.004E3,1.55E2,1E2,1.0561E4,1.249E3,2.23E2,7.81E2,1.04E2,5.1E1,8.6E1,1.4E1],"tree_param":{"num_deleted":"0","num_feature":"7","num_nodes":"15","size_leaf_vector":"1"}},{"base_weights":[1.9710574E-4,-4.891112E-1,2.1807022E-1,2.984077E-1,-9.7636604E-1,1.3420748E0,-2.9228052E-2,-2.648805E-1,1.6677002E0,-4.7061566E-1,-1.5867083E0,8.8091856E-1,3.8386538E0,-2.3493633E0,1.3566227E-1],"categories":[],"categories_nodes":[],"categories_segments":[],"categories_sizes":[],"default_left":[0,0,0,0,0,1,0,0,0,0,0,0,0,0,0],"id":14,"left_children":[1,3,5,7,9,11,13,-1,-1,-1,-1,-1,-1,-1,-1],"loss_changes":[1.3934618E3,1.5455414E3,2.513949E3,1.1882535E3,7.672512E2,1.8744097E3,2.8366768E3,0E0,0E0,0E0,0E0,0E0,0E0,0E0,0E0],"parents":[2147483647,0,0,1,1,2,2,3,3,4,4,5,5,6,6],"right_children":[2,4,6,8,10,12,14,-1,-1,-1,-1,-1,-1,-1,-1],"split_conditions":[1.8E1,4.71055E3,2.5E1,4.69E3,9E0,4.711E3,2.7E1,-2.648805E-1,1.6677002E0,-4.7061566E-1,-1.5867083E0,8.8091856E-1,3.8386538E0,-2.3493633E0,1.3566227E-1],"split_indices":[1,5,1,5,1,6,1,0,0,0,0,0,0,0,0],"split_type":[0,0,0,0,0,0,0,0,0,0,0,0,0,0,0],"sum_hessian":[1.3069E4,4.026E3,9.043E3,1.539E3,2.487E3,1.63E3,7.413E3,1.091E3,4.48E2,1.361E3,1.126E3,1.377E3,2.53E2,4.91E2,6.922E3],"tree_param":{"num_deleted":"0","num_feature":"7","num_nodes":"15","size_leaf_vector":"1"}},{"base_weights":[1.0733221E-4,1.0888996E-1,-4.8729363E-1,-2.159674E-2,1.7479496E0,-9.697244E-1,5.200132E-1,2.3279926E-1,-3.372548E-1,2.8939977E-1,4.0691624E0,-1.2024205E0,1.834201E0,-7.758911E0,7.8424543E-1],"categories":[],"categories_nodes":[],"categories_segments":[],"categories_sizes":[],"default_left":[1,1,1,0,0,0,0,0,0,0,0,0,0,0,0],"id":15,"left_children":[1,3,5,7,9,11,13,-1,-1,-1,-1,-1,-1,-1,-1],"loss_changes":[6.930344E2,2.2855115E3,1.159509E3,7.949895E2,2.666679E3,1.054627E3,1.6970677E3,0E0,0E0,0E0,0E0,0E0,0E0,0E0,0E0],"parents":[2147483647,0,0,1,1,2,2,3,3,4,4,5,5,6,6],"right_children":[2,4,6,8,10,12,14,-1,-1,-1,-1,-1,-1,-1,-1],"split_conditions":[4.70825E3,4.702E3,4.71105E3,4.73E3,4.733E3,5.7E1,5E0,2.3279926E-1,-3.372548E-1,2.8939977E-1,4.0691624E0,-1.2024205E0,1.834201E0,-7.758911E0,7.8424543E-1],"split_indices":[5,5,4,4,4,1,1,0,0,0,0,0,0,0,0],"split_type":[0,0,0,0,0,0,0,0,0,0,0,0,0,0,0],"sum_hessian":[1.3069E4,1.0685E4,2.384E3,9.898E3,7.87E2,1.612E3,7.72E2,5.481E3,4.417E3,4.84E2,3.03E2,1.489E3,1.23E2,2.3E1,7.49E2],"tree_param":{"num_deleted":"0","num_feature":"7","num_nodes":"15","size_leaf_vector":"1"}},{"base_weights":[-1.3583708E-4,1.981723E-1,-2.1782602E-1,1.3723809E-1,2.757696E0,3.576923E-1,-4.2077792E-1,-1.5676574E-1,5.6607836E-1,2.4549422E-1,5.173822E0,-1.1931261E0,6.052142E-1,-1.2765448E0,-1.7153092E-1],"categories":[],"categories_nodes":[],"categories_segments":[],"categories_sizes":[],"default_left":[1,1,0,0,1,0,0,0,0,0,0,0,0,0,0],"id":16,"left_children":[1,3,5,7,9,11,13,-1,-1,-1,-1,-1,-1,-1,-1],"loss_changes":[5.642716E2,1.0664053E3,7.2794727E2,8.425599E2,9.638275E2,6.2449695E2,9.824419E2,0E0,0E0,0E0,0E0,0E0,0E0,0E0,0E0],"parents":[2147483647,0,0,1,1,2,2,3,3,4,4,5,5,6,6],"right_children":[2,4,6,8,10,12,14,-1,-1,-1,-1,-1,-1,-1,-1],"split_conditions":[4.646E3,4.6441E3,4.70495E3,3.4E1,4.64E3,4.655E3,4.681E3,-1.5676574E-1,5.6607836E-1,2.4549422E-1,5.173822E0,-1.1931261E0,6.052142E-1,-1.2765448E0,-1.7153092E-1],"split_indices":[5,5,4,1,6,4,5,0,0,0,0,0,0,0,0],"split_type":[0,0,0,0,0,0,0,0,0,0,0,0,0,0,0],"sum_hessian":[1.3069E4,6.839E3,6.23E3,6.681E3,1.58E2,1.624E3,4.606E3,3.964E3,2.717E3,7.8E1,8E1,2.23E2,1.401E3,1.038E3,3.568E3],"tree_param":{"num_deleted":"0","num_feature":"7","num_nodes":"15","size_leaf_vector":"1"}},{"base_weights":[2.9005474E-4,1.6982894E-1,-4.559951E-1,1.6963255E0,-7.328907E-3,-2.3558602E0,-6.370141E-2,-4.32131E-1,6.74383E0,1.998758E-1,-1.4618407E0,-9.128287E0,-8.1875396E-1,-8.57553E-1,8.87661E-1],"categories":[],"categories_nodes":[],"categories_segments":[],"categories_sizes":[],"default_left":[0,0,0,0,0,0,0,0,0,0,0,0,0,0,0],"id":17,"left_children":[1,3,5,7,9,11,13,-1,-1,-1,-1,-1,-1,-1,-1],"loss_changes":[1.01114746E3,2.5772183E3,2.6389753E3,1.0649619E4,2.5740918E3,6.3009507E3,2.2181477E3,0E0,0E0,0E0,0E0,0E0,0E0,0E0,0E0],"parents":[2147483647,0,0,1,1,2,2,3,3,4,4,5,5,6,6],"right_children":[2,4,6,8,10,12,14,-1,-1,-1,-1,-1,-1,-1,-1],"split_conditions":[4.3E1,1E1,1E1,3.5E1,3.7E1,4.6E1,4.7229E3,-4.32131E-1,6.74383E0,1.998758E-1,-1.4618407E0,-9.128287E0,-8.1875396E-1,-8.57553E-1,8.87661E-1],"split_indices":[1,2,2,1,1,1,4,0,0,0,0,0,0,0,0],"split_type":[0,0,0,0,0,0,0,0,0,0,0,0,0,0,0],"sum_hessian":[1.3069E4,9.529E3,3.54E3,9.9E2,8.539E3,6.05E2,2.935E3,6.97E2,2.93E2,7.475E3,1.064E3,1.11E2,4.94E2,1.6E3,1.335E3],"tree_param":{"num_deleted":"0","num_feature":"7","num_nodes":"15","size_leaf_vector":"1"}},{"base_weights":[-2.809392E-4,1.4026736E-1,-3.98E-1,-1.2329931E-1,1.339718E0,-1.4830325E0,2.8700998E-1,-1.0655069E0,6.3279584E-2,-4.5864385E-1,4.477647E0,-8.2484655E-2,-2.7029397E0,8.610103E-1,-3.9920318E-1],"categories":[],"categories_nodes":[],"categories_segments":[],"categories_sizes":[],"default_left":[0,0,1,0,0,0,0,0,0,0,0,0,0,0,0],"id":18,"left_children":[1,3,5,7,9,11,13,-1,-1,-1,-1,-1,-1,-1,-1],"loss_changes":[7.3065234E2,3.0533992E3,2.5371658E3,1.3921963E3,9.821103E3,2.2567559E3,8.2474835E2,0E0,0E0,0E0,0E0,0E0,0E0,0E0,0E0],"parents":[2147483647,0,0,1,1,2,2,3,3,4,4,5,5,6,6],"right_children":[2,4,6,8,10,12,14,-1,-1,-1,-1,-1,-1,-1,-1],"split_conditions":[1.4E1,1.3E1,4.706E3,1.1E1,4.71905E3,4.72895E3,4.73E3,-1.0655069E0,6.3279584E-2,-4.5864385E-1,4.477647E0,-8.2484655E-2,-2.7029397E0,8.610103E-1,-3.9920318E-1],"split_indices":[2,2,4,1,4,6,4,0,0,0,0,0,0,0,0],"split_type":[0,0,0,0,0,0,0,0,0,0,0,0,0,0,0],"sum_hessian":[1.3069E4,9.657E3,3.412E3,7.918E3,1.739E3,1.32E3,2.092E3,1.308E3,6.61E3,1.106E3,6.33E2,6.15E2,7.05E2,1.139E3,9.53E2],"tree_param":{"num_deleted":"0","num_feature":"7","num_nodes":"15","size_leaf_vector":"1"}},{"base_weights":[-1.9725516E-5,5.9792274E-1,-1.2082896E-1,9.955266E0,5.419761E-1,1.4201331E-1,-4.233128E-1,-2.187402E-1,1.0709292E0,3.5401112E-1,-3.206577E-1,-9.128746E-1,1.8860993E-1],"categories":[],"categories_nodes":[],"categories_segments":[],"categories_sizes":[],"default_left":[0,0,0,0,1,1,1,0,0,0,0,0,0],"id":19,"left_children":[1,3,5,-1,7,9,11,-1,-1,-1,-1,-1,-1],"loss_changes":[9.4420935E2,1.14476E3,8.646034E2,0E0,8.794415E2,5.708715E2,1.5148181E3,0E0,0E0,0E0,0E0,0E0,0E0],"parents":[2147483647,0,0,1,1,2,2,4,4,5,5,6,6],"right_children":[2,4,6,-1,8,10,12,-1,-1,-1,-1,-1,-1],"split_conditions":[4.675E3,4.6289E3,3E1,9.955266E0,4.6425E3,4.70545E3,4.68645E3,-2.187402E-1,1.0709292E0,3.5401112E-1,-3.206577E-1,-9.128746E-1,1.8860993E-1],"split_indices":[5,4,1,0,4,4,4,0,0,0,0,0,0],"split_type":[0,0,0,0,0,0,0,0,0,0,0,0,0],"sum_hessian":[1.3069E4,2.196E3,1.0873E4,1.2E1,2.184E3,5.818E3,5.055E3,8.96E2,1.288E3,3.99E3,1.828E3,2.808E3,2.247E3],"tree_param":{"num_deleted":"0","num_feature":"7","num_nodes":"13","size_leaf_vector":"1"}},{"base_weights":[8.7808433E-4,8.377006E-2,-5.630848E-1,-1.2308372E-1,5.263457E-1,-2.8339798E-2,-2.2787657E0,-4.6917713E-1,5.6053436E-1,4.6152563E0,4.2227104E-1,1.8245069E0,-3.3768526E-1,-3.177588E0,8.775676E-1],"categories":[],"categories_nodes":[],"categories_segments":[],"categories_sizes":[],"default_left":[1,0,0,0,0,0,1,0,0,0,0,0,0,0,0],"id":20,"left_children":[1,3,5,7,9,11,13,-1,-1,-1,-1,-1,-1,-1,-1],"loss_changes":[6.1104346E2,1.0433507E3,1.536667E3,1.8379017E3,1.5428044E3,7.3312695E2,1.1319075E3,0E0,0E0,0E0,0E0,0E0,0E0,0E0,0E0],"parents":[2147483647,0,0,1,1,2,2,3,3,4,4,5,5,6,6],"right_children":[2,4,6,8,10,12,14,-1,-1,-1,-1,-1,-1,-1,-1],"split_conditions":[4.70845E3,4.1E1,3.9E1,1.3E1,4.644E3,8E0,4.7121E3,-4.6917713E-1,5.6053436E-1,4.6152563E0,4.2227104E-1,1.8245069E0,-3.3768526E-1,-3.177588E0,8.775676E-1],"split_indices":[6,1,1,2,6,1,4,0,0,0,0,0,0,0,0],"split_type":[0,0,0,0,0,0,0,0,0,0,0,0,0,0,0],"sum_hessian":[1.3069E4,1.1395E4,1.674E3,7.766E3,3.629E3,1.277E3,3.97E2,5.156E3,2.61E3,8.9E1,3.54E3,1.82E2,1.095E3,3.09E2,8.8E1],"tree_param":{"num_deleted":"0","num_feature":"7","num_nodes":"15","size_leaf_vector":"1"}},{"base_weights":[3.4571957E-4,3.4643798E0,-1.562864E-2,4.9679294E0,-1.8307059E0,-2.7705078E0,2.701488E-3,5.856239E0,3.6922941E0,-4.138536E0,5.456543E-1,3.6747244E-1,-1.3151135E-1],"categories":[],"categories_nodes":[],"categories_segments":[],"categories_sizes":[],"default_left":[0,0,0,0,0,1,0,0,0,0,0,0,0],"id":21,"left_children":[1,3,5,7,-1,9,11,-1,-1,-1,-1,-1,-1],"loss_changes":[7.2329205E2,4.867802E2,6.570278E2,3.1635498E1,0E0,3.9240607E2,6.328657E2,0E0,0E0,0E0,0E0,0E0,0E0],"parents":[2147483647,0,0,1,1,2,2,3,3,5,5,6,6],"right_children":[2,4,6,8,-1,10,12,-1,-1,-1,-1,-1,-1],"split_conditions":[4.5958E3,3.1E1,4.5945E3,4.5939E3,-1.8307059E0,4.65815E3,1.1E1,5.856239E0,3.6922941E0,-4.138536E0,5.456543E-1,3.6747244E-1,-1.3151135E-1],"split_indices":[4,1,5,4,0,4,2,0,0,0,0,0,0],"split_type":[0,0,0,0,0,0,0,0,0,0,0,0,0],"sum_hessian":[1.3069E4,5.9E1,1.301E4,4.6E1,1.3E1,8.5E1,1.2925E4,2.5E1,2.1E1,6E1,2.5E1,3.476E3,9.449E3],"tree_param":{"num_deleted":"0","num_feature":"7","num_nodes":"13","size_leaf_vector":"1"}},{"base_weights":[1.6116643E-4,-1.3483992E-1,2.5720608E-1,-1.5567008E-1,2.5110483E0,3.5123622E-1,-5.2938926E-1,-4.3795457E-1,-7.460935E-2,-5.2401876E-1,3.8137155E0,4.396703E-1,-5.6324E-1,-2.2999837E0,7.1752846E-1],"categories":[],"categories_nodes":[],"categories_segments":[],"categories_sizes":[],"default_left":[0,1,0,0,0,1,0,0,0,0,0,0,0,0,0],"id":22,"left_children":[1,3,5,7,9,11,13,-1,-1,-1,-1,-1,-1,-1,-1],"loss_changes":[4.5358124E2,4.727202E2,3.3309634E2,1.9455745E2,2.6689514E2,3.254294E2,1.0635953E3,0E0,0E0,0E0,0E0,0E0,0E0,0E0,0E0],"parents":[2147483647,0,0,1,1,2,2,3,3,4,4,5,5,6,6],"right_children":[2,4,6,8,10,12,14,-1,-1,-1,-1,-1,-1,-1,-1],"split_conditions":[4E1,4.73895E3,5.3E1,4.67865E3,2.8E1,4.7239E3,1.2E1,-4.3795457E-1,-7.460935E-2,-5.2401876E-1,3.8137155E0,4.396703E-1,-5.6324E-1,-2.2999837E0,7.1752846E-1],"split_indices":[0,6,1,4,1,4,2,0,0,0,0,0,0,0,0],"split_type":[0,0,0,0,0,0,0,0,0,0,0,0,0,0,0],"sum_hessian":[1.3069E4,8.569E3,4.5E3,8.503E3,6.6E1,4.02E3,4.8E2,1.896E3,6.607E3,2E1,4.6E1,3.666E3,3.54E2,1.98E2,2.82E2],"tree_param":{"num_deleted":"0","num_feature":"7","num_nodes":"15","size_leaf_vector":"1"}},{"base_weights":[2.067817E-4,1.9763404E-1,-7.475058E-2,2.7118142E0,1.3454416E-1,-1.4400237E0,-3.1483028E-2,4.2048225E0,1.3199385E0,-1.154204E-1,8.8059664E-1,1.7351209E0,-3.8751953E0,1.2548627E0,-8.092634E-2],"categories":[],"categories_nodes":[],"categories_segments":[],"categories_sizes":[],"default_left":[0,0,0,0,1,0,0,0,0,0,0,0,0,0,0],"id":23,"left_children":[1,3,5,7,9,11,13,-1,-1,-1,-1,-1,-1,-1,-1],"loss_changes":[1.9343283E2,5.7018884E2,5.59603E2,1.773211E2,6.546699E2,2.2567422E3,5.8421484E2,0E0,0E0,0E0,0E0,0E0,0E0,0E0,0E0],"parents":[2147483647,0,0,1,1,2,2,3,3,4,4,5,5,6,6],"right_children":[2,4,6,8,10,12,14,-1,-1,-1,-1,-1,-1,-1,-1],"split_conditions":[4.68995E3,1E0,2E0,1.1E1,4.67865E3,1.4E1,4E0,4.2048225E0,1.3199385E0,-1.154204E-1,8.8059664E-1,1.7351209E0,-3.8751953E0,1.2548627E0,-8.092634E-2],"split_indices":[5,1,1,2,4,2,1,0,0,0,0,0,0,0,0],"split_type":[0,0,0,0,0,0,0,0,0,0,0,0,0,0,0],"sum_hessian":[1.3069E4,3.596E3,9.473E3,8.7E1,3.509E3,2.9E2,9.183E3,4.1E1,4.6E1,2.629E3,8.8E2,1.26E2,1.64E2,3.39E2,8.844E3],"tree_param":{"num_deleted":"0","num_feature":"7","num_nodes":"15","size_leaf_vector":"1"}},{"base_weights":[4.6788328E-4,-4.799485E-2,6.050525E-1,-5.1418835E-1,3.0869565E-3,1.270289E0,-1.08281836E-1,-6.621891E-1,4.7173E0,3.4864622E-1,-5.6356847E-2,2.0681849E0,2.8671616E-1,4.1421294E-1,-2.4072154E0],"categories":[],"categories_nodes":[],"categories_segments":[],"categories_sizes":[],"default_left":[1,0,1,0,0,0,1,0,0,0,0,0,0,0,0],"id":24,"left_children":[1,3,5,7,9,11,13,-1,-1,-1,-1,-1,-1,-1,-1],"loss_changes":[3.829777E2,2.8817484E2,4.6043744E2,9.283698E2,2.2406424E2,3.9337103E2,5.643508E2,0E0,0E0,0E0,0E0,0E0,0E0,0E0,0E0],"parents":[2147483647,0,0,1,1,2,2,3,3,4,4,5,5,6,6],"right_children":[2,4,6,8,10,12,14,-1,-1,-1,-1,-1,-1,-1,-1],"split_conditions":[4.731E3,6E0,4.7101E3,1.5E1,4.669E3,2.2E1,4.731E3,-6.621891E-1,4.7173E0,3.4864622E-1,-5.6356847E-2,2.0681849E0,2.8671616E-1,4.1421294E-1,-2.4072154E0],"split_indices":[5,1,4,2,6,1,6,0,0,0,0,0,0,0,0],"split_type":[0,0,0,0,0,0,0,0,0,0,0,0,0,0,0],"sum_hessian":[1.3069E4,1.21E4,9.69E2,1.194E3,1.0906E4,5.01E2,4.68E2,1.162E3,3.2E1,1.6E3,9.306E3,2.76E2,2.25E2,3.82E2,8.6E1],"tree_param":{"num_deleted":"0","num_feature":"7","num_nodes":"15","size_leaf_vector":"1"}},{"base_weights":[2.1171306E-4,-2.9349887E-1,6.442495E-2,-2.5445359E0,-1.8789764E-1,1.8157526E0,3.300861E-2,-3.0338821E0,-1.6992188E-1,1.1900021E-1,-1.1271539E0,2.2326732E0,-2.032098E0,-1.1272034E-2,8.4968865E-1],"categories":[],"categories_nodes":[],"categories_segments":[],"categories_sizes":[],"default_left":[0,0,0,0,0,0,0,0,0,0,0,0,0,0,0],"id":25,"left_children":[1,3,5,7,9,11,13,-1,-1,-1,-1,-1,-1,-1,-1],"loss_changes":[2.4652052E2,5.569573E2,5.900878E2,1.2149536E2,6.4611523E2,3.0773987E2,3.810965E2,0E0,0E0,0E0,0E0,0E0,0E0,0E0,0E0],"parents":[2147483647,0,0,1,1,2,2,3,3,4,4,5,5,6,6],"right_children":[2,4,6,8,10,12,14,-1,-1,-1,-1,-1,-1,-1,-1],"split_conditions":[4.679E3,4.6441E3,4.683E3,4.649E3,4.669E3,5.6E1,5.6E1,-3.0338821E0,-1.6992188E-1,1.1900021E-1,-1.1271539E0,2.2326732E0,-2.032098E0,-1.1272034E-2,8.4968865E-1],"split_indices":[6,5,6,6,6,1,1,0,0,0,0,0,0,0,0],"split_type":[0,0,0,0,0,0,0,0,0,0,0,0,0,0,0],"sum_hessian":[1.3069E4,2.344E3,1.0725E4,1.04E2,2.24E3,1.88E2,1.0537E4,8.6E1,1.8E1,1.689E3,5.51E2,1.7E2,1.8E1,9.996E3,5.41E2],"tree_param":{"num_deleted":"0","num_feature":"7","num_nodes":"15","size_leaf_vector":"1"}},{"base_weights":[-3.0204697E-4,1.7679204E0,-1.3522124E-2,3.0785435E-1,5.3549457E0,-1.9292048E0,-5.8932457E-4,-6.8236065E-1,5.150757E0,5.5003905E0,-2.3535273E0,4.877238E-2,-4.152848E-1],"categories":[],"categories_nodes":[],"categories_segments":[],"categories_sizes":[],"default_left":[0,1,0,0,0,0,0,0,0,0,0,0,0],"id":26,"left_children":[1,3,5,7,-1,9,11,-1,-1,-1,-1,-1,-1],"loss_changes":[3.055487E2,5.06369E2,3.2143155E2,3.3920068E2,0E0,2.872168E2,2.638386E2,0E0,0E0,0E0,0E0,0E0,0E0],"parents":[2147483647,0,0,1,1,2,2,3,3,5,5,6,6],"right_children":[2,4,6,8,-1,10,12,-1,-1,-1,-1,-1,-1],"split_conditions":[4.5941E3,4.6441E3,4.599E3,4.593E3,5.3549457E0,8E0,5.3E1,-6.8236065E-1,5.150757E0,5.5003905E0,-2.3535273E0,4.877238E-2,-4.152848E-1],"split_indices":[6,5,6,6,0,0,1,0,0,0,0,0,0],"split_type":[0,0,0,0,0,0,0,0,0,0,0,0,0],"sum_hessian":[1.3069E4,9.6E1,1.2973E4,6.9E1,2.7E1,8.6E1,1.2887E4,5.8E1,1.1E1,4E0,8.2E1,1.1517E4,1.37E3],"tree_param":{"num_deleted":"0","num_feature":"7","num_nodes":"13","size_leaf_vector":"1"}},{"base_weights":[9.3931565E-4,-7.8495264E-2,2.7635384E-1,7.264571E-2,-3.6285496E-1,-1.6820381E0,3.355391E-1,9.7693086E-1,-3.0105453E-2,-9.2208135E-1,2.4013585E-1,-6.048203E0,1.0564201E-1,1.8012675E0,1.9589731E-1],"categories":[],"categories_nodes":[],"categories_segments":[],"categories_sizes":[],"default_left":[0,0,0,0,0,0,0,0,0,0,0,0,0,0,0],"id":27,"left_children":[1,3,5,7,9,11,13,-1,-1,-1,-1,-1,-1,-1,-1],"loss_changes":[2.8595978E2,4.3604227E2,3.3971106E2,6.156002E2,1.187532E3,6.718953E2,5.811344E2,0E0,0E0,0E0,0E0,0E0,0E0,0E0,0E0],"parents":[2147483647,0,0,1,1,2,2,3,3,4,4,5,5,6,6],"right_children":[2,4,6,8,10,12,14,-1,-1,-1,-1,-1,-1,-1,-1],"split_conditions":[4.6E1,2.9E1,4.6523E3,4.6498E3,1.2E1,1.3E1,4.669E3,9.7693086E-1,-3.0105453E-2,-9.2208135E-1,2.4013585E-1,-6.048203E0,1.0564201E-1,1.8012675E0,1.9589731E-1],"split_indices":[1,1,6,5,2,0,6,0,0,0,0,0,0,0,0],"split_type":[0,0,0,0,0,0,0,0,0,0,0,0,0,0,0],"sum_hessian":[1.3069E4,1.0144E4,2.925E3,6.624E3,3.52E3,8.5E1,2.84E3,6.75E2,5.949E3,1.826E3,1.694E3,2.4E1,6.1E1,2.46E2,2.594E3],"tree_param":{"num_deleted":"0","num_feature":"7","num_nodes":"15","size_leaf_vector":"1"}},{"base_weights":[-2.3274616E-4,5.0621367E-1,-7.0671804E-2,-2.695473E-1,8.771046E-1,-9.032346E-2,6.49326E-1,8.193744E-1,-1.67528E0,1.2827655E0,-5.329227E-1,-4.0005665E-2,-7.4967754E-1,1.4927971E0,-3.423198E-1],"categories":[],"categories_nodes":[],"categories_segments":[],"categories_sizes":[],"default_left":[0,0,1,0,1,1,0,0,0,0,0,0,0,0,0],"id":28,"left_children":[1,3,5,7,9,11,13,-1,-1,-1,-1,-1,-1,-1,-1],"loss_changes":[4.6628986E2,4.5944193E2,1.6242015E2,7.9276154E2,6.1843585E2,3.7059305E2,2.5562051E2,0E0,0E0,0E0,0E0,0E0,0E0,0E0,0E0],"parents":[2147483647,0,0,1,1,2,2,3,3,4,4,5,5,6,6],"right_children":[2,4,6,8,10,12,14,-1,-1,-1,-1,-1,-1,-1,-1],"split_conditions":[1E1,2.9E1,4.73175E3,2.3E1,4.5935E3,4.71225E3,4.7187E3,8.193744E-1,-1.67528E0,1.2827655E0,-5.329227E-1,-4.0005665E-2,-7.4967754E-1,1.4927971E0,-3.423198E-1],"split_indices":[2,1,6,1,5,6,4,0,0,0,0,0,0,0,0],"split_type":[0,0,0,0,0,0,0,0,0,0,0,0,0,0,0],"sum_hessian":[1.3069E4,1.595E3,1.1474E4,5.16E2,1.079E3,1.117E4,3.04E2,2.91E2,2.25E2,8.38E2,2.41E2,1.0379E4,7.91E2,1.64E2,1.4E2],"tree_param":{"num_deleted":"0","num_feature":"7","num_nodes":"15","size_leaf_vector":"1"}},{"base_weights":[3.7620444E-5,1.037265E0,-2.0022616E-2,2.434481E0,-5.22672E-1,-2.810223E0,8.0298464E-4,3.190098E0,1.1866479E0,-2.3755543E-1,-4.41333E0,-1.5217896E0,-3.41053E0,1.5983808E0,-1.0954199E-2],"categories":[],"categories_nodes":[],"categories_segments":[],"categories_sizes":[],"default_left":[0,0,0,0,0,0,0,0,0,0,0,0,0,0,0],"id":29,"left_children":[1,3,5,7,9,11,13,-1,-1,-1,-1,-1,-1,-1,-1],"loss_changes":[2.7196857E2,5.418054E2,7.4511597E2,1.1973236E2,1.2984793E2,6.828821E1,2.3910654E2,0E0,0E0,0E0,0E0,0E0,0E0,0E0,0E0],"parents":[2147483647,0,0,1,1,2,2,3,3,4,4,5,5,6,6],"right_children":[2,4,6,8,10,12,14,-1,-1,-1,-1,-1,-1,-1,-1],"split_conditions":[4.6041E3,2.9E1,4.62115E3,3.1E1,3.4E1,4.605E3,4.6289E3,3.190098E0,1.1866479E0,-2.3755543E-1,-4.41333E0,-1.5217896E0,-3.41053E0,1.5983808E0,-1.0954199E-2],"split_indices":[4,1,4,0,1,4,4,0,0,0,0,0,0,0,0],"split_type":[0,0,0,0,0,0,0,0,0,0,0,0,0,0,0],"sum_hessian":[1.3069E4,2.47E2,1.2822E4,1.3E2,1.17E2,9.4E1,1.2728E4,8E1,5E1,1.1E2,7E0,3.1E1,6.3E1,9.2E1,1.2636E4],"tree_param":{"num_deleted":"0","num_feature":"7","num_nodes":"15","size_leaf_vector":"1"}},{"base_weights":[-4.7591544E-4,-8.340157E-2,1.2698697E-1,7.081237E-3,-7.323826E-1,3.0273682E-1,-3.5600212E-1,-7.0324585E-2,2.580504E0,-1.5175164E1,-4.4306055E-1,1.0079877E0,1.6009338E-2,-1.1807309E0,2.2593929E-1],"categories":[],"categories_nodes":[],"categories_segments":[],"categories_sizes":[],"default_left":[0,1,0,1,0,0,1,0,0,0,0,0,0,0,0],"id":30,"left_children":[1,3,5,7,9,11,13,-1,-1,-1,-1,-1,-1,-1,-1],"loss_changes":[1.3815973E2,4.6502176E2,4.374367E2,1.384806E3,4.042354E3,7.639516E2,6.601896E2,0E0,0E0,0E0,0E0,0E0,0E0,0E0,0E0],"parents":[2147483647,0,0,1,1,2,2,3,3,4,4,5,5,6,6],"right_children":[2,4,6,8,10,12,14,-1,-1,-1,-1,-1,-1,-1,-1],"split_conditions":[1.3E1,4.693E3,3.9E1,4.6894E3,1.2E1,1.4E1,4.708E3,-7.0324585E-2,2.580504E0,-1.5175164E1,-4.4306055E-1,1.0079877E0,1.6009338E-2,-1.1807309E0,2.2593929E-1],"split_indices":[2,4,1,4,2,2,5,0,0,0,0,0,0,0,0],"split_type":[0,0,0,0,0,0,0,0,0,0,0,0,0,0,0],"sum_hessian":[1.3069E4,7.918E3,5.151E3,6.95E3,9.68E2,3.777E3,1.374E3,6.748E3,2.02E2,1.8E1,9.5E2,1.091E3,2.686E3,5.68E2,8.06E2],"tree_param":{"num_deleted":"0","num_feature":"7","num_nodes":"15","size_leaf_vector":"1"}},{"base_weights":[-1.0363741E-3,8.612109E-2,-2.9578778E-1,6.155851E-2,1.4611388E0,-8.990697E-1,-1.25659695E-2,6.2352563E-3,5.216092E-1,4.707175E-1,2.0601163E0,-1.2467517E0,3.0739588E-1,8.575737E-1,-1.980151E-1],"categories":[],"categories_nodes":[],"categories_segments":[],"categories_sizes":[],"default_left":[1,1,0,1,0,1,0,0,0,0,0,0,0,0,0],"id":31,"left_children":[1,3,5,7,9,11,13,-1,-1,-1,-1,-1,-1,-1,-1],"loss_changes":[3.35791E2,3.4062198E2,5.0967184E2,2.5227203E2,1.0403378E2,4.0013452E2,3.279055E2,0E0,0E0,0E0,0E0,0E0,0E0,0E0,0E0],"parents":[2147483647,0,0,1,1,2,2,3,3,4,4,5,5,6,6],"right_children":[2,4,6,8,10,12,14,-1,-1,-1,-1,-1,-1,-1,-1],"split_conditions":[4.7039E3,4.7381E3,4.711E3,4.685E3,3.7E1,4.7121E3,4.70695E3,6.2352563E-3,5.216092E-1,4.707175E-1,2.0601163E0,-1.2467517E0,3.0739588E-1,8.575737E-1,-1.980151E-1],"split_indices":[5,4,5,5,1,4,4,0,0,0,0,0,0,0,0],"split_type":[0,0,0,0,0,0,0,0,0,0,0,0,0,0,0],"sum_hessian":[1.3069E4,1.0087E4,2.982E3,9.911E3,1.76E2,9.52E2,2.03E3,8.848E3,1.063E3,6.7E1,1.09E2,7.39E2,2.13E2,3.56E2,1.674E3],"tree_param":{"num_deleted":"0","num_feature":"7","num_nodes":"15","size_leaf_vector":"1"}},{"base_weights":[1.6725594E-4,-2.5471237E-2,5.454326E-1,-1.4214684E-2,-3.003844E0,7.061035E0,1.6945292E-1,-1.5051937E-1,6.599298E-2,-1.1384056E0,-4.466759E0,3.6982775E-1,-3.4845939E0],"categories":[],"categories_nodes":[],"categories_segments":[],"categories_sizes":[],"default_left":[1,1,0,0,0,0,1,0,0,0,0,0,0],"id":32,"left_children":[1,3,5,7,9,-1,11,-1,-1,-1,-1,-1,-1],"loss_changes":[1.8272963E2,4.1849844E2,1.4367975E3,1.3599062E2,1.2317703E2,0E0,4.0838022E2,0E0,0E0,0E0,0E0,0E0,0E0],"parents":[2147483647,0,0,1,1,2,2,3,3,4,4,6,6],"right_children":[2,4,6,8,10,-1,12,-1,-1,-1,-1,-1,-1],"split_conditions":[4.72515E3,4.7246E3,9E0,2.2E1,2.2E1,7.061035E0,4.7319E3,-1.5051937E-1,6.599298E-2,-1.1384056E0,-4.466759E0,3.6982775E-1,-3.4845939E0],"split_indices":[6,6,1,1,0,0,4,0,0,0,0,0,0],"split_type":[0,0,0,0,0,0,0,0,0,0,0,0,0],"sum_hessian":[1.3069E4,1.2483E4,5.86E2,1.2437E4,4.6E1,3.1E1,5.55E2,4.607E3,7.83E3,2.1E1,2.5E1,5.27E2,2.8E1],"tree_param":{"num_deleted":"0","num_feature":"7","num_nodes":"13","size_leaf_vector":"1"}},{"base_weights":[-1.2657206E-4,1.6716808E-1,-6.2046625E-2,9.329934E-1,-2.6872236E-1,-3.2211378E-1,1.6567132E-1,2.6946042E0,2.8080294E-1,-1.017565E0,2.980843E-1,3.2491463E-1,-4.9087635E-1,4.3385908E-1,-1.8114993E-1],"categories":[],"categories_nodes":[],"categories_segments":[],"categories_sizes":[],"default_left":[0,0,0,1,0,0,1,0,0,0,0,0,0,0,0],"id":33,"left_children":[1,3,5,7,9,11,13,-1,-1,-1,-1,-1,-1,-1,-1],"loss_changes":[1.3540112E2,1.1789547E3,5.650309E2,1.4709917E3,9.557379E2,4.8651035E2,4.7323682E2,0E0,0E0,0E0,0E0,0E0,0E0,0E0,0E0],"parents":[2147483647,0,0,1,1,2,2,3,3,4,4,5,5,6,6],"right_children":[2,4,6,8,10,12,14,-1,-1,-1,-1,-1,-1,-1,-1],"split_conditions":[1.6E1,1.2E1,1.2E1,4.6441E3,1.4E1,4.65005E3,4.709E3,2.6946042E0,2.8080294E-1,-1.017565E0,2.980843E-1,3.2491463E-1,-4.9087635E-1,4.3385908E-1,-1.8114993E-1],"split_indices":[1,2,2,4,2,6,4,0,0,0,0,0,0,0,0],"split_type":[0,0,0,0,0,0,0,0,0,0,0,0,0,0,0],"sum_hessian":[1.3069E4,3.53E3,9.539E3,1.28E3,2.25E3,4.453E3,5.086E3,3.45E2,9.35E2,9.69E2,1.281E3,9.21E2,3.532E3,2.868E3,2.218E3],"tree_param":{"num_deleted":"0","num_feature":"7","num_nodes":"15","size_leaf_vector":"1"}},{"base_weights":[1.2474148E-4,3.858508E-1,-5.3523965E-2,-2.1678436E0,5.9493697E-1,-8.880446E-1,-2.252157E-2,7.017547E-1,-3.1215765E0,4.369549E0,4.3190995E-1,-6.516565E-1,-2.113836E0,-4.4570574E-1,2.1517502E-2],"categories":[],"categories_nodes":[],"categories_segments":[],"categories_sizes":[],"default_left":[0,0,0,0,0,0,0,0,0,0,0,0,0,0,0],"id":34,"left_children":[1,3,5,7,9,11,13,-1,-1,-1,-1,-1,-1,-1,-1],"loss_changes":[2.7048734E2,8.5346136E2,2.9686276E2,3.333471E2,9.063895E2,1.17714935E2,2.06224E2,0E0,0E0,0E0,0E0,0E0,0E0,0E0,0E0],"parents":[2147483647,0,0,1,1,2,2,3,3,4,4,5,5,6,6],"right_children":[2,4,6,8,10,12,14,-1,-1,-1,-1,-1,-1,-1,-1],"split_conditions":[1E1,1.8E1,4.63855E3,1.6E1,1.9E1,1E1,4.6482E3,7.017547E-1,-3.1215765E0,4.369549E0,4.3190995E-1,-6.516565E-1,-2.113836E0,-4.4570574E-1,2.1517502E-2],"split_indices":[2,1,5,1,1,1,6,0,0,0,0,0,0,0,0],"split_type":[0,0,0,0,0,0,0,0,0,0,0,0,0,0,0],"sum_hessian":[1.3069E4,1.595E3,1.1474E4,1.2E2,1.475E3,4.1E2,1.1064E4,3E1,9E1,6E1,1.415E3,3.45E2,6.5E1,1.042E3,1.0022E4],"tree_param":{"num_deleted":"0","num_feature":"7","num_nodes":"15","size_leaf_vector":"1"}},{"base_weights":[-4.7744717E-5,8.4082134E-2,-2.1628979E-1,3.824067E-2,1.1556756E0,-1.962838E0,-1.3277338E-1,-3.9769635E-3,6.4401305E-1,2.1371546E0,-1.8594286E-1,1.2937376E-1,-2.7592936E0,8.764281E-1,-1.8527386E-1],"categories":[],"categories_nodes":[],"categories_segments":[],"categories_sizes":[],"default_left":[1,1,0,1,0,0,0,0,0,0,0,0,0,0,0],"id":35,"left_children":[1,3,5,7,9,11,13,-1,-1,-1,-1,-1,-1,-1,-1],"loss_changes":[2.3779306E2,4.6220715E2,5.337527E2,2.3081044E2,5.0867072E2,2.7863806E2,1.8533994E2,0E0,0E0,0E0,0E0,0E0,0E0,0E0,0E0],"parents":[2147483647,0,0,1,1,2,2,3,3,4,4,5,5,6,6],"right_children":[2,4,6,8,10,12,14,-1,-1,-1,-1,-1,-1,-1,-1],"split_conditions":[4.68995E3,4.685E3,4.69245E3,4.72E3,4.6836E3,4.6828E3,4.699E3,-3.9769635E-3,6.4401305E-1,2.1371546E0,-1.8594286E-1,1.2937376E-1,-2.7592936E0,8.764281E-1,-1.8527386E-1],"split_indices":[5,5,5,4,4,6,5,0,0,0,0,0,0,0,0],"split_type":[0,0,0,0,0,0,0,0,0,0,0,0,0,0,0],"sum_hessian":[1.3069E4,9.409E3,3.66E3,9.024E3,3.85E2,1.66E2,3.494E3,8.437E3,5.87E2,2.22E2,1.63E2,4.6E1,1.2E2,1.72E2,3.322E3],"tree_param":{"num_deleted":"0","num_feature":"7","num_nodes":"15","size_leaf_vector":"1"}},{"base_weights":[-5.2227788E-5,3.747347E-1,-4.155013E-2,4.627234E-1,-3.250567E0,-3.816074E-1,1.3630164E-2,1.7045459E-1,1.7135572E0,-3.67889E0,4.7995605E0,-7.297275E-1,2.8748578E-1,7.716344E-1,-3.3180293E-2],"categories":[],"categories_nodes":[],"categories_segments":[],"categories_sizes":[],"default_left":[0,1,0,1,0,0,0,0,0,0,0,0,0,0,0],"id":36,"left_children":[1,3,5,7,9,11,13,-1,-1,-1,-1,-1,-1,-1,-1],"loss_changes":[2.032916E2,4.1714236E2,2.2082536E2,4.6509085E2,1.2454675E2,3.8290527E2,3.593217E2,0E0,0E0,0E0,0E0,0E0,0E0,0E0,0E0],"parents":[2147483647,0,0,1,1,2,2,3,3,4,4,5,5,6,6],"right_children":[2,4,6,8,10,12,14,-1,-1,-1,-1,-1,-1,-1,-1],"split_conditions":[4.64995E3,4.6498E3,4.6836E3,4.63855E3,3.9E1,2.3E1,4.6894E3,1.7045459E-1,1.7135572E0,-3.67889E0,4.7995605E0,-7.297275E-1,2.8748578E-1,7.716344E-1,-3.3180293E-2],"split_indices":[4,5,4,5,1,1,4,0,0,0,0,0,0,0,0],"split_type":[0,0,0,0,0,0,0,0,0,0,0,0,0,0,0],"sum_hessian":[1.3069E4,1.302E3,1.1767E4,1.272E3,3E1,1.642E3,1.0125E4,1.032E3,2.4E2,2.9E1,1E0,1.08E3,5.62E2,5.88E2,9.537E3],"tree_param":{"num_deleted":"0","num_feature":"7","num_nodes":"15","size_leaf_vector":"1"}},{"base_weights":[2.5811288E-4,2.145458E-1,-8.78025E-2,3.9649263E-1,-3.172747E-1,-3.817285E-1,-1.6035978E-2,-6.67505E-1,5.2116776E-1,-2.6962774E0,3.419237E-2,-8.425304E-2,-1.0764111E0,-9.7716045E-1,1.5417351E-2],"categories":[],"categories_nodes":[],"categories_segments":[],"categories_sizes":[],"default_left":[0,1,0,0,0,0,0,0,0,0,0,0,0,0,0],"id":37,"left_children":[1,3,5,7,9,11,13,-1,-1,-1,-1,-1,-1,-1,-1],"loss_changes":[2.466537E2,3.6850275E2,1.9540912E2,3.7668744E2,8.1198517E2,3.7560086E2,2.2514207E2,0E0,0E0,0E0,0E0,0E0,0E0,0E0,0E0],"parents":[2147483647,0,0,1,1,2,2,3,3,4,4,5,5,6,6],"right_children":[2,4,6,8,10,12,14,-1,-1,-1,-1,-1,-1,-1,-1],"split_conditions":[1.7E1,4.7058E3,4.68495E3,4.64875E3,1.4E1,4.6743E3,4.648E3,-6.67505E-1,5.2116776E-1,-2.6962774E0,3.419237E-2,-8.425304E-2,-1.0764111E0,-9.7716045E-1,1.5417351E-2],"split_indices":[1,4,4,6,2,4,5,0,0,0,0,0,0,0,0],"split_type":[0,0,0,0,0,0,0,0,0,0,0,0,0,0,0],"sum_hessian":[1.3069E4,3.806E3,9.263E3,2.836E3,9.7E2,1.817E3,7.446E3,2.97E2,2.539E3,1.24E2,8.46E2,1.273E3,5.44E2,2.35E2,7.211E3],"tree_param":{"num_deleted":"0","num_feature":"7","num_nodes":"15","size_leaf_vector":"1"}},{"base_weights":[-4.4864343E-4,3.062601E-1,-6.336829E-2,8.5881776E-1,-1.918224E-1,-2.072869E-1,1.3018574E-1,5.2533764E-1,2.144214E0,4.6856445E-1,-4.1879973E-1,-4.3301454E-1,1.3361908E-1,1.0645095E-1,3.1534152E0],"categories":[],"categories_nodes":[],"categories_segments":[],"categories_sizes":[],"default_left":[0,0,0,1,0,1,0,0,0,0,0,0,0,0,0],"id":38,"left_children":[1,3,5,7,9,11,13,-1,-1,-1,-1,-1,-1,-1,-1],"loss_changes":[2.5224435E2,6.125276E2,3.0215344E2,4.5110364E2,1.7572073E2,4.7877563E2,3.3160632E2,0E0,0E0,0E0,0E0,0E0,0E0,0E0,0E0],"parents":[2147483647,0,0,1,1,2,2,3,3,4,4,5,5,6,6],"right_children":[2,4,6,8,10,12,14,-1,-1,-1,-1,-1,-1,-1,-1],"split_conditions":[4.676E3,2.8E1,3.3E1,4.6822E3,4.6556E3,4.67865E3,1.5E1,5.2533764E-1,2.144214E0,4.6856445E-1,-4.1879973E-1,-4.3301454E-1,1.3361908E-1,1.0645095E-1,3.1534152E0],"split_indices":[6,1,1,4,5,4,2,0,0,0,0,0,0,0,0],"split_type":[0,0,0,0,0,0,0,0,0,0,0,0,0,0,0],"sum_hessian":[1.3069E4,2.224E3,1.0845E4,1.054E3,1.17E3,6.22E3,4.625E3,8.38E2,2.16E2,2.99E2,8.71E2,3.742E3,2.478E3,4.59E3,3.5E1],"tree_param":{"num_deleted":"0","num_feature":"7","num_nodes":"15","size_leaf_vector":"1"}},{"base_weights":[4.3549307E-4,8.4130384E-2,-2.364018E-1,1.187633E-1,-1.0719963E0,1.8308228E-2,-5.969385E-1,7.521332E-1,9.02396E-2,-1.4633249E0,-1.208349E-1,-8.26961E-2,3.4033792E0,-4.3951306E0,-4.7451708E-1],"categories":[],"categories_nodes":[],"categories_segments":[],"categories_sizes":[],"default_left":[0,1,0,0,1,0,0,0,0,0,0,0,0,0,0],"id":39,"left_children":[1,3,5,7,9,11,13,-1,-1,-1,-1,-1,-1,-1,-1],"loss_changes":[2.590944E2,3.8683398E2,3.134346E2,1.6935556E2,1.0441608E2,6.84437E2,6.549314E2,0E0,0E0,0E0,0E0,0E0,0E0,0E0,0E0],"parents":[2147483647,0,0,1,1,2,2,3,3,4,4,5,5,6,6],"right_children":[2,4,6,8,10,12,14,-1,-1,-1,-1,-1,-1,-1,-1],"split_conditions":[1.4E1,4.71185E3,2.5E1,3E0,4.704E3,2.4E1,4.70575E3,7.521332E-1,9.02396E-2,-1.4633249E0,-1.208349E-1,-8.26961E-2,3.4033792E0,-4.3951306E0,-4.7451708E-1],"split_indices":[2,5,1,1,4,1,5,0,0,0,0,0,0,0,0],"split_type":[0,0,0,0,0,0,0,0,0,0,0,0,0,0,0],"sum_hessian":[1.3069E4,9.657E3,3.412E3,9.377E3,2.8E2,2E3,1.412E3,4.03E2,8.974E3,1.98E2,8.2E1,1.943E3,5.7E1,4.3E1,1.369E3],"tree_param":{"num_deleted":"0","num_feature":"7","num_nodes":"15","size_leaf_vector":"1"}},{"base_weights":[-2.5049163E-4,-3.3116543E-1,3.811566E-2,-1.0733556E0,-1.3826053E-1,1.0213841E0,1.5968194E-2,-1.3385507E0,1.361206E0,2.2252874E-1,-6.392282E-1,1.4063596E0,-8.320855E-1,-4.213263E-2,1.9441506E-1],"categories":[],"categories_nodes":[],"categories_segments":[],"categories_sizes":[],"default_left":[0,0,0,1,0,1,1,0,0,0,0,0,0,0,0],"id":40,"left_children":[1,3,5,7,9,11,13,-1,-1,-1,-1,-1,-1,-1,-1],"loss_changes":[1.6594847E2,1.9427931E2,2.5505655E2,1.8259955E2,1.9516478E2,1.8526361E2,1.18782974E2,0E0,0E0,0E0,0E0,0E0,0E0,0E0,0E0],"parents":[2147483647,0,0,1,1,2,2,3,3,4,4,5,5,6,6],"right_children":[2,4,6,8,10,12,14,-1,-1,-1,-1,-1,-1,-1,-1],"split_conditions":[4.6536E3,9E0,4.6564E3,4.646E3,3.4E1,4.68E3,4.70505E3,-1.3385507E0,1.361206E0,2.2252874E-1,-6.392282E-1,1.4063596E0,-8.320855E-1,-4.213263E-2,1.9441506E-1],"split_indices":[6,1,6,5,1,4,5,0,0,0,0,0,0,0,0],"split_type":[0,0,0,0,0,0,0,0,0,0,0,0,0,0,0],"sum_hessian":[1.3069E4,1.357E3,1.1712E4,2.79E2,1.078E3,2.57E2,1.1455E4,2.52E2,2.7E1,6.27E2,4.51E2,2.13E2,4.4E1,8.642E3,2.813E3],"tree_param":{"num_deleted":"0","num_feature":"7","num_nodes":"15","size_leaf_vector":"1"}},{"base_weights":[-6.082034E-5,1.5908036E-2,-6.185262E-1,-1.1504202E-1,6.1575323E-2,-3.8815328E-1,-3.530009E0,2.751019E-1,-3.3660093E-1,8.6810637E-1,4.0818766E-2,-1.1743633E0,1.5395883E-1,-4.691732E0,-3.843471E-2],"categories":[],"categories_nodes":[],"categories_segments":[],"categories_sizes":[],"default_left":[1,0,1,0,0,0,0,0,0,0,0,0,0,0,0],"id":41,"left_children":[1,3,5,7,9,11,13,-1,-1,-1,-1,-1,-1,-1,-1],"loss_changes":[1.2909157E2,7.6205956E1,2.1929892E2,2.8491193E2,1.5813174E2,1.306023E2,9.7169495E1,0E0,0E0,0E0,0E0,0E0,0E0,0E0,0E0],"parents":[2147483647,0,0,1,1,2,2,3,3,4,4,5,5,6,6],"right_children":[2,4,6,8,10,12,14,-1,-1,-1,-1,-1,-1,-1,-1],"split_conditions":[4.731E3,1.5E1,4.7187E3,1.2E1,1.6E1,2.4E1,4.7371E3,2.751019E-1,-3.3660093E-1,8.6810637E-1,4.0818766E-2,-1.1743633E0,1.5395883E-1,-4.691732E0,-3.843471E-2],"split_indices":[6,1,4,2,1,1,6,0,0,0,0,0,0,0,0],"split_type":[0,0,0,0,0,0,0,0,0,0,0,0,0,0,0],"sum_hessian":[1.3069E4,1.2741E4,3.28E2,3.294E3,9.447E3,3.05E2,2.3E1,1.193E3,2.101E3,2.36E2,9.211E3,1.24E2,1.81E2,1.7E1,6E0],"tree_param":{"num_deleted":"0","num_feature":"7","num_nodes":"15","size_leaf_vector":"1"}},{"base_weights":[-5.229503E-4,-1.0078707E-1,7.783537E-2,-5.6218702E-2,-1.4225225E0,-2.899786E0,8.6370595E-2,3.4356732E-3,-4.7277427E-1,-6.970021E-1,-1.7768047E0,-3.9032452E0,-1.1281466E0,1.1180221E0,6.1527263E-2],"categories":[],"categories_nodes":[],"categories_segments":[],"categories_sizes":[],"default_left":[0,1,0,0,0,0,0,0,0,0,0,0,0,0,0],"id":42,"left_children":[1,3,5,7,9,11,13,-1,-1,-1,-1,-1,-1,-1,-1],"loss_changes":[1.0269267E2,3.3769623E2,1.8671782E2,1.378659E2,4.682782E1,3.2929672E1,1.8746342E2,0E0,0E0,0E0,0E0,0E0,0E0,0E0,0E0],"parents":[2147483647,0,0,1,1,2,2,3,3,4,4,5,5,6,6],"right_children":[2,4,6,8,10,12,14,-1,-1,-1,-1,-1,-1,-1,-1],"split_conditions":[1.2E1,4.6894E3,4.67175E3,5.3E1,1.8E1,4.7098E3,4.67495E3,3.4356732E-3,-4.7277427E-1,-6.970021E-1,-1.7768047E0,-3.9032452E0,-1.1281466E0,1.1180221E0,6.1527263E-2],"split_indices":[2,4,6,1,0,5,6,0,0,0,0,0,0,0,0],"split_type":[0,0,0,0,0,0,0,0,0,0,0,0,0,0,0],"sum_hessian":[1.3069E4,5.733E3,7.336E3,5.547E3,1.86E2,2E1,7.316E3,4.853E3,6.94E2,6.2E1,1.24E2,1.2E1,8E0,1.71E2,7.145E3],"tree_param":{"num_deleted":"0","num_feature":"7","num_nodes":"15","size_leaf_vector":"1"}},{"base_weights":[-5.19999E-4,6.096268E-1,-1.41201345E-2,-1.0610039E0,1.9029139E0,-1.0864439E0,-2.6770565E-3,1.5288807E-3,-2.041827E0,3.4313443E0,1.5693396E0,-2.9866364E0,-7.685797E-1,1.8443684E-3,-1.2417841E0],"categories":[],"categories_nodes":[],"categories_segments":[],"categories_sizes":[],"default_left":[0,0,0,0,0,0,1,0,0,0,0,0,0,0,0],"id":43,"left_children":[1,3,5,7,9,11,13,-1,-1,-1,-1,-1,-1,-1,-1],"loss_changes":[1.08464516E2,6.177914E2,1.5689005E2,1.302727E2,7.6700134E1,7.924495E1,7.088549E1,0E0,0E0,0E0,0E0,0E0,0E0,0E0,0E0],"parents":[2147483647,0,0,1,1,2,2,3,3,4,4,5,5,6,6],"right_children":[2,4,6,8,10,12,14,-1,-1,-1,-1,-1,-1,-1,-1],"split_conditions":[4.6038E3,5E1,4.6173E3,4.8E1,4.64405E3,4.6413E3,4.748E3,1.5288807E-3,-2.041827E0,3.4313443E0,1.5693396E0,-2.9866364E0,-7.685797E-1,1.8443684E-3,-1.2417841E0],"split_indices":[5,1,5,1,4,4,4,0,0,0,0,0,0,0,0],"split_type":[0,0,0,0,0,0,0,0,0,0,0,0,0,0,0],"sum_hessian":[1.3069E4,2.84E2,1.2785E4,1.24E2,1.6E2,1.34E2,1.2651E4,6E1,6.4E1,2.7E1,1.33E2,1.8E1,1.16E2,1.2606E4,4.5E1],"tree_param":{"num_deleted":"0","num_feature":"7","num_nodes":"15","size_leaf_vector":"1"}},{"base_weights":[-2.5930835E-4,-6.32208E-1,6.9286143E-3,8.420817E-2,-1.3025994E0,-8.6628646E-2,6.410941E-2,1.2625254E0,-4.5950195E-1,-1.7156442E0,3.5354614E-1,-3.146467E-1,1.564094E-1,3.1948954E-1,-1.12576615E-2],"categories":[],"categories_nodes":[],"categories_segments":[],"categories_sizes":[],"default_left":[0,0,0,0,0,0,0,0,0,0,0,0,0,0,0],"id":44,"left_children":[1,3,5,7,9,11,13,-1,-1,-1,-1,-1,-1,-1,-1],"loss_changes":[5.937352E1,7.0710754E1,6.914479E1,4.6707874E1,5.259529E1,2.7175906E2,1.5440504E2,0E0,0E0,0E0,0E0,0E0,0E0,0E0,0E0],"parents":[2147483647,0,0,1,1,2,2,3,3,4,4,5,5,6,6],"right_children":[2,4,6,8,10,12,14,-1,-1,-1,-1,-1,-1,-1,-1],"split_conditions":[4.59795E3,1.9E1,2.2E1,2.1E1,2.6E1,1.3E1,3E1,1.2625254E0,-4.5950195E-1,-1.7156442E0,3.5354614E-1,-3.146467E-1,1.564094E-1,3.1948954E-1,-1.12576615E-2],"split_indices":[6,1,1,0,1,2,1,0,0,0,0,0,0,0,0],"split_type":[0,0,0,0,0,0,0,0,0,0,0,0,0,0,0],"sum_hessian":[1.3069E4,1.46E2,1.2923E4,7.1E1,7.5E1,4.902E3,8.021E3,2.2E1,4.9E1,6E1,1.5E1,2.529E3,2.373E3,1.827E3,6.194E3],"tree_param":{"num_deleted":"0","num_feature":"7","num_nodes":"15","size_leaf_vector":"1"}},{"base_weights":[-3.078376E-5,8.912155E-2,-1.9086647E-1,4.871822E-2,1.0682777E0,-3.2307738E-1,1.9004926E-1,1.1634738E-1,-3.3620855E-1,3.2713154E-1,4.3470926E0,-5.114222E-1,-4.912303E-2,1.9842826E0,1.2584803E-1],"categories":[],"categories_nodes":[],"categories_segments":[],"categories_sizes":[],"default_left":[1,1,1,0,0,1,0,0,0,0,0,0,0,0,0],"id":45,"left_children":[1,3,5,7,9,11,13,-1,-1,-1,-1,-1,-1,-1,-1],"loss_changes":[2.2238275E2,3.523984E2,2.0966475E2,2.2279729E2,8.563967E2,1.5941235E2,1.233513E2,0E0,0E0,0E0,0E0,0E0,0E0,0E0,0E0],"parents":[2147483647,0,0,1,1,2,2,3,3,4,4,5,5,6,6],"right_children":[2,4,6,8,10,12,14,-1,-1,-1,-1,-1,-1,-1,-1],"split_conditions":[4.69435E3,4.688E3,4.7122E3,1.4E1,1.2E1,4.68995E3,2E0,1.1634738E-1,-3.3620855E-1,3.2713154E-1,4.3470926E0,-5.114222E-1,-4.912303E-2,1.9842826E0,1.2584803E-1],"split_indices":[4,4,5,2,2,6,1,0,0,0,0,0,0,0,0],"split_type":[0,0,0,0,0,0,0,0,0,0,0,0,0,0,0],"sum_hessian":[1.3069E4,8.908E3,4.161E3,8.556E3,3.52E2,3.089E3,1.072E3,7.278E3,1.278E3,2.88E2,6.4E1,1.83E3,1.259E3,3.6E1,1.036E3],"tree_param":{"num_deleted":"0","num_feature":"7","num_nodes":"15","size_leaf_vector":"1"}},{"base_weights":[5.3718407E-4,-4.8550062E-2,1.5676796E-1,-2.521293E-1,4.393082E-2,5.8471495E-1,-2.0404458E-2,-7.525658E-2,-6.3139856E-1,7.843931E-2,-8.227688E-1,1.5894499E0,2.856528E-2,2.2108662E-1,-3.9288792E-1],"categories":[],"categories_nodes":[],"categories_segments":[],"categories_sizes":[],"default_left":[0,0,0,0,0,1,0,0,0,0,0,0,0,0,0],"id":46,"left_children":[1,3,5,7,9,11,13,-1,-1,-1,-1,-1,-1,-1,-1],"loss_changes":[1.0024065E2,1.872663E2,2.369507E2,2.0837747E2,2.0463866E2,5.1124106E2,1.9896948E2,0E0,0E0,0E0,0E0,0E0,0E0,0E0,0E0],"parents":[2147483647,0,0,1,1,2,2,3,3,4,4,5,5,6,6],"right_children":[2,4,6,8,10,12,14,-1,-1,-1,-1,-1,-1,-1,-1],"split_conditions":[4.5E1,4.708E3,4.70005E3,4.6845E3,4.3E1,4.6543E3,4.7375E3,-7.525658E-2,-6.3139856E-1,7.843931E-2,-8.227688E-1,1.5894499E0,2.856528E-2,2.2108662E-1,-3.9288792E-1],"split_indices":[1,6,6,6,1,4,4,0,0,0,0,0,0,0,0],"split_type":[0,0,0,0,0,0,0,0,0,0,0,0,0,0,0],"sum_hessian":[1.3069E4,9.945E3,3.124E3,3.106E3,6.839E3,9.14E2,2.21E3,2.119E3,9.87E2,6.578E3,2.61E2,3.25E2,5.89E2,1.341E3,8.69E2],"tree_param":{"num_deleted":"0","num_feature":"7","num_nodes":"15","size_leaf_vector":"1"}},{"base_weights":[-1.0949903E-4,-1.0157919E-1,7.919094E-2,2.9455552E-1,-2.5510114E-1,1.2855658E-1,-3.0536467E-1,1.8050212E-2,7.465756E-1,-7.7809286E-1,-7.6046474E-2,9.497822E-2,1.6998686E0,-1.1288135E0,-4.593836E-2],"categories":[],"categories_nodes":[],"categories_segments":[],"categories_sizes":[],"default_left":[0,0,1,0,0,1,0,0,0,0,0,0,0,0,0],"id":47,"left_children":[1,3,5,7,9,11,13,-1,-1,-1,-1,-1,-1,-1,-1],"loss_changes":[1.0517699E2,3.487905E2,1.3932361E2,2.00214E2,3.8697192E2,3.4295038E2,1.783244E2,0E0,0E0,0E0,0E0,0E0,0E0,0E0,0E0],"parents":[2147483647,0,0,1,1,2,2,3,3,4,4,5,5,6,6],"right_children":[2,4,6,8,10,12,14,-1,-1,-1,-1,-1,-1,-1,-1],"split_conditions":[1.2E1,1.9E1,4.73365E3,1.2E1,3E1,4.731E3,4.7361E3,1.8050212E-2,7.465756E-1,-7.7809286E-1,-7.6046474E-2,9.497822E-2,1.6998686E0,-1.1288135E0,-4.593836E-2],"split_indices":[2,1,5,1,1,5,5,0,0,0,0,0,0,0,0],"split_type":[0,0,0,0,0,0,0,0,0,0,0,0,0,0,0],"sum_hessian":[1.3069E4,5.733E3,7.336E3,1.601E3,4.132E3,6.502E3,8.34E2,9.94E2,6.07E2,1.053E3,3.079E3,6.367E3,1.35E2,1.99E2,6.35E2],"tree_param":{"num_deleted":"0","num_feature":"7","num_nodes":"15","size_leaf_vector":"1"}},{"base_weights":[-2.7197302E-5,7.83597E-2,-1.2341169E-1,-6.448066E-2,2.2575511E-1,-8.3967906E-1,-4.39561E-2,1.8260796E-2,-9.123447E-1,2.549363E0,1.7501275E-1,-6.6194254E-1,-4.239961E0,-6.0161525E-1,3.7537448E-2],"categories":[],"categories_nodes":[],"categories_segments":[],"categories_sizes":[],"default_left":[1,0,0,0,0,0,0,0,0,0,0,0,0,0,0],"id":48,"left_children":[1,3,5,7,9,11,13,-1,-1,-1,-1,-1,-1,-1,-1],"loss_changes":[1.2641916E2,1.6829929E2,2.889594E2,2.8483994E2,4.6339337E2,3.03601E2,2.0779997E2,0E0,0E0,0E0,0E0,0E0,0E0,0E0,0E0],"parents":[2147483647,0,0,1,1,2,2,3,3,4,4,5,5,6,6],"right_children":[2,4,6,8,10,12,14,-1,-1,-1,-1,-1,-1,-1,-1],"split_conditions":[4.64905E3,4.72E3,4.67835E3,5.2E1,4.7239E3,4.69015E3,4.673E3,1.8260796E-2,-9.123447E-1,2.549363E0,1.7501275E-1,-6.6194254E-1,-4.239961E0,-6.0161525E-1,3.7537448E-2],"split_indices":[6,4,5,1,4,6,6,0,0,0,0,0,0,0,0],"split_type":[0,0,0,0,0,0,0,0,0,0,0,0,0,0,0],"sum_hessian":[1.3069E4,7.992E3,5.077E3,4.059E3,3.933E3,5.06E2,4.571E3,3.699E3,3.6E2,8.3E1,3.85E3,4.82E2,2.4E1,5.82E2,3.989E3],"tree_param":{"num_deleted":"0","num_feature":"7","num_nodes":"15","size_leaf_vector":"1"}},{"base_weights":[-1.8302142E-4,-1.4324008E-1,6.9103666E-2,6.1638784E-3,-4.6168783E-1,1.5769506E-1,-9.548259E-2,-5.44558E-2,9.348364E-1,-2.3175168E-1,-1.144117E0,-2.9621929E-2,3.838011E-1,5.473315E-1,-3.385426E-1],"categories":[],"categories_nodes":[],"categories_segments":[],"categories_sizes":[],"default_left":[0,0,0,0,1,0,0,0,0,0,0,0,0,0,0],"id":49,"left_children":[1,3,5,7,9,11,13,-1,-1,-1,-1,-1,-1,-1,-1],"loss_changes":[1.2955907E2,2.0292026E2,1.2841469E2,1.6353401E2,2.1345325E2,2.4248517E2,4.8172446E2,0E0,0E0,0E0,0E0,0E0,0E0,0E0,0E0],"parents":[2147483647,0,0,1,1,2,2,3,3,4,4,5,5,6,6],"right_children":[2,4,6,8,10,12,14,-1,-1,-1,-1,-1,-1,-1,-1],"split_conditions":[1.9E1,1.3E1,1.3E1,1.2E1,4.7086E3,4.2E1,2.7E1,-5.44558E-2,9.348364E-1,-2.3175168E-1,-1.144117E0,-2.9621929E-2,3.838011E-1,5.473315E-1,-3.385426E-1],"split_indices":[1,1,2,1,4,1,1,0,0,0,0,0,0,0,0],"split_type":[0,0,0,0,0,0,0,0,0,0,0,0,0,0,0],"sum_hessian":[1.3069E4,4.264E3,8.805E3,2.903E3,1.361E3,5.724E3,3.081E3,2.726E3,1.77E2,1.019E3,3.42E2,3.131E3,2.593E3,8.45E2,2.236E3],"tree_param":{"num_deleted":"0","num_feature":"7","num_nodes":"15","size_leaf_vector":"1"}},{"base_weights":[7.4157484E-5,1.0374677E-1,-8.572538E-2,1.9272026E-1,-1.4870997E-1,-1.03769004E-1,9.636009E-1,3.2904812E-3,4.0636823E-1,-2.6989478E-1,5.7742685E-1,-1.5175774E-2,-4.028375E-1,7.572974E-1,1.5381174E0],"categories":[],"categories_nodes":[],"categories_segments":[],"categories_sizes":[],"default_left":[0,0,1,0,1,0,0,0,0,0,0,0,0,0,0],"id":50,"left_children":[1,3,5,7,9,11,13,-1,-1,-1,-1,-1,-1,-1,-1],"loss_changes":[1.1626736E2,1.3298099E2,1.3551343E2,1.7714146E2,1.3593483E2,1.8630984E2,1.31766815E1,0E0,0E0,0E0,0E0,0E0,0E0,0E0,0E0],"parents":[2147483647,0,0,1,1,2,2,3,3,4,4,5,5,6,6],"right_children":[2,4,6,8,10,12,14,-1,-1,-1,-1,-1,-1,-1,-1],"split_conditions":[4.732E3,4.6E1,4.74255E3,2.4E1,4.712E3,1.4E1,4.2E1,3.2904812E-3,4.0636823E-1,-2.6989478E-1,5.7742685E-1,-1.5175774E-2,-4.028375E-1,7.572974E-1,1.5381174E0],"split_indices":[6,1,4,1,4,2,1,0,0,0,0,0,0,0,0],"split_type":[0,0,0,0,0,0,0,0,0,0,0,0,0,0,0],"sum_hessian":[1.3069E4,5.918E3,7.151E3,4.376E3,1.542E3,7.031E3,1.2E2,2.32E3,2.056E3,1.322E3,2.2E2,5.425E3,1.606E3,9E1,3E1],"tree_param":{"num_deleted":"0","num_feature":"7","num_nodes":"15","size_leaf_vector":"1"}},{"base_weights":[1.8657051E-4,-6.7707695E-2,1.04544975E-1,-5.9537113E-2,-2.9978693E0,2.6073462E-1,-1.5785602E-1,-1.7160453E-1,9.97041E-2,-4.576538E0,-1.0031517E0,-3.7991386E-2,7.974398E-1,-2.4002082E0,-6.681531E-2],"categories":[],"categories_nodes":[],"categories_segments":[],"categories_sizes":[],"default_left":[0,1,0,1,0,0,0,0,0,0,0,0,0,0,0],"id":51,"left_children":[1,3,5,7,9,11,13,-1,-1,-1,-1,-1,-1,-1,-1],"loss_changes":[9.261244E1,1.894113E2,2.1119238E2,1.4096286E2,6.468701E1,5.178891E2,3.9241113E2,0E0,0E0,0E0,0E0,0E0,0E0,0E0,0E0],"parents":[2147483647,0,0,1,1,2,2,3,3,4,4,5,5,6,6],"right_children":[2,4,6,8,10,12,14,-1,-1,-1,-1,-1,-1,-1,-1],"split_conditions":[1.3E1,4.70895E3,3E1,4.6522E3,1.4E1,4.7381E3,3.1E1,-1.7160453E-1,9.97041E-2,-4.576538E0,-1.0031517E0,-3.7991386E-2,7.974398E-1,-2.4002082E0,-6.681531E-2],"split_indices":[2,5,1,4,0,4,1,0,0,0,0,0,0,0,0],"split_type":[0,0,0,0,0,0,0,0,0,0,0,0,0,0,0],"sum_hessian":[1.3069E4,7.918E3,5.151E3,7.897E3,2.1E1,3.229E3,1.922E3,4.635E3,3.262E3,1.1E1,1E1,2.075E3,1.154E3,7.4E1,1.848E3],"tree_param":{"num_deleted":"0","num_feature":"7","num_nodes":"15","size_leaf_vector":"1"}},{"base_weights":[-5.8272464E-4,2.8796157E-2,-3.2157865E-1,1.6634768E-2,6.581149E-1,5.1451993E-1,-5.641607E-1,3.713412E-2,-7.5264955E-1,5.2902017E0,4.647501E-1,2.2760532E0,2.8798607E-1,-1.5498334E0,-4.2917705E-1],"categories":[],"categories_nodes":[],"categories_segments":[],"categories_sizes":[],"default_left":[1,1,0,0,0,0,0,0,0,0,0,0,0,0,0],"id":52,"left_children":[1,3,5,7,9,11,13,-1,-1,-1,-1,-1,-1,-1,-1],"loss_changes":[1.2326591E2,9.16384E1,2.225838E2,1.8530766E2,2.0086133E2,9.7909134E1,1.1242709E2,0E0,0E0,0E0,0E0,0E0,0E0,0E0,0E0],"parents":[2147483647,0,0,1,1,2,2,3,3,4,4,5,5,6,6],"right_children":[2,4,6,8,10,12,14,-1,-1,-1,-1,-1,-1,-1,-1],"split_conditions":[4.71225E3,4.73765E3,4.7146E3,1.5E1,2E0,1.6E1,5E0,3.713412E-2,-7.5264955E-1,5.2902017E0,4.647501E-1,2.2760532E0,2.8798607E-1,-1.5498334E0,-4.2917705E-1],"split_indices":[6,5,4,2,1,1,1,0,0,0,0,0,0,0,0],"split_type":[0,0,0,0,0,0,0,0,0,0,0,0,0,0,0],"sum_hessian":[1.3069E4,1.1974E4,1.095E3,1.1748E4,2.26E2,2.46E2,8.49E2,1.1444E4,3.04E2,8E0,2.18E2,2.7E1,2.19E2,1.01E2,7.48E2],"tree_param":{"num_deleted":"0","num_feature":"7","num_nodes":"15","size_leaf_vector":"1"}},{"base_weights":[4.4543055E-4,5.4244894E-1,-1.0037087E-2,2.940604E0,3.9727187E-1,-3.6216795E-2,2.1414755E-1,-3.672461E-1,6.0065156E-1,8.323225E-2,-8.659771E-2,1.283311E0,1.3252392E-1],"categories":[],"categories_nodes":[],"categories_segments":[],"categories_sizes":[],"default_left":[0,0,1,0,0,0,0,0,0,0,0,0,0],"id":53,"left_children":[1,3,5,-1,7,9,11,-1,-1,-1,-1,-1,-1],"loss_changes":[7.426345E1,8.5174774E1,7.5267075E1,0E0,3.676014E1,6.911135E1,1.16857666E2,0E0,0E0,0E0,0E0,0E0,0E0],"parents":[2147483647,0,0,1,1,2,2,4,4,5,5,6,6],"right_children":[2,4,6,-1,8,10,12,-1,-1,-1,-1,-1,-1],"split_conditions":[4.6041E3,1.3E1,4.7219E3,2.940604E0,1.9E1,1.6E1,4.7239E3,-3.672461E-1,6.0065156E-1,8.323225E-2,-8.659771E-2,1.283311E0,1.3252392E-1],"split_indices":[4,0,4,0,0,0,4,0,0,0,0,0,0],"split_type":[0,0,0,0,0,0,0,0,0,0,0,0,0],"sum_hessian":[1.3069E4,2.47E2,1.2822E4,1.3E1,2.34E2,1.1482E4,1.34E3,4.9E1,1.85E2,3.406E3,8.076E3,9.4E1,1.246E3],"tree_param":{"num_deleted":"0","num_feature":"7","num_nodes":"13","size_leaf_vector":"1"}},{"base_weights":[3.2386457E-4,1.1883706E-1,-2.7165418E-2,6.5544665E-2,1.0086169E0,-5.402656E-1,-1.0961426E-3,6.5083337E-1,-1.0779711E-2,-6.3702714E-1,4.4603405E0,-1.0745751E0,2.547743E-1,7.923084E-1,-9.431782E-3],"categories":[],"categories_nodes":[],"categories_segments":[],"categories_sizes":[],"default_left":[0,0,0,0,0,0,0,0,0,0,0,0,0,0,0],"id":54,"left_children":[1,3,5,7,9,11,13,-1,-1,-1,-1,-1,-1,-1,-1],"loss_changes":[4.2583237E1,1.1663081E2,1.4192036E2,1.037796E2,7.924043E2,2.1819478E2,6.679095E1,0E0,0E0,0E0,0E0,0E0,0E0,0E0,0E0],"parents":[2147483647,0,0,1,1,2,2,3,3,4,4,5,5,6,6],"right_children":[2,4,6,8,10,12,14,-1,-1,-1,-1,-1,-1,-1,-1],"split_conditions":[4.67685E3,4.67555E3,4.683E3,6E0,4.6925E3,4.5E1,4.684E3,6.5083337E-1,-1.0779711E-2,-6.3702714E-1,4.4603405E0,-1.0745751E0,2.547743E-1,7.923084E-1,-9.431782E-3],"split_indices":[5,5,5,1,6,1,5,0,0,0,0,0,0,0,0],"split_type":[0,0,0,0,0,0,0,0,0,0,0,0,0,0,0],"sum_hessian":[1.3069E4,2.46E3,1.0609E4,2.322E3,1.38E2,5.12E2,1.0097E4,2.67E2,2.055E3,9.4E1,4.4E1,3.06E2,2.06E2,1.04E2,9.993E3],"tree_param":{"num_deleted":"0","num_feature":"7","num_nodes":"15","size_leaf_vector":"1"}},{"base_weights":[2.1470178E-4,-2.7584273E-1,1.8764265E-2,-4.9765944E-1,3.5772762E-1,4.6833557E-1,9.85437E-3,-3.5579023E-1,-2.1146564E0,3.2196655E0,1.2582444E-1,8.54615E-1,-4.341227E-1,-4.1716263E-2,7.587231E-2],"categories":[],"categories_nodes":[],"categories_segments":[],"categories_sizes":[],"default_left":[0,0,0,0,0,1,0,0,0,0,0,0,0,0,0],"id":55,"left_children":[1,3,5,7,9,11,13,-1,-1,-1,-1,-1,-1,-1,-1],"loss_changes":[6.6933304E1,1.1583957E2,4.905637E1,1.391829E2,1.4162509E2,8.3338066E1,4.0895657E1,0E0,0E0,0E0,0E0,0E0,0E0,0E0,0E0],"parents":[2147483647,0,0,1,1,2,2,3,3,4,4,5,5,6,6],"right_children":[2,4,6,8,10,12,14,-1,-1,-1,-1,-1,-1,-1,-1],"split_conditions":[4.6437E3,4.9E1,4.6045E3,4.8E1,4.6425E3,4.648E3,3.3E1,-3.5579023E-1,-2.1146564E0,3.2196655E0,1.2582444E-1,8.54615E-1,-4.341227E-1,-4.1716263E-2,7.587231E-2],"split_indices":[5,1,6,1,4,4,1,0,0,0,0,0,0,0,0],"split_type":[0,0,0,0,0,0,0,0,0,0,0,0,0,0,0],"sum_hessian":[1.3069E4,8.22E2,1.2247E4,6.09E2,2.13E2,2.37E2,1.201E4,5.61E2,4.8E1,1.5E1,1.98E2,1.66E2,7.1E1,6.743E3,5.267E3],"tree_param":{"num_deleted":"0","num_feature":"7","num_nodes":"15","size_leaf_vector":"1"}},{"base_weights":[7.468051E-5,-2.2011314E-1,1.3458921E-2,2.408509E-1,-3.850602E-1,3.1594136E-1,6.38995E-4,-5.59058E-1,5.926885E-1,-2.229837E0,-2.6346585E-1,-8.9994766E-2,8.742896E-1,-3.2566392E-1,1.568086E-2],"categories":[],"categories_nodes":[],"categories_segments":[],"categories_sizes":[],"default_left":[0,0,0,0,0,0,0,0,0,0,0,0,0,0,0],"id":56,"left_children":[1,3,5,7,9,11,13,-1,-1,-1,-1,-1,-1,-1,-1],"loss_changes":[3.8520863E1,5.704269E1,4.7782074E1,5.605608E1,1.23234085E2,1.1363219E2,5.8029903E1,0E0,0E0,0E0,0E0,0E0,0E0,0E0,0E0],"parents":[2147483647,0,0,1,1,2,2,3,3,4,4,5,5,6,6],"right_children":[2,4,6,8,10,12,14,-1,-1,-1,-1,-1,-1,-1,-1],"split_conditions":[4.64555E3,2.4E1,4.65005E3,4.593E3,4.64555E3,2.5E1,4.65945E3,-5.59058E-1,5.926885E-1,-2.229837E0,-2.6346585E-1,-8.9994766E-2,8.742896E-1,-3.2566392E-1,1.568086E-2],"split_indices":[6,1,6,6,5,1,6,0,0,0,0,0,0,0,0],"split_type":[0,0,0,0,0,0,0,0,0,0,0,0,0,0,0],"sum_hessian":[1.3069E4,7.48E2,1.2321E4,1.97E2,5.51E2,5E2,1.1821E4,6E1,1.37E2,3.3E1,5.18E2,2.9E2,2.1E2,5.2E2,1.1301E4],"tree_param":{"num_deleted":"0","num_feature":"7","num_nodes":"15","size_leaf_vector":"1"}},{"base_weights":[-1.01989885E-4,1.5459333E-1,-2.6851613E-2,2.4521554E-1,-2.2869824E-1,-6.1375935E-2,9.7043335E-2,1.5398234E-1,1.1835371E0,-8.056222E-2,-2.8096435E0,-4.0227517E-2,-1.4799881E0,2.8290015E-1,-1.092258E-1],"categories":[],"categories_nodes":[],"categories_segments":[],"categories_sizes":[],"default_left":[0,0,1,0,1,1,0,0,0,0,0,0,0,0,0],"id":57,"left_children":[1,3,5,7,9,11,13,-1,-1,-1,-1,-1,-1,-1,-1],"loss_changes":[5.4088356E1,6.698988E1,4.767318E1,1.3327762E2,1.4085376E2,2.6143265E2,9.3150314E1,0E0,0E0,0E0,0E0,0E0,0E0,0E0,0E0],"parents":[2147483647,0,0,1,1,2,2,3,3,4,4,5,5,6,6],"right_children":[2,4,6,8,10,12,14,-1,-1,-1,-1,-1,-1,-1,-1],"split_conditions":[4.67305E3,4.8E1,4.708E3,4.2E1,4.654E3,4.70695E3,4.728E3,1.5398234E-1,1.1835371E0,-8.056222E-2,-2.8096435E0,-4.0227517E-2,-1.4799881E0,2.8290015E-1,-1.092258E-1],"split_indices":[5,1,5,1,6,5,5,0,0,0,0,0,0,0,0],"split_type":[0,0,0,0,0,0,0,0,0,0,0,0,0,0,0],"sum_hessian":[1.3069E4,1.926E3,1.1143E4,1.558E3,3.68E2,8.715E3,2.428E3,1.421E3,1.37E2,3.49E2,1.9E1,8.588E3,1.27E2,1.277E3,1.151E3],"tree_param":{"num_deleted":"0","num_feature":"7","num_nodes":"15","size_leaf_vector":"1"}},{"base_weights":[-2.9618162E-4,-2.1002006E-2,1.4057778E-1,1.0654082E-6,-2.796146E-1,7.38388E-1,6.720883E-2,-2.0235473E-2,5.5790436E-1,-3.6365366E-1,1.1426188E0,2.7605793E0,3.3965984E-1,4.3071356E-1,-8.6565755E-2],"categories":[],"categories_nodes":[],"categories_segments":[],"categories_sizes":[],"default_left":[1,1,0,1,0,0,0,0,0,0,0,0,0,0,0],"id":58,"left_children":[1,3,5,7,9,11,13,-1,-1,-1,-1,-1,-1,-1,-1],"loss_changes":[3.8126984E1,6.1899185E1,7.341705E1,1.190195E2,1.0272734E2,1.4661609E2,8.3492676E1,0E0,0E0,0E0,0E0,0E0,0E0,0E0,0E0],"parents":[2147483647,0,0,1,1,2,2,3,3,4,4,5,5,6,6],"right_children":[2,4,6,8,10,12,14,-1,-1,-1,-1,-1,-1,-1,-1],"split_conditions":[4.70845E3,4.702E3,8E0,4.691E3,5.8E1,1.6E1,4.7146E3,-2.0235473E-2,5.5790436E-1,-3.6365366E-1,1.1426188E0,2.7605793E0,3.3965984E-1,4.3071356E-1,-8.6565755E-2],"split_indices":[6,6,1,6,1,0,4,0,0,0,0,0,0,0,0],"split_type":[0,0,0,0,0,0,0,0,0,0,0,0,0,0,0],"sum_hessian":[1.3069E4,1.1395E4,1.674E3,1.054E4,8.55E2,1.82E2,1.492E3,1.0172E4,3.68E2,8.08E2,4.7E1,2.9E1,1.53E2,4.43E2,1.049E3],"tree_param":{"num_deleted":"0","num_feature":"7","num_nodes":"15","size_leaf_vector":"1"}},{"base_weights":[1.8578598E-4,-4.2727288E-2,5.5817444E-2,-1.6375747E-2,-3.8184878E-1,-1.0346923E-1,1.8475811E-1,5.741157E-2,-1.9924305E-1,1.3859863E0,-4.3582076E-1,8.569891E-1,-1.3778503E-1,-4.2495468E-1,2.5346872E-1],"categories":[],"categories_nodes":[],"categories_segments":[],"categories_sizes":[],"default_left":[0,1,0,0,0,0,0,0,0,0,0,0,0,0,0],"id":59,"left_children":[1,3,5,7,9,11,13,-1,-1,-1,-1,-1,-1,-1,-1],"loss_changes":[3.120473E1,6.593526E1,1.1692443E2,9.241347E1,5.136405E1,8.406438E1,1.3190543E2,0E0,0E0,0E0,0E0,0E0,0E0,0E0,0E0],"parents":[2147483647,0,0,1,1,2,2,3,3,4,4,5,5,6,6],"right_children":[2,4,6,8,10,12,14,-1,-1,-1,-1,-1,-1,-1,-1],"split_conditions":[3.4E1,4.714E3,4.7125E3,4.3E1,4.7072E3,2E0,6E0,5.741157E-2,-1.9924305E-1,1.3859863E0,-4.3582076E-1,8.569891E-1,-1.3778503E-1,-4.2495468E-1,2.5346872E-1],"split_indices":[0,6,4,1,4,1,1,0,0,0,0,0,0,0,0],"split_type":[0,0,0,0,0,0,0,0,0,0,0,0,0,0,0],"sum_hessian":[1.3069E4,7.378E3,5.691E3,6.847E3,5.31E2,2.546E3,3.145E3,4.879E3,1.968E3,1.5E1,5.16E2,8.7E1,2.459E3,3.18E2,2.827E3],"tree_param":{"num_deleted":"0","num_feature":"7","num_nodes":"15","size_leaf_vector":"1"}},{"base_weights":[2.2378E-5,-2.956217E-2,1.6130634E-1,4.508533E-2,-9.504498E-2,1.4712243E-1,3.3237305E0,-9.236045E-2,1.8246041E-1,-1.7393492E-2,-6.785859E-1,4.2678997E-1,1.3323001E-2,4.4348145E0,8.261719E-1],"categories":[],"categories_nodes":[],"categories_segments":[],"categories_sizes":[],"default_left":[0,0,0,0,0,0,0,0,0,0,0,0,0,0,0],"id":60,"left_children":[1,3,5,7,9,11,13,-1,-1,-1,-1,-1,-1,-1,-1],"loss_changes":[6.236844E1,5.3993656E1,9.03883E1,9.74838E1,2.666088E2,7.550658E1,2.1311058E1,0E0,0E0,0E0,0E0,0E0,0E0,0E0,0E0],"parents":[2147483647,0,0,1,1,2,2,3,3,4,4,5,5,6,6],"right_children":[2,4,6,8,10,12,14,-1,-1,-1,-1,-1,-1,-1,-1],"split_conditions":[5E1,4.715E3,1.5E1,2.4E1,4.3E1,5.3E1,3.2E1,-9.236045E-2,1.8246041E-1,-1.7393492E-2,-6.785859E-1,4.2678997E-1,1.3323001E-2,4.4348145E0,8.261719E-1],"split_indices":[1,4,2,1,1,1,0,0,0,0,0,0,0,0,0],"split_type":[0,0,0,0,0,0,0,0,0,0,0,0,0,0,0],"sum_hessian":[1.3069E4,1.1044E4,2.025E3,5.161E3,5.883E3,2.017E3,8E0,2.58E3,2.581E3,5.193E3,6.9E2,6.52E2,1.365E3,5E0,3E0],"tree_param":{"num_deleted":"0","num_feature":"7","num_nodes":"15","size_leaf_vector":"1"}},{"base_weights":[4.402003E-4,-2.4207607E-2,2.1078221E-1,-4.3278966E-2,2.8348264E-1,9.3805933E-1,7.170953E-2,-2.5676316E-2,-3.9504835E-1,1.2433637E0,-2.597075E-1,-9.5027045E-4,2.2691932E0,-1.6482527E0,1.2866911E-1],"categories":[],"categories_nodes":[],"categories_segments":[],"categories_sizes":[],"default_left":[1,0,0,0,0,0,0,0,0,0,0,0,0,0,0],"id":61,"left_children":[1,3,5,7,9,11,13,-1,-1,-1,-1,-1,-1,-1,-1],"loss_changes":[6.776612E1,6.866872E1,1.3860168E2,6.821412E1,3.564377E2,2.749906E2,1.13071594E2,0E0,0E0,0E0,0E0,0E0,0E0,0E0,0E0],"parents":[2147483647,0,0,1,1,2,2,3,3,4,4,5,5,6,6],"right_children":[2,4,6,8,10,12,14,-1,-1,-1,-1,-1,-1,-1,-1],"split_conditions":[4.716E3,5.6E1,4.728E3,5.3E1,1.1E1,4.748E3,4.7287E3,-2.5676316E-2,-3.9504835E-1,1.2433637E0,-2.597075E-1,-9.5027045E-4,2.2691932E0,-1.6482527E0,1.2866911E-1],"split_indices":[5,1,5,1,2,4,5,0,0,0,0,0,0,0,0],"split_type":[0,0,0,0,0,0,0,0,0,0,0,0,0,0,0],"sum_hessian":[1.3069E4,1.1699E4,1.37E3,1.1017E4,6.82E2,2.19E2,1.151E3,1.0493E4,5.24E2,2.46E2,4.36E2,1.29E2,9E1,3.6E1,1.115E3],"tree_param":{"num_deleted":"0","num_feature":"7","num_nodes":"15","size_leaf_vector":"1"}},{"base_weights":[2.4910938E-4,-2.3264061E-1,1.2693148E-2,-7.184907E-1,9.202763E-1,1.723135E-1,-1.3444884E-2,-4.3330994E-1,-4.715442E0,3.412802E0,2.2286417E-1,3.0654353E-1,-1.133163E0,-4.6070743E-1,3.9414978E-3],"categories":[],"categories_nodes":[],"categories_segments":[],"categories_sizes":[],"default_left":[0,0,0,0,0,0,0,0,0,0,0,0,0,0,0],"id":62,"left_children":[1,3,5,7,9,11,13,-1,-1,-1,-1,-1,-1,-1,-1],"loss_changes":[3.788097E1,3.720372E2,5.1770508E1,5.3026843E2,3.41688E2,3.0630615E2,8.292026E1,0E0,0E0,0E0,0E0,0E0,0E0,0E0,0E0],"parents":[2147483647,0,0,1,1,2,2,3,3,4,4,5,5,6,6],"right_children":[2,4,6,8,10,12,14,-1,-1,-1,-1,-1,-1,-1,-1],"split_conditions":[4.6441E3,4.3E1,4.676E3,4.1E1,4.5E1,5.3E1,4.648E3,-4.3330994E-1,-4.715442E0,3.412802E0,2.2286417E-1,3.0654353E-1,-1.133163E0,-4.6070743E-1,3.9414978E-3],"split_indices":[4,1,4,1,1,1,5,0,0,0,0,0,0,0,0],"split_type":[0,0,0,0,0,0,0,0,0,0,0,0,0,0,0],"sum_hessian":[1.3069E4,6.62E2,1.2407E4,4.66E2,1.96E2,1.745E3,1.0662E4,4.36E2,3E1,4.2E1,1.54E2,1.583E3,1.62E2,3.98E2,1.0264E4],"tree_param":{"num_deleted":"0","num_feature":"7","num_nodes":"15","size_leaf_vector":"1"}},{"base_weights":[-1.9329511E-4,-2.272556E-2,2.2792928E-1,6.552449E-2,-8.593081E-2,-2.3284075E-1,7.275096E-1,2.0419435E-1,-3.6310387E-1,6.273684E-2,-1.5082033E-1,1.8276774E0,-3.609964E-1,1.6952895E0,2.313239E-1],"categories":[],"categories_nodes":[],"categories_segments":[],"categories_sizes":[],"default_left":[0,1,0,0,0,0,1,0,0,0,0,0,0,0,0],"id":63,"left_children":[1,3,5,7,9,11,13,-1,-1,-1,-1,-1,-1,-1,-1],"loss_changes":[6.718652E1,6.635993E1,2.706446E2,2.95183E2,6.688227E1,1.6226883E2,2.7043982E2,0E0,0E0,0E0,0E0,0E0,0E0,0E0,0E0],"parents":[2147483647,0,0,1,1,2,2,3,3,4,4,5,5,6,6],"right_children":[2,4,6,8,10,12,14,-1,-1,-1,-1,-1,-1,-1,-1],"split_conditions":[5.4E1,4.62115E3,1.2E1,1.4E1,1.6E1,4.65005E3,4.67595E3,2.0419435E-1,-3.6310387E-1,6.273684E-2,-1.5082033E-1,1.8276774E0,-3.609964E-1,1.6952895E0,2.313239E-1],"split_indices":[1,4,2,2,0,6,6,0,0,0,0,0,0,0,0],"split_type":[0,0,0,0,0,0,0,0,0,0,0,0,0,0,0],"sum_hessian":[1.3069E4,1.1895E4,1.174E3,4.964E3,6.931E3,6.11E2,5.63E2,3.751E3,1.213E3,2.106E3,4.825E3,3.5E1,5.76E2,1.9E2,3.73E2],"tree_param":{"num_deleted":"0","num_feature":"7","num_nodes":"15","size_leaf_vector":"1"}},{"base_weights":[3.3301752E-4,-2.490666E-2,2.5232652E-1,6.096783E-1,-3.5658363E-2,-7.3674046E-2,4.4996205E-1,5.502955E-1,4.286133E0,-2.2674281E-2,-4.572971E-1,1.6817248E-1,-5.088406E-1,-1.0239025E0,5.3775114E-1],"categories":[],"categories_nodes":[],"categories_segments":[],"categories_sizes":[],"default_left":[1,0,0,0,0,1,0,0,0,0,0,0,0,0,0],"id":64,"left_children":[1,3,5,7,9,11,13,-1,-1,-1,-1,-1,-1,-1,-1],"loss_changes":[8.3134544E1,8.108427E1,7.670401E1,4.086841E1,6.395476E1,4.744516E1,9.642801E1,0E0,0E0,0E0,0E0,0E0,0E0,0E0,0E0],"parents":[2147483647,0,0,1,1,2,2,3,3,4,4,5,5,6,6],"right_children":[2,4,6,8,10,12,14,-1,-1,-1,-1,-1,-1,-1,-1],"split_conditions":[4.7112E3,4.60175E3,4.733E3,5.8E1,5.8E1,4.73365E3,1.4E1,5.502955E-1,4.286133E0,-2.2674281E-2,-4.572971E-1,1.6817248E-1,-5.088406E-1,-1.0239025E0,5.3775114E-1],"split_indices":[6,5,4,0,1,5,2,0,0,0,0,0,0,0,0],"split_type":[0,0,0,0,0,0,0,0,0,0,0,0,0,0,0],"sum_hessian":[1.3069E4,1.188E4,1.189E3,1.97E2,1.1683E4,4.49E2,7.4E2,1.95E2,2E0,1.1335E4,3.48E2,2.89E2,1.6E2,4.1E1,6.99E2],"tree_param":{"num_deleted":"0","num_feature":"7","num_nodes":"15","size_leaf_vector":"1"}},{"base_weights":[1.0314801E-4,-1.8026984E-1,1.8236114E-2,-4.3105233E-1,5.7327718E-2,5.1222265E-1,1.2980728E-2,-5.8739114E-1,9.621044E-1,-2.7331045E-1,2.775978E-1,9.5254475E-1,-2.9785156E-2,-1.3183069E-2,1.1300335E-1],"categories":[],"categories_nodes":[],"categories_segments":[],"categories_sizes":[],"default_left":[0,1,0,1,0,0,0,0,0,0,0,0,0,0,0],"id":65,"left_children":[1,3,5,7,9,11,13,-1,-1,-1,-1,-1,-1,-1,-1],"loss_changes":[4.27513E1,7.116957E1,3.0827116E1,1.2710953E2,4.4793312E1,2.9860619E1,3.0758757E1,0E0,0E0,0E0,0E0,0E0,0E0,0E0,0E0],"parents":[2147483647,0,0,1,1,2,2,3,3,4,4,5,5,6,6],"right_children":[2,4,6,8,10,12,14,-1,-1,-1,-1,-1,-1,-1,-1],"split_conditions":[5E0,4.646E3,4.5998E3,4.71105E3,2E0,3.1E1,4.7E1,-5.8739114E-1,9.621044E-1,-2.7331045E-1,2.775978E-1,9.5254475E-1,-2.9785156E-2,-1.3183069E-2,1.1300335E-1],"split_indices":[0,6,4,4,0,1,1,0,0,0,0,0,0,0,0],"split_type":[0,0,0,0,0,0,0,0,0,0,0,0,0,0,0],"sum_hessian":[1.3069E4,1.193E3,1.1876E4,5.8E2,6.13E2,1.24E2,1.1752E4,5.22E2,5.8E1,2.45E2,3.68E2,6.8E1,5.6E1,9.316E3,2.436E3],"tree_param":{"num_deleted":"0","num_feature":"7","num_nodes":"15","size_leaf_vector":"1"}},{"base_weights":[1.4342094E-4,-2.3394283E-3,9.810902E-1,5.613352E-2,-4.130117E-2,1.5991617E0,-6.003906E-1,1.4684513E-1,-2.368671E-1,1.2916738E-1,-1.1538726E-1,4.758789E-1,2.2414062E0,1.1837565E0,-2.621289E0],"categories":[],"categories_nodes":[],"categories_segments":[],"categories_sizes":[],"default_left":[1,0,1,1,0,0,0,0,0,0,0,0,0,0,0],"id":66,"left_children":[1,3,5,7,9,11,13,-1,-1,-1,-1,-1,-1,-1,-1],"loss_changes":[3.183484E1,2.9705591E1,3.3216576E1,1.3861539E2,9.8839554E1,1.6247498E1,3.9158768E1,0E0,0E0,0E0,0E0,0E0,0E0,0E0,0E0],"parents":[2147483647,0,0,1,1,2,2,3,3,4,4,5,5,6,6],"right_children":[2,4,6,8,10,12,14,-1,-1,-1,-1,-1,-1,-1,-1],"split_conditions":[4.743E3,2.3E1,4.739E3,4.683E3,4.70235E3,1.4E1,4.717E3,1.4684513E-1,-2.368671E-1,1.2916738E-1,-1.1538726E-1,4.758789E-1,2.2414062E0,1.1837565E0,-2.621289E0],"split_indices":[6,1,5,6,6,0,4,0,0,0,0,0,0,0,0],"split_type":[0,0,0,0,0,0,0,0,0,0,0,0,0,0,0],"sum_hessian":[1.3069E4,1.3037E4,3.2E1,5.213E3,7.824E3,2.3E1,9E0,3.981E3,1.232E3,2.37E3,5.454E3,9E0,1.4E1,5E0,4E0],"tree_param":{"num_deleted":"0","num_feature":"7","num_nodes":"15","size_leaf_vector":"1"}},{"base_weights":[-5.6449346E-5,-2.2551066E-1,2.3006126E-2,-1.1374311E-1,-8.7050456E-1,-1.7961928E-1,4.0689852E-2,1.4864865E-1,-2.5934553E-1,-2.8887234E0,-6.269228E-1,-3.7695312E-1,7.238584E-1,3.2355538E-1,3.0030087E-2],"categories":[],"categories_nodes":[],"categories_segments":[],"categories_sizes":[],"default_left":[0,1,0,0,0,1,0,0,0,0,0,0,0,0,0],"id":67,"left_children":[1,3,5,7,9,11,13,-1,-1,-1,-1,-1,-1,-1,-1],"loss_changes":[6.796337E1,8.734541E1,4.2496567E1,3.9580593E1,8.618561E1,1.7000182E2,3.2877937E1,0E0,0E0,0E0,0E0,0E0,0E0,0E0,0E0],"parents":[2147483647,0,0,1,1,2,2,3,3,4,4,5,5,6,6],"right_children":[2,4,6,8,10,12,14,-1,-1,-1,-1,-1,-1,-1,-1],"split_conditions":[4.65E3,4.65495E3,5E0,4.6498E3,4.65785E3,4.70545E3,7E0,1.4864865E-1,-2.5934553E-1,-2.8887234E0,-6.269228E-1,-3.7695312E-1,7.238584E-1,3.2355538E-1,3.0030087E-2],"split_indices":[6,5,1,5,4,4,1,0,0,0,0,0,0,0,0],"split_type":[0,0,0,0,0,0,0,0,0,0,0,0,0,0,0],"sum_hessian":[1.3069E4,1.212E3,1.1857E4,1.034E3,1.78E2,9.51E2,1.0906E4,3.69E2,6.65E2,1.8E1,1.6E2,7.81E2,1.7E2,3.95E2,1.0511E4],"tree_param":{"num_deleted":"0","num_feature":"7","num_nodes":"15","size_leaf_vector":"1"}},{"base_weights":[-4.1912988E-4,-1.9269465E-2,1.1391602E-1,2.5873458E-2,-1.3934983E-1,1.2503225E0,8.035458E-2,-1.345766E-2,4.917361E-1,-2.4953613E0,-1.0184473E-1,8.435806E-1,4.986328E0,-1.7913046E-1,1.9787538E-1],"categories":[],"categories_nodes":[],"categories_segments":[],"categories_sizes":[],"default_left":[1,1,0,1,0,0,0,0,0,0,0,0,0,0,0],"id":68,"left_children":[1,3,5,7,9,11,13,-1,-1,-1,-1,-1,-1,-1,-1],"loss_changes":[2.8171385E1,6.0830162E1,7.045747E1,1.494482E2,2.7066513E2,7.63319E1,5.486526E1,0E0,0E0,0E0,0E0,0E0,0E0,0E0,0E0],"parents":[2147483647,0,0,1,1,2,2,3,3,4,4,5,5,6,6],"right_children":[2,4,6,8,10,12,14,-1,-1,-1,-1,-1,-1,-1,-1],"split_conditions":[4.707E3,4.693E3,2E0,4.68495E3,4.69435E3,4.7456E3,1.4E1,-1.345766E-2,4.917361E-1,-2.4953613E0,-1.0184473E-1,8.435806E-1,4.986328E0,-1.7913046E-1,1.9787538E-1],"split_indices":[6,4,1,4,4,5,2,0,0,0,0,0,0,0,0],"split_type":[0,0,0,0,0,0,0,0,0,0,0,0,0,0,0],"sum_hessian":[1.3069E4,1.122E4,1.849E3,8.155E3,3.065E3,5.2E1,1.797E3,7.521E3,6.34E2,4.7E1,3.018E3,4.8E1,4E0,5.6E2,1.237E3],"tree_param":{"num_deleted":"0","num_feature":"7","num_nodes":"15","size_leaf_vector":"1"}},{"base_weights":[4.7180595E-4,-9.744636E-2,2.1879379E-2,-5.2700695E-2,-1.5509278E0,-4.1534785E-2,9.6609384E-2,7.046072E-3,-6.9034207E-1,-4.380381E-1,-3.9591398E0,-2.3258656E-1,1.5595795E-1,2.0095885E-1,-1.557502E-1],"categories":[],"categories_nodes":[],"categories_segments":[],"categories_sizes":[],"default_left":[0,0,0,0,0,0,0,0,0,0,0,0,0,0,0],"id":69,"left_children":[1,3,5,7,9,11,13,-1,-1,-1,-1,-1,-1,-1,-1],"loss_changes":[2.739934E1,1.5243002E2,5.0833893E1,8.671365E1,1.8587093E2,2.1899124E2,1.296979E2,0E0,0E0,0E0,0E0,0E0,0E0,0E0,0E0],"parents":[2147483647,0,0,1,1,2,2,3,3,4,4,5,5,6,6],"right_children":[2,4,6,8,10,12,14,-1,-1,-1,-1,-1,-1,-1,-1],"split_conditions":[4.679E3,4.67745E3,1.3E1,1.3E1,4.70895E3,3.3E1,3.8E1,7.046072E-3,-6.9034207E-1,-4.380381E-1,-3.9591398E0,-2.3258656E-1,1.5595795E-1,2.0095885E-1,-1.557502E-1],"split_indices":[6,6,2,2,4,1,1,0,0,0,0,0,0,0,0],"split_type":[0,0,0,0,0,0,0,0,0,0,0,0,0,0,0],"sum_hessian":[1.3069E4,2.344E3,1.0725E4,2.275E3,6.9E1,5.802E3,4.923E3,2.081E3,1.94E2,4.8E1,2.1E1,2.949E3,2.853E3,3.483E3,1.44E3],"tree_param":{"num_deleted":"0","num_feature":"7","num_nodes":"15","size_leaf_vector":"1"}},{"base_weights":[-4.0661462E-4,3.0136054E-2,-3.234714E-1,9.748488E-2,-3.7229095E-2,3.285416E-1,-3.9276224E-1,1.3386631E-1,-1.3058937E0,-4.4423845E-2,3.8650568E0,2.2723748E-1,1.5791016E0,-5.963712E-1,-2.6011136E-1],"categories":[],"categories_nodes":[],"categories_segments":[],"categories_sizes":[],"default_left":[1,0,0,1,0,0,0,0,0,0,0,0,0,0,0],"id":70,"left_children":[1,3,5,7,9,11,13,-1,-1,-1,-1,-1,-1,-1,-1],"loss_changes":[1.2897485E2,5.4184048E1,5.1135582E1,3.050867E2,1.6781337E2,1.3450039E1,2.7420975E1,0E0,0E0,0E0,0E0,0E0,0E0,0E0,0E0],"parents":[2147483647,0,0,1,1,2,2,3,3,4,4,5,5,6,6],"right_children":[2,4,6,8,10,12,14,-1,-1,-1,-1,-1,-1,-1,-1],"split_conditions":[4.712E3,3E1,4.7101E3,4.7313E3,1.5E1,4.7E1,1.8E1,1.3386631E-1,-1.3058937E0,-4.4423845E-2,3.8650568E0,2.2723748E-1,1.5791016E0,-5.963712E-1,-2.6011136E-1],"split_indices":[6,1,4,4,2,0,1,0,0,0,0,0,0,0,0],"split_type":[0,0,0,0,0,0,0,0,0,0,0,0,0,0,0],"sum_hessian":[1.3069E4,1.1941E4,1.128E3,5.971E3,5.97E3,1.08E2,1.02E3,5.821E3,1.5E2,5.96E3,1E1,1.01E2,7E0,4.01E2,6.19E2],"tree_param":{"num_deleted":"0","num_feature":"7","num_nodes":"15","size_leaf_vector":"1"}},{"base_weights":[3.1407655E-4,-2.2312514E-2,2.3964661E-1,1.0993248E-2,-2.0365782E-1,3.9645806E-1,-1.3798946E-1,-5.5821963E-2,1.9500442E-1,-6.2054608E-2,-1.222801E0,2.0533104E0,3.1091374E-1,-6.500358E-1,2.824747E-1],"categories":[],"categories_nodes":[],"categories_segments":[],"categories_sizes":[],"default_left":[1,1,1,1,0,0,1,0,0,0,0,0,0,0,0],"id":71,"left_children":[1,3,5,7,9,11,13,-1,-1,-1,-1,-1,-1,-1,-1],"loss_changes":[7.078305E1,7.213005E1,6.691144E1,1.2406487E2,2.6733786E2,1.1246561E2,7.166227E1,0E0,0E0,0E0,0E0,0E0,0E0,0E0,0E0],"parents":[2147483647,0,0,1,1,2,2,3,3,4,4,5,5,6,6],"right_children":[2,4,6,8,10,12,14,-1,-1,-1,-1,-1,-1,-1,-1],"split_conditions":[4.727E3,4.709E3,4.7116E3,4.65945E3,5E1,7E0,4.70035E3,-5.5821963E-2,1.9500442E-1,-6.2054608E-2,-1.222801E0,2.0533104E0,3.1091374E-1,-6.500358E-1,2.824747E-1],"split_indices":[4,4,6,6,1,1,5,0,0,0,0,0,0,0,0],"split_type":[0,0,0,0,0,0,0,0,0,0,0,0,0,0,0],"sum_hessian":[1.3069E4,1.1941E4,1.128E3,1.0089E4,1.852E3,7.97E2,3.31E2,7.402E3,2.687E3,1.627E3,2.25E2,3.8E1,7.59E2,1.49E2,1.82E2],"tree_param":{"num_deleted":"0","num_feature":"7","num_nodes":"15","size_leaf_vector":"1"}},{"base_weights":[-6.7619667E-6,4.652079E-2,-1.4520733E-1,2.712875E-2,3.9271855E-1,-6.677858E-1,-6.9126345E-2,-5.9610945E-1,3.6778476E-2,2.0357306E0,2.7837887E-1,-7.5771457E-1,1.0922363E0,-3.1802833E-1,6.539386E-2],"categories":[],"categories_nodes":[],"categories_segments":[],"categories_sizes":[],"default_left":[1,1,0,0,0,1,0,0,0,0,0,0,0,0,0],"id":72,"left_children":[1,3,5,7,9,11,13,-1,-1,-1,-1,-1,-1,-1,-1],"loss_changes":[8.830541E1,6.644609E1,1.2606711E2,5.6403915E1,9.806059E1,6.46131E1,9.27669E1,0E0,0E0,0E0,0E0,0E0,0E0,0E0,0E0],"parents":[2147483647,0,0,1,1,2,2,3,3,4,4,5,5,6,6],"right_children":[2,4,6,8,10,12,14,-1,-1,-1,-1,-1,-1,-1,-1],"split_conditions":[4.702E3,4.68985E3,4.7055E3,1E0,4.676E3,4.73E3,1.5E1,-5.9610945E-1,3.6778476E-2,2.0357306E0,2.7837887E-1,-7.5771457E-1,1.0922363E0,-3.1802833E-1,6.539386E-2],"split_indices":[5,5,5,1,6,4,1,0,0,0,0,0,0,0,0],"split_type":[0,0,0,0,0,0,0,0,0,0,0,0,0,0,0],"sum_hessian":[1.3069E4,9.898E3,3.171E3,9.374E3,5.24E2,4.02E2,2.769E3,1.42E2,9.232E3,3.3E1,4.91E2,3.83E2,1.9E1,9.71E2,1.798E3],"tree_param":{"num_deleted":"0","num_feature":"7","num_nodes":"15","size_leaf_vector":"1"}},{"base_weights":[2.4118926E-4,2.1150716E-1,-1.0350134E-2,5.069806E-1,-3.33394E-1,8.5674657E-4,-1.8463914E-1,-6.533824E-3,1.9372034E0,4.2586035E-1,-1.6939094E0,-2.0835702E-3,1.5611905E0,-1.21103376E-1,-1.229424E0],"categories":[],"categories_nodes":[],"categories_segments":[],"categories_sizes":[],"default_left":[0,0,1,0,0,1,0,0,0,0,0,0,0,0,0],"id":73,"left_children":[1,3,5,7,9,11,13,-1,-1,-1,-1,-1,-1,-1,-1],"loss_changes":[2.9247442E1,1.0063542E2,2.4312088E1,2.9746085E2,2.2797638E2,5.3663048E1,4.9769775E1,0E0,0E0,0E0,0E0,0E0,0E0,0E0,0E0],"parents":[2147483647,0,0,1,1,2,2,3,3,4,4,5,5,6,6],"right_children":[2,4,6,8,10,12,14,-1,-1,-1,-1,-1,-1,-1,-1],"split_conditions":[3E0,1.4E1,4.73365E3,1.3E1,4.7456E3,4.7332E3,5.7E1,-6.533824E-3,1.9372034E0,4.2586035E-1,-1.6939094E0,-2.0835702E-3,1.5611905E0,-1.21103376E-1,-1.229424E0],"split_indices":[1,2,5,2,5,5,1,0,0,0,0,0,0,0,0],"split_type":[0,0,0,0,0,0,0,0,0,0,0,0,0,0,0],"sum_hessian":[1.3069E4,6.23E2,1.2446E4,4.04E2,2.19E2,1.1695E4,7.51E2,2.98E2,1.06E2,1.41E2,7.8E1,1.1674E4,2.1E1,7.09E2,4.2E1],"tree_param":{"num_deleted":"0","num_feature":"7","num_nodes":"15","size_leaf_vector":"1"}},{"base_weights":[-5.2115713E-5,-1.15124315E-1,3.1818707E-2,-4.3197814E-2,-7.0083797E-1,4.1681305E-1,2.5353087E-2,-1.2786286E-1,1.7168937E0,-1.1836253E0,-1.1378338E-1,-5.7026427E-3,7.966665E-1,3.6209935E-1,1.8700173E-2],"categories":[],"categories_nodes":[],"categories_segments":[],"categories_sizes":[],"default_left":[0,0,0,0,1,1,0,0,0,0,0,0,0,0,0],"id":74,"left_children":[1,3,5,7,9,11,13,-1,-1,-1,-1,-1,-1,-1,-1],"loss_changes":[4.7937183E1,1.1940354E2,2.5469162E1,3.7663956E2,8.772633E1,2.712804E1,2.2549011E1,0E0,0E0,0E0,0E0,0E0,0E0,0E0,0E0],"parents":[2147483647,0,0,1,1,2,2,3,3,4,4,5,5,6,6],"right_children":[2,4,6,8,10,12,14,-1,-1,-1,-1,-1,-1,-1,-1],"split_conditions":[4.68565E3,5.5E1,1E0,5.2E1,4.6437E3,4.64585E3,4.68745E3,-1.2786286E-1,1.7168937E0,-1.1836253E0,-1.1378338E-1,-5.7026427E-3,7.966665E-1,3.6209935E-1,1.8700173E-2],"split_indices":[6,1,1,1,5,4,6,0,0,0,0,0,0,0,0],"split_type":[0,0,0,0,0,0,0,0,0,0,0,0,0,0,0],"sum_hessian":[1.3069E4,2.834E3,1.0235E4,2.525E3,3.09E2,1.68E2,1.0067E4,2.41E3,1.15E2,1.69E2,1.4E2,8E1,8.8E1,1.94E2,9.873E3],"tree_param":{"num_deleted":"0","num_feature":"7","num_nodes":"15","size_leaf_vector":"1"}},{"base_weights":[2.3099028E-4,-1.7596923E-2,1.0836439E-1,1.4189137E-2,-1.5374193E-1,7.070418E-2,8.707121E-1,6.95768E-2,-1.1276276E-1,9.255782E-2,-4.333047E-1,1.5732242E-1,-9.7565466E-1,1.5418011E0,1.1497861E-1],"categories":[],"categories_nodes":[],"categories_segments":[],"categories_sizes":[],"default_left":[1,0,0,1,0,0,1,0,0,0,0,0,0,0,0],"id":75,"left_children":[1,3,5,7,9,11,13,-1,-1,-1,-1,-1,-1,-1,-1],"loss_changes":[2.519816E1,4.856121E1,5.305226E1,6.398106E1,1.4629076E2,1.6003146E2,4.394603E1,0E0,0E0,0E0,0E0,0E0,0E0,0E0,0E0],"parents":[2147483647,0,0,1,1,2,2,3,3,4,4,5,5,6,6],"right_children":[2,4,6,8,10,12,14,-1,-1,-1,-1,-1,-1,-1,-1],"split_conditions":[4.707E3,1.4E1,5.5E1,4.681E3,2.3E1,4.9E1,4.73585E3,6.95768E-2,-1.1276276E-1,9.255782E-2,-4.333047E-1,1.5732242E-1,-9.7565466E-1,1.5418011E0,1.1497861E-1],"split_indices":[6,2,1,4,1,1,4,0,0,0,0,0,0,0,0],"split_type":[0,0,0,0,0,0,0,0,0,0,0,0,0,0,0],"sum_hessian":[1.3069E4,1.122E4,1.849E3,9.097E3,2.123E3,1.763E3,8.6E1,6.334E3,2.763E3,1.129E3,9.94E2,1.629E3,1.34E2,4.5E1,4.1E1],"tree_param":{"num_deleted":"0","num_feature":"7","num_nodes":"15","size_leaf_vector":"1"}},{"base_weights":[1.3542613E-4,-7.8001946E-2,7.3936984E-2,6.788343E-2,-1.5408976E-1,-7.9538584E-2,2.2489998E-1,-2.9635776E-2,7.9977417E-1,-4.056325E-1,-2.4749855E-2,-9.79322E-2,3.1348171E0,5.4948244E0,2.0924196E-1],"categories":[],"categories_nodes":[],"categories_segments":[],"categories_sizes":[],"default_left":[0,0,0,1,0,1,0,0,0,0,0,0,0,0,0],"id":76,"left_children":[1,3,5,7,9,11,13,-1,-1,-1,-1,-1,-1,-1,-1],"loss_changes":[7.5376015E1,7.048499E1,1.557608E2,1.554036E2,1.357565E2,1.9742511E2,2.7849908E2,0E0,0E0,0E0,0E0,0E0,0E0,0E0,0E0],"parents":[2147483647,0,0,1,1,2,2,3,3,4,4,5,5,6,6],"right_children":[2,4,6,8,10,12,14,-1,-1,-1,-1,-1,-1,-1,-1],"split_conditions":[2.8E1,4.705E3,1.2E1,4.68995E3,1.3E1,4.693E3,4.693E3,-2.9635776E-2,7.9977417E-1,-4.056325E-1,-2.4749855E-2,-9.79322E-2,3.1348171E0,5.4948244E0,2.0924196E-1],"split_indices":[1,4,2,5,2,4,4,0,0,0,0,0,0,0,0],"split_type":[0,0,0,0,0,0,0,0,0,0,0,0,0,0,0],"sum_hessian":[1.3069E4,6.348E3,6.721E3,2.176E3,4.172E3,3.333E3,3.388E3,1.921E3,2.55E2,1.416E3,2.756E3,3.315E3,1.8E1,9E0,3.379E3],"tree_param":{"num_deleted":"0","num_feature":"7","num_nodes":"15","size_leaf_vector":"1"}},{"base_weights":[7.567052E-4,9.609399E-2,-7.375123E-2,3.1902382E-1,-4.504186E-2,-2.1824181E-1,5.3293552E-2,4.873517E-2,7.0463353E-1,-9.0462965E-1,1.1222853E-3,-7.2961175E-1,-5.7486754E-2,4.8604876E-1,-5.6440048E-2],"categories":[],"categories_nodes":[],"categories_segments":[],"categories_sizes":[],"default_left":[0,0,0,0,0,0,0,0,0,0,0,0,0,0,0],"id":77,"left_children":[1,3,5,7,9,11,13,-1,-1,-1,-1,-1,-1,-1,-1],"loss_changes":[9.284832E1,1.8042545E2,1.3469528E2,2.3165993E2,1.3936469E2,2.8216882E2,1.8546724E2,0E0,0E0,0E0,0E0,0E0,0E0,0E0,0E0],"parents":[2147483647,0,0,1,1,2,2,3,3,4,4,5,5,6,6],"right_children":[2,4,6,8,10,12,14,-1,-1,-1,-1,-1,-1,-1,-1],"split_conditions":[1.2E1,2.6E1,2.4E1,4.68645E3,2.8E1,1.3E1,3E1,4.873517E-2,7.0463353E-1,-9.0462965E-1,1.1222853E-3,-7.2961175E-1,-5.7486754E-2,4.8604876E-1,-5.6440048E-2],"split_indices":[2,1,1,4,1,2,1,0,0,0,0,0,0,0,0],"split_type":[0,0,0,0,0,0,0,0,0,0,0,0,0,0,0],"sum_hessian":[1.3069E4,5.733E3,7.336E3,2.222E3,3.511E3,3.432E3,3.904E3,1.307E3,9.15E2,1.78E2,3.333E3,8.2E2,2.612E3,7.89E2,3.115E3],"tree_param":{"num_deleted":"0","num_feature":"7","num_nodes":"15","size_leaf_vector":"1"}},{"base_weights":[7.318615E-5,1.4845813E-2,-6.603048E-1,1.3070205E-1,-2.9860785E-2,-9.8184884E-1,-3.3189467E-1,6.9094226E-2,7.0095235E-1,-8.0729234E-1,-8.117785E-3,-6.1270237E-1,-1.7073771E0,-8.552246E-1,2.578843E-1],"categories":[],"categories_nodes":[],"categories_segments":[],"categories_sizes":[],"default_left":[1,0,0,1,0,1,0,0,0,0,0,0,0,0,0],"id":78,"left_children":[1,3,5,7,9,11,13,-1,-1,-1,-1,-1,-1,-1,-1],"loss_changes":[1.2751441E2,6.6224304E1,2.9875237E1,1.2502107E2,1.5594693E2,3.752086E1,4.4357353E1,0E0,0E0,0E0,0E0,0E0,0E0,0E0,0E0],"parents":[2147483647,0,0,1,1,2,2,3,3,4,4,5,5,6,6],"right_children":[2,4,6,8,10,12,14,-1,-1,-1,-1,-1,-1,-1,-1],"split_conditions":[4.732E3,4.68985E3,3.1E1,4.6843E3,4.698E3,4.73725E3,4.718E3,6.9094226E-2,7.0095235E-1,-8.0729234E-1,-8.117785E-3,-6.1270237E-1,-1.7073771E0,-8.552246E-1,2.578843E-1],"split_indices":[6,4,0,5,4,5,4,0,0,0,0,0,0,0,0],"split_type":[0,0,0,0,0,0,0,0,0,0,0,0,0,0,0],"sum_hessian":[1.3069E4,1.2784E4,2.85E2,3.559E3,9.225E3,1.43E2,1.42E2,3.213E3,3.46E2,2.5E2,8.975E3,9.6E1,4.7E1,7.5E1,6.7E1],"tree_param":{"num_deleted":"0","num_feature":"7","num_nodes":"15","size_leaf_vector":"1"}},{"base_weights":[-1.6699443E-4,-7.110811E-2,6.0103364E-2,1.4806771E-2,-2.0668218E-1,-2.0378835E-2,1.7126136E-1,-6.6149E-2,2.8527904E-1,-1.5129871E0,-1.5894033E-1,-1.6634712E-1,1.3645324E-1,3.7576467E-1,6.1405662E-2],"categories":[],"categories_nodes":[],"categories_segments":[],"categories_sizes":[],"default_left":[0,0,0,0,0,1,0,0,0,0,0,0,0,0,0],"id":79,"left_children":[1,3,5,7,9,11,13,-1,-1,-1,-1,-1,-1,-1,-1],"loss_changes":[5.5886974E1,6.993664E1,6.3226566E1,8.050963E1,1.4500858E2,9.388199E1,6.6655594E1,0E0,0E0,0E0,0E0,0E0,0E0,0E0,0E0],"parents":[2147483647,0,0,1,1,2,2,3,3,4,4,5,5,6,6],"right_children":[2,4,6,8,10,12,14,-1,-1,-1,-1,-1,-1,-1,-1],"split_conditions":[4.725E3,4.691E3,3.3E1,4.6819E3,2E0,4.6489E3,4.3E1,-6.6149E-2,2.8527904E-1,-1.5129871E0,-1.5894033E-1,-1.6634712E-1,1.3645324E-1,3.7576467E-1,6.1405662E-2],"split_indices":[5,5,1,5,1,4,1,0,0,0,0,0,0,0,0],"split_type":[0,0,0,0,0,0,0,0,0,0,0,0,0,0,0],"sum_hessian":[1.3069E4,6.003E3,7.066E3,3.675E3,2.328E3,4.099E3,2.967E3,2.829E3,8.46E2,8.1E1,2.247E3,2.123E3,1.976E3,1.036E3,1.931E3],"tree_param":{"num_deleted":"0","num_feature":"7","num_nodes":"15","size_leaf_vector":"1"}},{"base_weights":[-5.4730837E-5,6.160581E-2,-4.3542903E-2,1.8419406E-1,-2.17383E-2,-7.132813E-1,-3.2886643E-2,-1.0489392E-1,6.003785E-1,1.1612707E-1,-6.532052E-1,1.3194987E0,-8.131369E-1,4.4533804E-1,-4.2777836E-2],"categories":[],"categories_nodes":[],"categories_segments":[],"categories_sizes":[],"default_left":[1,0,0,0,0,0,0,0,0,0,0,0,0,0,0],"id":80,"left_children":[1,3,5,7,9,11,13,-1,-1,-1,-1,-1,-1,-1,-1],"loss_changes":[3.5049942E1,5.523715E1,5.4680935E1,2.6330988E2,2.803137E2,2.5431072E1,3.5713238E1,0E0,0E0,0E0,0E0,0E0,0E0,0E0,0E0],"parents":[2147483647,0,0,1,1,2,2,3,3,4,4,5,5,6,6],"right_children":[2,4,6,8,10,12,14,-1,-1,-1,-1,-1,-1,-1,-1],"split_conditions":[4.605E3,2.5E1,4.6242E3,1.3E1,1.4E1,3.6E1,4.6241E3,-1.0489392E-1,6.003785E-1,1.1612707E-1,-6.532052E-1,1.3194987E0,-8.131369E-1,4.4533804E-1,-4.2777836E-2],"split_indices":[4,1,4,2,2,1,6,0,0,0,0,0,0,0,0],"split_type":[0,0,0,0,0,0,0,0,0,0,0,0,0,0,0],"sum_hessian":[1.3069E4,5.405E3,7.664E3,2.187E3,3.218E3,1.19E2,7.545E3,1.291E3,8.96E2,2.642E3,5.76E2,5E0,1.14E2,1.52E2,7.393E3],"tree_param":{"num_deleted":"0","num_feature":"7","num_nodes":"15","size_leaf_vector":"1"}},{"base_weights":[1.5586146E-4,-2.9896157E-2,9.580297E-2,-1.3147575E-2,-4.1259181E-1,3.2886628E-2,6.629529E-1,3.3007023E-1,-5.297377E-2,-2.971119E0,1.389884E-1,-8.519464E-3,7.7352923E-1,1.5138003E0,-4.2082414E-1],"categories":[],"categories_nodes":[],"categories_segments":[],"categories_sizes":[],"default_left":[0,0,1,0,0,1,1,0,0,0,0,0,0,0,0],"id":81,"left_children":[1,3,5,7,9,11,13,-1,-1,-1,-1,-1,-1,-1,-1],"loss_changes":[3.757112E1,6.374455E1,1.1148758E2,1.3028363E2,5.8889703E2,8.6303856E1,2.8834125E2,0E0,0E0,0E0,0E0,0E0,0E0,0E0,0E0],"parents":[2147483647,0,0,1,1,2,2,3,3,4,4,5,5,6,6],"right_children":[2,4,6,8,10,12,14,-1,-1,-1,-1,-1,-1,-1,-1],"split_conditions":[4.5E1,4.3E1,4.729E3,1E1,1E1,4.7305E3,4.733E3,3.3007023E-1,-5.297377E-2,-2.971119E0,1.389884E-1,-8.519464E-3,7.7352923E-1,1.5138003E0,-4.2082414E-1],"split_indices":[1,1,5,2,2,4,4,0,0,0,0,0,0,0,0],"split_type":[0,0,0,0,0,0,0,0,0,0,0,0,0,0,0],"sum_hessian":[1.3069E4,9.945E3,3.124E3,9.529E3,4.16E2,2.813E3,3.11E2,9.9E2,8.539E3,7.3E1,3.43E2,2.665E3,1.48E2,1.74E2,1.37E2],"tree_param":{"num_deleted":"0","num_feature":"7","num_nodes":"15","size_leaf_vector":"1"}},{"base_weights":[-2.5549775E-4,4.9440634E-2,-5.9823938E-2,-4.5740902E-2,1.0360066E-1,2.8719055E-2,-2.2243401E-1,2.1804754E-1,-1.1763709E-1,-2.1905737E-1,1.4609754E-1,5.9412444E-1,-2.3579067E-2,-4.790496E-1,-1.774256E-2],"categories":[],"categories_nodes":[],"categories_segments":[],"categories_sizes":[],"default_left":[0,0,0,0,0,0,1,0,0,0,0,0,0,0,0],"id":82,"left_children":[1,3,5,7,9,11,13,-1,-1,-1,-1,-1,-1,-1,-1],"loss_changes":[3.8694355E1,3.6739517E1,8.56024E1,4.905117E1,6.2311737E1,1.1385712E2,1.1008813E2,0E0,0E0,0E0,0E0,0E0,0E0,0E0,0E0],"parents":[2147483647,0,0,1,1,2,2,3,3,4,4,5,5,6,6],"right_children":[2,4,6,8,10,12,14,-1,-1,-1,-1,-1,-1,-1,-1],"split_conditions":[4.733E3,4.7017E3,1.4E1,1E1,8E0,6E0,4.70735E3,2.1804754E-1,-1.1763709E-1,-2.1905737E-1,1.4609754E-1,5.9412444E-1,-2.3579067E-2,-4.790496E-1,-1.774256E-2],"split_indices":[4,5,2,1,1,1,5,0,0,0,0,0,0,0,0],"split_type":[0,0,0,0,0,0,0,0,0,0,0,0,0,0,0],"sum_hessian":[1.3069E4,7.125E3,5.944E3,2.584E3,4.541E3,3.849E3,2.095E3,5.53E2,2.031E3,5.28E2,4.013E3,3.25E2,3.524E3,9.29E2,1.166E3],"tree_param":{"num_deleted":"0","num_feature":"7","num_nodes":"15","size_leaf_vector":"1"}},{"base_weights":[-1.576547E-5,-3.4935504E-1,8.498696E-3,-1.6431506E-1,-5.8013475E-1,1.0074148E0,-1.3037963E-3,-5.3230417E-1,4.17143E-1,4.500558E-1,-6.90875E-1,-8.7386064E-2,2.0025015E0,-5.246997E-2,5.074462E-2],"categories":[],"categories_nodes":[],"categories_segments":[],"categories_sizes":[],"default_left":[0,0,0,0,0,0,1,0,0,0,0,0,0,0,0],"id":83,"left_children":[1,3,5,7,9,11,13,-1,-1,-1,-1,-1,-1,-1,-1],"loss_changes":[3.887884E1,1.3185455E1,1.2494554E2,3.745286E1,1.6054466E1,1.3526332E2,3.3656487E1,0E0,0E0,0E0,0E0,0E0,0E0,0E0,0E0],"parents":[2147483647,0,0,1,1,2,2,3,3,4,4,5,5,6,6],"right_children":[2,4,6,8,10,12,14,-1,-1,-1,-1,-1,-1,-1,-1],"split_conditions":[4.61055E3,3.1E1,4.6289E3,2.6E1,4.5958E3,4.3E1,4.64555E3,-5.3230417E-1,4.17143E-1,4.500558E-1,-6.90875E-1,-8.7386064E-2,2.0025015E0,-5.246997E-2,5.074462E-2],"split_indices":[4,1,4,1,4,1,5,0,0,0,0,0,0,0,0],"split_type":[0,0,0,0,0,0,0,0,0,0,0,0,0,0,0],"sum_hessian":[1.3069E4,3.1E2,1.2759E4,1.73E2,1.37E2,1.23E2,1.2636E4,1.06E2,6.7E1,1.3E1,1.24E2,5.9E1,6.4E1,6.372E3,6.264E3],"tree_param":{"num_deleted":"0","num_feature":"7","num_nodes":"15","size_leaf_vector":"1"}},{"base_weights":[-6.7619667E-6,-1.0485435E-1,1.6532969E-2,-2.0110247E-1,2.4816191E-1,2.4116576E-1,-8.302654E-3,-8.198019E-2,-5.595997E-1,8.5125303E-1,-1.0821609E-1,6.45686E-1,3.3688124E-2,-6.851844E-1,4.8639155E-3],"categories":[],"categories_nodes":[],"categories_segments":[],"categories_sizes":[],"default_left":[0,1,0,1,0,1,0,0,0,0,0,0,0,0,0],"id":84,"left_children":[1,3,5,7,9,11,13,-1,-1,-1,-1,-1,-1,-1,-1],"loss_changes":[2.266709E1,6.056321E1,6.2987732E1,5.9741123E1,8.219477E1,9.431433E1,9.061379E1,0E0,0E0,0E0,0E0,0E0,0E0,0E0,0E0],"parents":[2147483647,0,0,1,1,2,2,3,3,4,4,5,5,6,6],"right_children":[2,4,6,8,10,12,14,-1,-1,-1,-1,-1,-1,-1,-1],"split_conditions":[8E0,4.7048E3,1.3E1,4.68725E3,4.7101E3,4.6241E3,1.4E1,-8.198019E-2,-5.595997E-1,8.5125303E-1,-1.0821609E-1,6.45686E-1,3.3688124E-2,-6.851844E-1,4.8639155E-3],"split_indices":[1,4,1,5,4,5,1,0,0,0,0,0,0,0,0],"split_type":[0,0,0,0,0,0,0,0,0,0,0,0,0,0,0],"sum_hessian":[1.3069E4,1.78E3,1.1289E4,1.399E3,3.81E2,1.123E3,1.0166E4,1.051E3,3.48E2,1.41E2,2.4E2,3.8E2,7.43E2,1.93E2,